       X(m)            Y(m)              Y(m)         
   -1132914.8743    6092529.0379    1504633.3105
   -1132915.2101    6092529.2733    1504633.2717
   -1132915.3490    6092529.7812    1504633.1945
   -1132915.5735    6092530.0491    1504633.2672
   -1132915.5430    6092529.9642    1504633.3842
   -1132915.4493    6092529.9200    1504633.4421
   -1132915.5302    6092529.8589    1504633.4031
   -1132915.5572    6092529.6557    1504633.3719
   -1132915.5960    6092529.6402    1504633.2984
   -1132915.6822    6092529.8124    1504633.2947
   -1132915.6476    6092529.7717    1504633.2931
   -1132915.6618    6092529.8492    1504633.3209
   -1132915.6712    6092529.8707    1504633.3233
   -1132915.6694    6092529.8541    1504633.3497
   -1132915.7423    6092530.0018    1504633.3281
   -1132915.6872    6092529.9914    1504633.3217
   -1132915.6479    6092530.0403    1504633.3279
   -1132915.6145    6092530.0712    1504633.3235
   -1132915.6367    6092530.1449    1504633.3444
   -1132915.6180    6092530.1417    1504633.3226
   -1132915.5938    6092530.0718    1504633.3269
   -1132915.5493    6092530.0053    1504633.3576
   -1132915.5425    6092529.9370    1504633.4208
   -1132915.5223    6092529.9400    1504633.3979
   -1132915.5059    6092530.0041    1504633.3991
   -1132915.5205    6092530.0647    1504633.4107
   -1132915.4824    6092530.1216    1504633.3980
   -1132915.5082    6092530.1332    1504633.4257
   -1132915.4755    6092530.1609    1504633.4563
   -1132915.4164    6092530.1054    1504633.2704
   -1132915.4398    6092530.0779    1504633.2897
   -1132915.4204    6092530.0597    1504633.3083
   -1132915.4230    6092530.0654    1504633.2937
   -1132915.4426    6092530.0822    1504633.3176
   -1132915.4373    6092530.0666    1504633.3148
   -1132915.4080    6092530.0226    1504633.1257
   -1132915.5095    6092530.1776    1504633.4297
   -1132915.5080    6092530.1544    1504633.4458
   -1132915.5118    6092530.1511    1504633.4774
   -1132915.5388    6092530.2008    1504633.5158
   -1132915.5577    6092530.2069    1504633.5794
   -1132915.5383    6092530.1813    1504633.5476
   -1132915.5538    6092530.1967    1504633.5639
   -1132915.5510    6092530.1740    1504633.5795
   -1132915.5507    6092530.1846    1504633.5865
   -1132915.5566    6092530.2179    1504633.6312
   -1132915.5747    6092530.2178    1504633.6452
   -1132915.5642    6092530.2398    1504633.6640
   -1132915.5743    6092530.2515    1504633.6754
   -1132915.5789    6092530.2631    1504633.6711
   -1132915.5807    6092530.2519    1504633.6443
   -1132915.5849    6092530.2536    1504633.6344
   -1132915.5690    6092530.1218    1504633.5091
   -1132915.5773    6092530.1066    1504633.5128
   -1132915.5816    6092530.0901    1504633.4978
   -1132915.5787    6092530.1465    1504633.5090
   -1132915.5743    6092530.1458    1504633.5066
   -1132915.5675    6092530.1597    1504633.4928
   -1132915.5740    6092530.1664    1504633.4914
   -1132915.5644    6092530.1724    1504633.4842
   -1132915.5760    6092530.1890    1504633.4619
   -1132915.4349    6092529.8731    1504633.3466
   -1132915.4388    6092529.8823    1504633.3366
   -1132915.4326    6092529.9130    1504633.3494
   -1132915.4318    6092529.9323    1504633.3431
   -1132915.4694    6092530.2301    1504633.6164
   -1132915.4657    6092530.2272    1504633.6069
   -1132915.4575    6092530.2268    1504633.5826
   -1132915.4650    6092530.1824    1504633.5364
   -1132915.4707    6092530.2088    1504633.5248
   -1132915.4767    6092530.1822    1504633.4934
   -1132915.4788    6092530.1943    1504633.4806
   -1132915.4832    6092530.2322    1504633.4734
   -1132915.4697    6092530.2108    1504633.4467
   -1132915.4752    6092530.2338    1504633.4403
   -1132915.4632    6092530.2440    1504633.4212
   -1132915.4516    6092530.2260    1504633.4117
   -1132915.4416    6092530.2178    1504633.4157
   -1132915.4025    6092530.1363    1504633.3129
   -1132915.4110    6092530.1244    1504633.2818
   -1132915.4083    6092530.1301    1504633.2710
   -1132915.4720    6092530.2501    1504633.4582
   -1132915.3985    6092530.1050    1504633.2556
   -1132915.4104    6092530.1556    1504633.3031
   -1132915.4403    6092530.1947    1504633.3950
   -1132915.4207    6092530.1869    1504633.3485
   -1132915.4220    6092530.2027    1504633.3746
   -1132915.4281    6092530.2061    1504633.3845
   -1132915.4222    6092530.2052    1504633.3565
   -1132915.4181    6092530.2044    1504633.3580
   -1132915.4280    6092530.2311    1504633.3764
   -1132915.4188    6092530.2122    1504633.3359
   -1132915.4244    6092530.2167    1504633.3401
   -1132915.4429    6092530.2658    1504633.3863
   -1132915.4269    6092530.2519    1504633.3523
   -1132915.4284    6092530.2646    1504633.3565
   -1132915.4463    6092530.2867    1504633.3807
   -1132915.4315    6092530.2761    1504633.3470
   -1132915.4382    6092530.2680    1504633.3526
   -1132915.3274    6092530.2001    1504633.2129
   -1132915.3090    6092530.1704    1504633.1845
   -1132915.3225    6092530.1679    1504633.1874
   -1132915.3263    6092530.1759    1504633.2029
   -1132915.2847    6092530.1451    1504633.1625
   -1132915.4704    6092530.3177    1504633.4177
   -1132915.4344    6092530.2709    1504633.3546
   -1132915.3302    6092530.1970    1504633.2321
   -1132915.3996    6092530.2460    1504633.3176
   -1132915.4119    6092530.2674    1504633.3431
   -1132915.3977    6092530.2588    1504633.3307
   -1132915.3821    6092530.2702    1504633.3186
   -1132915.3821    6092530.2738    1504633.3255
   -1132915.3348    6092530.2516    1504633.2910
   -1132915.3454    6092530.2672    1504633.2968
   -1132915.3572    6092530.2859    1504633.3192
   -1132915.3410    6092530.2714    1504633.2971
   -1132915.3417    6092530.2743    1504633.3010
   -1132915.3228    6092530.2714    1504633.2867
   -1132915.3042    6092530.2757    1504633.2635
   -1132915.3117    6092530.2855    1504633.2753
   -1132915.2927    6092530.2642    1504633.2618
   -1132915.2933    6092530.2609    1504633.2784
   -1132915.2585    6092530.1845    1504633.1851
   -1132915.2627    6092530.2024    1504633.1989
   -1132915.1939    6092530.0197    1504632.9941
   -1132915.2537    6092530.2159    1504633.2053
   -1132915.2519    6092530.1727    1504633.1721
   -1132915.3108    6092530.3529    1504633.3846
   -1132915.3107    6092530.3842    1504633.4158
   -1132915.2922    6092530.3244    1504633.3449
   -1132915.2680    6092530.2646    1504633.2755
   -1132915.2827    6092530.3059    1504633.3117
   -1132915.3334    6092530.4053    1504633.4348
   -1132915.3418    6092530.4148    1504633.4705
   -1132915.3694    6092530.4496    1504633.5339
   -1132915.2871    6092530.2238    1504633.2762
   -1132915.3403    6092530.3670    1504633.4328
   -1132915.3447    6092530.3693    1504633.4551
   -1132915.3269    6092530.3185    1504633.3974
   -1132915.3113    6092530.2638    1504633.3648
   -1132915.3249    6092530.2985    1504633.4011
   -1132915.3089    6092530.2785    1504633.3777
   -1132915.2962    6092530.2618    1504633.3551
   -1132915.3088    6092530.2669    1504633.3831
   -1132915.2931    6092530.2651    1504633.3676
   -1132915.3072    6092530.2785    1504633.3860
   -1132915.3028    6092530.2877    1504633.3950
   -1132915.3031    6092530.2739    1504633.3932
   -1132915.2953    6092530.2886    1504633.3891
   -1132915.2852    6092530.2636    1504633.3824
   -1132915.2856    6092530.2583    1504633.3807
   -1132915.2863    6092530.2636    1504633.3865
   -1132915.2941    6092530.2639    1504633.3858
   -1132915.2842    6092530.2572    1504633.3765
   -1132915.2889    6092530.2486    1504633.3672
   -1132915.2934    6092530.2368    1504633.3667
   -1132915.3050    6092530.2607    1504633.3935
   -1132915.3085    6092530.2583    1504633.4074
   -1132915.3190    6092530.2681    1504633.4103
   -1132915.3122    6092530.2468    1504633.4039
   -1132915.3048    6092530.2565    1504633.3949
   -1132915.3050    6092530.2454    1504633.4070
   -1132915.3108    6092530.2578    1504633.4226
   -1132915.3141    6092530.2778    1504633.4382
   -1132915.3178    6092530.2775    1504633.4483
   -1132915.3140    6092530.2844    1504633.4432
   -1132915.3099    6092530.2783    1504633.4428
   -1132915.3214    6092530.2846    1504633.4579
   -1132915.3160    6092530.2827    1504633.4595
   -1132915.3132    6092530.2641    1504633.4580
   -1132915.3202    6092530.2720    1504633.4693
   -1132915.3139    6092530.2624    1504633.4689
   -1132915.3223    6092530.2723    1504633.4862
   -1132915.3120    6092530.2540    1504633.4774
   -1132915.3139    6092530.2434    1504633.4785
   -1132915.3158    6092530.2424    1504633.4773
   -1132914.8150    6092529.4057    1504633.6325
   -1132914.8303    6092529.4173    1504633.6298
   -1132914.8441    6092529.4560    1504633.6083
   -1132914.8805    6092529.4928    1504633.5980
   -1132914.9425    6092529.5796    1504633.5785
   -1132915.0250    6092529.6672    1504633.5790
   -1132915.0345    6092529.6695    1504633.5844
   -1132915.0612    6092529.6953    1504633.5781
   -1132915.0849    6092529.7225    1504633.5620
   -1132915.0960    6092529.7417    1504633.5495
   -1132915.0962    6092529.7440    1504633.5461
   -1132915.1069    6092529.7442    1504633.5313
   -1132915.1161    6092529.7439    1504633.5117
   -1132915.1235    6092529.7357    1504633.5073
   -1132915.1300    6092529.7346    1504633.4967
   -1132915.1392    6092529.7330    1504633.4725
   -1132915.1377    6092529.7117    1504633.4619
   -1132915.1436    6092529.7065    1504633.4545
   -1132915.1521    6092529.6996    1504633.4478
   -1132915.1584    6092529.6753    1504633.4538
   -1132915.1503    6092529.6410    1504633.4305
   -1132915.1407    6092529.6096    1504633.4265
   -1132915.1504    6092529.5779    1504633.4133
   -1132915.1474    6092529.5413    1504633.4028
   -1132915.1428    6092529.5012    1504633.3985
   -1132915.1674    6092529.4931    1504633.3760
   -1132915.1758    6092529.8359    1504633.6582
   -1132915.1868    6092529.8195    1504633.6599
   -1132915.1914    6092529.7970    1504633.6545
   -1132915.1938    6092529.7766    1504633.6624
   -1132915.2023    6092529.7517    1504633.6635
   -1132915.2091    6092529.7483    1504633.6684
   -1132915.2191    6092529.7391    1504633.6653
   -1132915.2264    6092529.7023    1504633.6755
   -1132915.2335    6092529.7063    1504633.6707
   -1132915.2430    6092529.6756    1504633.6753
   -1132915.2720    6092529.6876    1504633.7177
   -1132915.1822    6092530.6561    1504633.5257
   -1132915.1871    6092530.6620    1504633.5200
   -1132915.1954    6092530.6679    1504633.5226
   -1132915.1911    6092530.6652    1504633.5162
   -1132915.1976    6092530.6784    1504633.5163
   -1132915.1392    6092530.3624    1504633.2033
   -1132915.2590    6092530.9551    1504633.7944
   -1132915.2332    6092530.8506    1504633.6928
   -1132915.2242    6092530.8460    1504633.7103
   -1132915.2166    6092530.7951    1504633.6593
   -1132914.8961    6092530.3340    1504633.3283
   -1132914.9187    6092530.3302    1504633.2909
   -1132914.9311    6092530.3255    1504633.2717
   -1132914.9374    6092530.3094    1504633.2630
   -1132914.9689    6092530.3399    1504633.2491
   -1132914.9932    6092530.3592    1504633.2564
   -1132914.9953    6092530.3697    1504633.2626
   -1132915.0063    6092530.3687    1504633.2539
   -1132915.0349    6092530.4277    1504633.2900
   -1132915.0378    6092530.4397    1504633.3007
   -1132915.0232    6092530.4184    1504633.2937
   -1132915.0282    6092530.4369    1504633.2921
   -1132915.0428    6092530.4533    1504633.2986
   -1132915.0397    6092530.4782    1504633.3062
   -1132915.0473    6092530.4876    1504633.3183
   -1132915.0435    6092530.4850    1504633.3189
   -1132915.0406    6092530.4962    1504633.3327
   -1132915.0569    6092530.5071    1504633.3425
   -1132915.0547    6092530.5074    1504633.3527
   -1132915.0560    6092530.5077    1504633.3545
   -1132915.0647    6092530.5161    1504633.3586
   -1132915.0758    6092530.5293    1504633.3694
   -1132915.0954    6092530.5531    1504633.3766
   -1132915.1007    6092530.5481    1504633.3696
   -1132915.0985    6092530.5430    1504633.3704
   -1132915.1110    6092530.5288    1504633.3650
   -1132915.1110    6092530.5441    1504633.3624
   -1132915.1082    6092530.5409    1504633.3529
   -1132915.1019    6092530.5282    1504633.3529
   -1132915.1018    6092530.5329    1504633.3534
   -1132915.1005    6092530.5405    1504633.3487
   -1132915.0980    6092530.5345    1504633.3635
   -1132915.1054    6092530.5449    1504633.3766
   -1132915.1090    6092530.5429    1504633.3805
   -1132915.1117    6092530.5564    1504633.3859
   -1132915.1081    6092530.5427    1504633.3721
   -1132915.1101    6092530.5383    1504633.3693
   -1132915.1106    6092530.5373    1504633.3752
   -1132915.1179    6092530.5353    1504633.3827
   -1132915.1136    6092530.5366    1504633.3801
   -1132915.1138    6092530.5268    1504633.3817
   -1132915.1150    6092530.5151    1504633.3799
   -1132915.1128    6092530.5271    1504633.3876
   -1132915.1213    6092530.5317    1504633.3890
   -1132915.1154    6092530.5360    1504633.4043
   -1132915.1207    6092530.5388    1504633.4131
   -1132915.1218    6092530.5259    1504633.4177
   -1132915.1206    6092530.5362    1504633.4243
   -1132915.1265    6092530.5407    1504633.4257
   -1132915.1335    6092530.5372    1504633.4230
   -1132915.1330    6092530.5448    1504633.4185
   -1132915.1434    6092530.5519    1504633.4242
   -1132915.1456    6092530.5543    1504633.4217
   -1132915.1401    6092530.5595    1504633.4176
   -1132915.1419    6092530.5625    1504633.4316
   -1132915.1482    6092530.5688    1504633.4406
   -1132915.1501    6092530.5822    1504633.4494
   -1132915.1539    6092530.5788    1504633.4486
   -1132915.1532    6092530.5899    1504633.4414
   -1132915.1575    6092530.6017    1504633.4524
   -1132915.1571    6092530.5938    1504633.4519
   -1132915.1571    6092530.6120    1504633.4600
   -1132915.1682    6092530.6069    1504633.4678
   -1132915.1631    6092530.6089    1504633.4668
   -1132915.1582    6092530.5967    1504633.4548
   -1132915.1565    6092530.5937    1504633.4627
   -1132915.1542    6092530.5911    1504633.4638
   -1132915.1615    6092530.5880    1504633.4649
   -1132915.1557    6092530.6017    1504633.4647
   -1132915.1551    6092530.5892    1504633.4654
   -1132915.1577    6092530.5889    1504633.4727
   -1132915.1709    6092530.5977    1504633.4691
   -1132915.1642    6092530.5830    1504633.4595
   -1132915.1563    6092530.5831    1504633.4591
   -1132915.1587    6092530.5788    1504633.4653
   -1132915.1573    6092530.5622    1504633.4655
   -1132915.1566    6092530.5411    1504633.4548
   -1132915.1583    6092530.5466    1504633.4615
   -1132915.3521    6092530.5303    1504633.4297
   -1132915.3408    6092530.3661    1504633.2797
   -1132915.3714    6092530.7501    1504633.6574
   -1132915.3606    6092530.5690    1504633.4916
   -1132915.3637    6092530.5947    1504633.5125
   -1132915.3694    6092530.6199    1504633.5410
   -1132915.3588    6092530.5935    1504633.5220
   -1132915.3644    6092530.5873    1504633.5123
   -1132915.3565    6092530.5726    1504633.5010
   -1132915.3566    6092530.5776    1504633.5176
   -1132915.3608    6092530.5652    1504633.5135
   -1132915.3644    6092530.5777    1504633.5209
   -1132915.3647    6092530.5846    1504633.5384
   -1132915.3649    6092530.5951    1504633.5587
   -1132915.3652    6092530.5871    1504633.5568
   -1132915.3706    6092530.6066    1504633.5642
   -1132915.3731    6092530.5966    1504633.5596
   -1132915.3666    6092530.5904    1504633.5524
   -1132915.3647    6092530.5723    1504633.5563
   -1132915.3715    6092530.5814    1504633.5594
   -1132915.3718    6092530.5803    1504633.5534
   -1132915.3777    6092530.5767    1504633.5540
   -1132915.3731    6092530.5639    1504633.5587
   -1132915.3724    6092530.5264    1504633.5448
   -1132915.3698    6092530.5143    1504633.5372
   -1132915.3681    6092530.5035    1504633.5350
   -1132915.3671    6092530.5179    1504633.5433
   -1132915.3712    6092530.5120    1504633.5468
   -1132915.3720    6092530.5112    1504633.5416
   -1132915.3682    6092530.4951    1504633.5399
   -1132915.3701    6092530.4895    1504633.5358
   -1132915.3682    6092530.4839    1504633.5272
   -1132915.3674    6092530.4711    1504633.5222
   -1132915.3667    6092530.4763    1504633.5251
   -1132915.3728    6092530.4709    1504633.5287
   -1132915.3705    6092530.4745    1504633.5382
   -1132915.3708    6092530.4790    1504633.5424
   -1132915.3703    6092530.4683    1504633.5476
   -1132915.3664    6092530.4631    1504633.5486
   -1132915.3689    6092530.4767    1504633.5606
   -1132915.3730    6092530.4732    1504633.5613
   -1132915.3662    6092530.4510    1504633.5594
   -1132915.3646    6092530.4504    1504633.5611
   -1132915.3621    6092530.4357    1504633.5597
   -1132915.3684    6092530.4241    1504633.5596
   -1132915.3648    6092530.4143    1504633.5524
   -1132915.3590    6092530.3982    1504633.5487
   -1132915.3699    6092530.4099    1504633.5556
   -1132915.3671    6092530.4059    1504633.5565
   -1132915.3281    6092530.3237    1504633.4914
   -1132915.3488    6092530.3592    1504633.5388
   -1132915.3056    6092530.2467    1504633.4543
   -1132915.2368    6092530.1132    1504633.3446
   -1132915.2802    6092530.2020    1504633.4107
   -1132915.3234    6092530.2786    1504633.4771
   -1132915.2911    6092530.2195    1504633.4373
   -1132915.3629    6092530.3359    1504633.5552
   -1132915.3994    6092530.4074    1504633.6118
   -1132915.3600    6092530.3370    1504633.5451
   -1132915.3838    6092530.3816    1504633.5822
   -1132915.3463    6092530.3078    1504633.5236
   -1132915.3459    6092530.3090    1504633.5216
   -1132915.3384    6092530.2990    1504633.5156
   -1132915.3078    6092530.2336    1504633.4735
   -1132915.3273    6092530.2669    1504633.5081
   -1132915.3302    6092530.2544    1504633.4985
   -1132915.3414    6092530.2832    1504633.5198
   -1132915.3640    6092530.3071    1504633.5534
   -1132915.3472    6092530.2892    1504633.5376
   -1132915.3581    6092530.2879    1504633.5394
   -1132915.3539    6092530.2858    1504633.5308
   -1132915.3549    6092530.2694    1504633.5171
   -1132915.3584    6092530.2610    1504633.5104
   -1132915.3847    6092530.0826    1504633.5171
   -1132915.3904    6092530.0864    1504633.5103
   -1132915.3891    6092530.0798    1504633.5084
   -1132915.3835    6092530.0706    1504633.5046
   -1132915.2946    6092530.5967    1504633.4939
   -1132915.2690    6092530.8077    1504633.4943
   -1132915.2903    6092530.6544    1504633.4985
   -1132915.2885    6092530.5893    1504633.4873
   -1132915.3420    6092530.2720    1504633.4882
   -1132915.3589    6092530.1942    1504633.4952
   -1132915.3858    6092530.0565    1504633.5058
   -1132915.3860    6092530.0254    1504633.4938
   -1132915.3774    6092530.0922    1504633.4776
   -1132915.3822    6092530.0908    1504633.4905
   -1132915.3726    6092530.1276    1504633.4825
   -1132915.3833    6092530.0927    1504633.4821
   -1132915.3891    6092530.1140    1504633.4950
   -1132915.3979    6092530.1244    1504633.4944
   -1132915.3999    6092530.1149    1504633.4953
   -1132915.3978    6092530.1034    1504633.4917
   -1132915.4008    6092530.1055    1504633.4963
   -1132915.4002    6092530.1159    1504633.5049
   -1132915.3882    6092530.1040    1504633.4962
   -1132915.3965    6092530.0954    1504633.5006
   -1132915.3948    6092530.0923    1504633.4987
   -1132915.3987    6092530.0818    1504633.4936
   -1132915.4047    6092530.0833    1504633.5080
   -1132915.4114    6092530.0955    1504633.5114
   -1132915.4219    6092530.0998    1504633.5115
   -1132915.4260    6092530.1194    1504633.5080
   -1132915.4317    6092530.1172    1504633.5081
   -1132915.4452    6092530.1246    1504633.5140
   -1132915.4328    6092530.0885    1504633.5097
   -1132915.4347    6092530.0782    1504633.5038
   -1132915.4325    6092530.0851    1504633.5052
   -1132915.4253    6092530.0710    1504633.5048
   -1132915.4343    6092530.0489    1504633.4987
   -1132915.4349    6092530.0297    1504633.4945
   -1132915.4429    6092529.9778    1504633.4817
   -1132915.4487    6092529.9440    1504633.4814
   -1132915.4494    6092529.9302    1504633.4772
   -1132915.4583    6092529.9296    1504633.4807
   -1132915.4532    6092529.9069    1504633.4840
   -1132915.4624    6092529.8936    1504633.4837
   -1132915.4592    6092529.8688    1504633.4832
   -1132915.4554    6092529.8613    1504633.4766
   -1132915.4276    6092529.9943    1504633.4883
   -1132915.4088    6092530.5851    1504633.9301
   -1132915.3718    6092530.4833    1504633.8695
   -1132915.4334    6092530.6667    1504634.0021
   -1132915.3961    6092530.5687    1504633.9363
   -1132915.3988    6092530.5808    1504633.9395
   -1132915.3300    6092530.4258    1504633.8271
   -1132915.3253    6092530.4124    1504633.8259
   -1132915.3362    6092530.4188    1504633.8341
   -1132915.2999    6092530.3266    1504633.7750
   -1132915.2961    6092530.3216    1504633.7778
   -1132915.2796    6092530.2895    1504633.7564
   -1132915.2869    6092530.3064    1504633.7695
   -1132915.2722    6092530.2726    1504633.7565
   -1132915.2852    6092530.2902    1504633.7789
   -1132915.2773    6092530.2816    1504633.7687
   -1132915.2743    6092530.2691    1504633.7662
   -1132915.2607    6092530.2250    1504633.7434
   -1132915.2554    6092530.1934    1504633.7263
   -1132915.2521    6092530.2036    1504633.7366
   -1132915.2505    6092530.2031    1504633.7422
   -1132915.2519    6092530.2053    1504633.7416
   -1132915.2408    6092530.1609    1504633.7257
   -1132915.2270    6092530.1304    1504633.7045
   -1132915.2201    6092530.0954    1504633.6904
   -1132915.2120    6092530.0713    1504633.6835
   -1132915.2158    6092530.0671    1504633.6821
   -1132915.1991    6092530.0276    1504633.6568
   -1132915.1581    6092529.8994    1504633.5710
   -1132915.1482    6092529.8676    1504633.5552
   -1132914.5440    6092528.8214    1504633.5746
   -1132914.5617    6092528.8350    1504633.5634
   -1132914.5895    6092528.8724    1504633.5587
   -1132914.6000    6092528.8673    1504633.5526
   -1132914.6145    6092528.8839    1504633.5395
   -1132914.6303    6092528.9100    1504633.5340
   -1132914.6401    6092528.8978    1504633.5191
   -1132914.6532    6092528.9128    1504633.5059
   -1132914.6700    6092528.9327    1504633.4988
   -1132914.6862    6092528.9499    1504633.4875
   -1132914.6960    6092528.9572    1504633.4780
   -1132914.7154    6092528.9507    1504633.4537
   -1132914.7391    6092528.9751    1504633.4442
   -1132914.7481    6092528.9825    1504633.4199
   -1132914.7628    6092528.9751    1504633.3997
   -1132914.7676    6092528.9755    1504633.3859
   -1132914.8658    6092529.5659    1504633.7387
   -1132914.8802    6092529.5909    1504633.7375
   -1132914.8900    6092529.5955    1504633.7398
   -1132914.9048    6092529.6175    1504633.7430
   -1132914.9108    6092529.6142    1504633.7420
   -1132914.9121    6092529.5966    1504633.7359
   -1132914.9302    6092529.6399    1504633.7455
   -1132914.9397    6092529.6524    1504633.7526
   -1132914.9347    6092529.6560    1504633.7474
   -1132914.9386    6092529.6773    1504633.7496
   -1132914.9350    6092529.6757    1504633.7557
   -1132914.9327    6092529.6762    1504633.7501
   -1132914.9367    6092529.6699    1504633.7527
   -1132914.9314    6092529.6780    1504633.7557
   -1132914.9294    6092529.6840    1504633.7522
   -1132914.9271    6092529.6858    1504633.7627
   -1132914.9240    6092529.6961    1504633.7654
   -1132914.9216    6092529.6675    1504633.7624
   -1132914.9235    6092529.6824    1504633.7698
   -1132914.9213    6092529.6914    1504633.7686
   -1132914.9301    6092529.7211    1504633.7746
   -1132914.9349    6092529.7186    1504633.7719
   -1132914.9391    6092529.7193    1504633.7720
   -1132914.9367    6092529.7100    1504633.7757
   -1132914.9486    6092529.7402    1504633.7771
   -1132914.9589    6092529.7528    1504633.7816
   -1132914.9572    6092529.7565    1504633.7802
   -1132914.9523    6092529.7675    1504633.7789
   -1132914.9510    6092529.7584    1504633.7784
   -1132914.9624    6092529.7585    1504633.7780
   -1132914.9671    6092529.7668    1504633.7821
   -1132914.9698    6092529.7571    1504633.7883
   -1132914.9704    6092529.7572    1504633.7832
   -1132914.9693    6092529.7612    1504633.7857
   -1132914.9716    6092529.7563    1504633.7828
   -1132914.9750    6092529.7509    1504633.7855
   -1132914.9728    6092529.7433    1504633.7912
   -1132914.9624    6092529.7116    1504633.7930
   -1132914.9678    6092529.7112    1504633.7973
   -1132914.9627    6092529.7108    1504633.7956
   -1132914.9592    6092529.6826    1504633.7963
   -1132914.7638    6092529.3071    1504633.5476
   -1132915.0478    6092529.8393    1504633.9077
   -1132915.0430    6092529.9053    1504634.0064
   -1132914.8703    6092529.6463    1504633.8767
   -1132914.7588    6092529.4291    1504633.7576
   -1132914.7845    6092529.5273    1504633.8521
   -1132914.8140    6092529.6026    1504633.9220
   -1132914.8540    6092529.6410    1504633.9488
   -1132914.8579    6092529.6288    1504633.9532
   -1132914.8345    6092529.5365    1504633.9075
   -1132914.8023    6092529.4495    1504633.8525
   -1132914.8012    6092529.3872    1504633.8284
   -1132914.7864    6092529.3052    1504633.7828
   -1132914.8041    6092529.3037    1504633.8002
   -1132914.8176    6092529.2614    1504633.8032
   -1132914.8333    6092529.2459    1504633.8178
   -1132914.8082    6092529.1248    1504633.7662
   -1132914.7937    6092529.0342    1504633.7549
   -1132914.7962    6092528.9691    1504633.7468
   -1132914.8004    6092528.8814    1504633.7351
   -1132914.8039    6092528.7975    1504633.7531
   -1132914.7847    6092529.6804    1504633.6886
   -1132914.7918    6092529.6920    1504633.6892
   -1132914.7868    6092529.6552    1504633.6910
   -1132914.7856    6092529.6601    1504633.7005
   -1132914.8004    6092529.6647    1504633.7028
   -1132914.7871    6092529.6583    1504633.7107
   -1132914.7954    6092529.6649    1504633.7154
   -1132914.7811    6092529.6525    1504633.7006
   -1132914.7764    6092529.6547    1504633.7068
   -1132914.7826    6092529.6553    1504633.7155
   -1132914.8024    6092529.6824    1504633.7349
   -1132914.8017    6092529.7049    1504633.7479
   -1132914.8059    6092529.7049    1504633.7586
   -1132914.7893    6092530.0292    1504633.9342
   -1132914.7769    6092530.0175    1504633.9314
   -1132914.7651    6092529.9923    1504633.9116
   -1132914.7545    6092529.9869    1504633.9150
   -1132914.7512    6092529.9969    1504633.9196
   -1132914.7448    6092529.9867    1504633.9076
   -1132914.7479    6092529.9669    1504633.9073
   -1132914.7347    6092529.9396    1504633.9025
   -1132914.7314    6092529.9291    1504633.8977
   -1132914.7249    6092529.9122    1504633.8910
   -1132914.7342    6092529.9132    1504633.8988
   -1132914.7318    6092529.9082    1504633.9020
   -1132914.7332    6092529.8925    1504633.8920
   -1132914.7379    6092529.8946    1504633.8882
   -1132914.7424    6092529.8984    1504633.8802
   -1132914.7471    6092529.8908    1504633.8837
   -1132914.7479    6092529.8959    1504633.8802
   -1132914.7459    6092529.8991    1504633.8844
   -1132914.7389    6092529.8906    1504633.8768
   -1132914.7387    6092529.8918    1504633.8685
   -1132914.7395    6092529.8854    1504633.8694
   -1132914.7298    6092529.8680    1504633.8726
   -1132914.7375    6092529.8600    1504633.8682
   -1132914.7351    6092529.8424    1504633.8679
   -1132914.7351    6092529.8472    1504633.8677
   -1132914.7312    6092529.8174    1504633.8671
   -1132914.7247    6092529.7923    1504633.8627
   -1132914.7163    6092529.7794    1504633.8607
   -1132914.7225    6092529.7644    1504633.8573
   -1132914.7214    6092529.7632    1504633.8523
   -1132914.7113    6092529.7593    1504633.8556
   -1132914.7096    6092529.7225    1504633.8450
   -1132914.7152    6092529.7175    1504633.8441
   -1132914.7108    6092529.7100    1504633.8416
   -1132914.7113    6092529.7042    1504633.8347
   -1132914.7169    6092529.6971    1504633.8391
   -1132914.7201    6092529.6982    1504633.8418
   -1132914.7214    6092529.6951    1504633.8405
   -1132914.7094    6092529.6856    1504633.8390
   -1132914.7049    6092529.6561    1504633.8203
   -1132914.7173    6092529.6494    1504633.8226
   -1132914.7135    6092529.6409    1504633.8188
   -1132914.7101    6092529.6433    1504633.8173
   -1132914.7094    6092529.6170    1504633.8204
   -1132914.6942    6092529.6194    1504633.8233
   -1132914.6839    6092529.5990    1504633.8162
   -1132914.6823    6092529.5751    1504633.8145
   -1132914.6846    6092529.5608    1504633.8151
   -1132914.6842    6092529.5536    1504633.8149
   -1132914.6789    6092529.5304    1504633.8096
   -1132914.6780    6092529.5244    1504633.8031
   -1132914.6746    6092529.5111    1504633.7975
   -1132914.6725    6092529.4991    1504633.7965
   -1132914.6683    6092529.4838    1504633.7946
   -1132914.6660    6092529.4816    1504633.7952
   -1132914.6672    6092529.4619    1504633.7924
   -1132914.6677    6092529.4545    1504633.7910
   -1132914.6685    6092529.4576    1504633.7909
   -1132914.6707    6092529.4681    1504633.7949
   -1132914.6791    6092529.4595    1504633.7872
   -1132914.6744    6092529.4402    1504633.7904
   -1132914.6683    6092529.4306    1504633.7851
   -1132914.6660    6092529.4269    1504633.7791
   -1132914.6697    6092529.4282    1504633.7830
   -1132914.6686    6092529.4017    1504633.7782
   -1132914.6690    6092529.3923    1504633.7740
   -1132914.6679    6092529.3835    1504633.7726
   -1132914.6763    6092529.3776    1504633.7775
   -1132914.6774    6092529.3670    1504633.7687
   -1132914.6794    6092529.3536    1504633.7640
   -1132914.6806    6092529.3249    1504633.7675
   -1132914.6819    6092529.3282    1504633.7671
   -1132914.6752    6092529.3022    1504633.7633
   -1132914.6712    6092529.2762    1504633.7592
   -1132914.6657    6092529.2474    1504633.7566
   -1132914.6676    6092529.2400    1504633.7568
   -1132914.6627    6092529.2205    1504633.7544
   -1132914.6614    6092529.2020    1504633.7547
   -1132914.6641    6092529.2152    1504633.7584
   -1132914.6539    6092529.1768    1504633.7474
   -1132914.6552    6092529.1663    1504633.7412
   -1132914.6564    6092529.1531    1504633.7465
   -1132914.6546    6092529.1397    1504633.7436
   -1132914.6505    6092529.1371    1504633.7382
   -1132914.6467    6092529.1098    1504633.7336
   -1132914.6457    6092529.1059    1504633.7334
   -1132914.6509    6092529.1006    1504633.7364
   -1132914.6462    6092529.0807    1504633.7352
   -1132914.6451    6092529.0852    1504633.7407
   -1132914.6417    6092529.0641    1504633.7322
   -1132914.6549    6092529.0921    1504633.7408
   -1132914.6421    6092529.0494    1504633.7234
   -1132914.6323    6092529.0231    1504633.7237
   -1132914.6380    6092529.0209    1504633.7192
   -1132914.6393    6092529.0119    1504633.7214
   -1132914.6399    6092528.9984    1504633.7164
   -1132914.6305    6092528.9598    1504633.7055
   -1132914.6242    6092528.9403    1504633.7006
   -1132914.6204    6092528.9307    1504633.6971
   -1132914.6257    6092528.9284    1504633.7018
   -1132914.6182    6092528.9095    1504633.6998
   -1132914.6177    6092528.8961    1504633.7082
   -1132914.6223    6092528.8991    1504633.7027
   -1132914.6154    6092528.8701    1504633.6983
   -1132914.6114    6092528.8605    1504633.7057
   -1132914.6117    6092528.8446    1504633.7028
   -1132914.6089    6092528.8331    1504633.6955
   -1132914.6083    6092528.8198    1504633.6946
   -1132914.6074    6092528.8035    1504633.6934
   -1132914.6140    6092528.7826    1504633.6873
   -1132914.6041    6092528.7698    1504633.6831
   -1132914.6152    6092528.7822    1504633.6904
   -1132914.6054    6092528.7632    1504633.6845
   -1132914.6028    6092528.7369    1504633.6842
   -1132914.6103    6092528.7233    1504633.6836
   -1132914.5993    6092528.6984    1504633.6783
   -1132914.5942    6092528.6757    1504633.6740
   -1132914.5879    6092528.6580    1504633.6762
   -1132914.5857    6092528.6501    1504633.6744
   -1132914.5869    6092528.6346    1504633.6704
   -1132914.7882    6092529.3967    1504633.8816
   -1132914.7805    6092529.3882    1504633.8730
   -1132914.7845    6092529.3766    1504633.8718
   -1132914.7911    6092529.3848    1504633.8715
   -1132914.7815    6092529.3686    1504633.8691
   -1132914.7847    6092529.3702    1504633.8712
   -1132914.7833    6092529.3493    1504633.8686
   -1132914.7790    6092529.3515    1504633.8658
   -1132914.7853    6092529.3495    1504633.8708
   -1132914.7874    6092529.3484    1504633.8680
   -1132914.7898    6092529.3363    1504633.8746
   -1132914.7836    6092529.3300    1504633.8725
   -1132914.7856    6092529.3044    1504633.8722
   -1132914.7759    6092529.2848    1504633.8646
   -1132914.7699    6092529.2579    1504633.8590
   -1132914.7727    6092529.2526    1504633.8582
   -1132914.7683    6092529.2421    1504633.8536
   -1132914.7703    6092529.2376    1504633.8499
   -1132914.7684    6092529.2195    1504633.8419
   -1132914.7683    6092529.2084    1504633.8409
   -1132914.7637    6092529.1863    1504633.8321
   -1132914.7712    6092529.1869    1504633.8330
   -1132914.7757    6092529.1837    1504633.8363
   -1132914.7678    6092529.1460    1504633.8317
   -1132914.7705    6092529.1473    1504633.8286
   -1132914.7627    6092529.1460    1504633.8229
   -1132914.7679    6092529.1437    1504633.8275
   -1132914.7677    6092529.1344    1504633.8255
   -1132914.7673    6092529.1410    1504633.8240
   -1132914.7548    6092529.1258    1504633.8166
   -1132914.7515    6092529.1007    1504633.8162
   -1132914.7478    6092529.0828    1504633.8124
   -1132914.6410    6092528.8938    1504633.7595
   -1132914.6545    6092528.8863    1504633.7585
   -1132915.0585    6092529.5785    1504633.9817
   -1132914.9321    6092529.3518    1504633.9039
   -1132915.3402    6092530.0414    1504634.1290
   -1132914.7597    6092529.0475    1504633.8084
   -1132914.1903    6092528.0684    1504633.4925
   -1132914.9475    6092529.3677    1504633.9092
   -1132914.9469    6092529.3601    1504633.9085
   -1132914.9558    6092529.3646    1504633.9070
   -1132914.9519    6092529.3635    1504633.8994
   -1132914.9554    6092529.3536    1504633.8969
   -1132914.9542    6092529.3522    1504633.8988
   -1132914.9554    6092529.3467    1504633.8926
   -1132914.9543    6092529.3475    1504633.8962
   -1132914.9595    6092529.3377    1504633.8890
   -1132914.9592    6092529.3153    1504633.8855
   -1132914.9662    6092529.3264    1504633.8919
   -1132914.9737    6092529.3201    1504633.8865
   -1132914.9770    6092529.3074    1504633.8784
   -1132914.9770    6092529.2949    1504633.8785
   -1132914.9795    6092529.2925    1504633.8863
   -1132914.9790    6092529.2700    1504633.8752
   -1132914.9796    6092529.2740    1504633.8788
   -1132914.9795    6092529.2657    1504633.8747
   -1132914.9778    6092529.2523    1504633.8669
   -1132914.9893    6092529.2656    1504633.8761
   -1132914.9919    6092529.2713    1504633.8788
   -1132914.9959    6092529.2729    1504633.8840
   -1132914.9962    6092529.2598    1504633.8898
   -1132915.0037    6092529.2559    1504633.8859
   -1132915.0073    6092529.2626    1504633.8865
   -1132915.0124    6092529.2658    1504633.8888
   -1132915.0124    6092529.2727    1504633.8873
   -1132915.0168    6092529.2632    1504633.8868
   -1132915.0244    6092529.2710    1504633.8879
   -1132915.0212    6092529.2505    1504633.8828
   -1132915.0313    6092529.2439    1504633.8776
   -1132915.0301    6092529.2350    1504633.8747
   -1132915.0490    6092529.2555    1504633.8832
   -1132915.0525    6092529.2516    1504633.8827
   -1132915.0529    6092529.2555    1504633.8797
   -1132915.0695    6092529.2716    1504633.8852
   -1132915.0731    6092529.2768    1504633.8860
   -1132915.0842    6092529.2798    1504633.8846
   -1132915.0909    6092529.2858    1504633.8873
   -1132915.0888    6092529.2752    1504633.8841
   -1132915.0896    6092529.2846    1504633.8861
   -1132915.0899    6092529.2818    1504633.8840
   -1132915.0839    6092529.2757    1504633.8766
   -1132915.1010    6092529.3012    1504633.8866
   -1132915.1084    6092529.3115    1504633.8955
   -1132915.1077    6092529.3124    1504633.8948
   -1132915.1083    6092529.2974    1504633.8954
   -1132915.1087    6092529.2999    1504633.8969
   -1132915.1097    6092529.2745    1504633.8849
   -1132915.1081    6092529.2688    1504633.8882
   -1132915.1111    6092529.2727    1504633.8832
   -1132915.1145    6092529.2793    1504633.8868
   -1132915.1230    6092529.2910    1504633.8931
   -1132915.1258    6092529.2830    1504633.8939
   -1132915.1296    6092529.2733    1504633.9031
   -1132915.1398    6092529.2718    1504633.9043
   -1132915.1466    6092529.2823    1504633.9050
   -1132915.1423    6092529.2733    1504633.9012
   -1132915.1504    6092529.2839    1504633.9047
   -1132915.1610    6092529.2981    1504633.9092
   -1132915.1752    6092529.3124    1504633.9227
   -1132915.1844    6092529.3149    1504633.9230
   -1132915.1825    6092529.3008    1504633.9223
   -1132915.1882    6092529.2997    1504633.9235
   -1132915.1902    6092529.2903    1504633.9211
   -1132914.7605    6092528.7039    1504633.7537
   -1132914.7889    6092528.7486    1504633.7614
   -1132914.8155    6092528.7766    1504633.7643
   -1132914.8106    6092528.7564    1504633.7564
   -1132914.7097    6092528.5732    1504633.6771
   -1132914.7838    6092528.6463    1504633.6923
   -1132914.7379    6092528.5542    1504633.6534
   -1132914.7320    6092528.5301    1504633.6378
   -1132914.6569    6092528.3952    1504633.5989
   -1132914.6131    6092528.3033    1504633.5621
   -1132914.4003    6092527.9503    1504633.6769
   -1132914.4298    6092527.9837    1504633.6748
   -1132914.9269    6092528.8096    1504634.1222
   -1132914.8134    6092528.6047    1504633.9474
   -1132914.8054    6092528.5797    1504633.9639
   -1132914.8307    6092528.6075    1504633.9613
   -1132914.9638    6092529.0877    1504634.0573
   -1132915.0053    6092529.1522    1504634.0484
   -1132915.0255    6092529.1699    1504634.0594
   -1132915.0347    6092529.1782    1504634.0837
   -1132915.0605    6092529.2055    1504634.0882
   -1132915.1027    6092529.2754    1504634.0843
   -1132915.0997    6092529.2798    1504634.0886
   -1132915.0985    6092529.2574    1504634.0957
   -1132915.1323    6092529.3150    1504634.1010
   -1132915.1388    6092529.3107    1504634.1047
   -1132915.1960    6092529.3891    1504634.0969
   -1132915.2048    6092529.3847    1504634.1009
   -1132915.1876    6092529.3668    1504634.1035
   -1132915.2011    6092529.3625    1504634.1076
   -1132915.2097    6092529.3675    1504634.0976
   -1132915.2171    6092529.3833    1504634.1011
   -1132915.2225    6092529.3825    1504634.1016
   -1132915.2178    6092529.3754    1504634.0864
   -1132915.2397    6092529.3938    1504634.0867
   -1132915.2340    6092529.3604    1504634.0820
   -1132915.2457    6092529.3693    1504634.0730
   -1132915.2724    6092529.3806    1504634.0689
   -1132915.2946    6092529.3846    1504634.0643
   -1132915.3064    6092529.3749    1504634.0588
   -1132915.3108    6092529.3672    1504634.0545
   -1132915.3306    6092529.3765    1504634.0566
   -1132915.3338    6092529.3618    1504634.0517
   -1132915.3521    6092529.3448    1504634.0533
   -1132915.3394    6092529.3114    1504634.0614
   -1132915.3560    6092529.2796    1504634.0543
   -1132915.3498    6092529.2482    1504634.0592
   -1132915.3605    6092529.1926    1504634.0572
   -1132915.3785    6092529.1526    1504634.0449
   -1132915.3777    6092529.1087    1504634.0391
   -1132915.3872    6092529.0794    1504634.0351
   -1132915.3864    6092529.0043    1504634.0262
   -1132915.3985    6092528.9407    1504634.0275
   -1132915.3920    6092528.8715    1504634.0153
   -1132915.4028    6092528.7968    1504634.0105
   -1132915.3953    6092529.4962    1504633.8793
   -1132915.4147    6092529.4632    1504633.8709
   -1132915.4154    6092529.3910    1504633.8490
   -1132915.3773    6092529.7444    1504633.9870
   -1132915.3933    6092529.7586    1504633.9903
   -1132915.4025    6092529.7637    1504634.0003
   -1132915.3005    6092529.4846    1504633.8607
   -1132915.2564    6092529.3375    1504633.7815
   -1132915.1992    6092529.1547    1504633.6820
   -1132915.2363    6092529.2542    1504633.7368
   -1132915.1727    6092529.0695    1504633.6420
   -1132915.2267    6092529.1960    1504633.6971
   -1132915.2660    6092529.2957    1504633.7463
   -1132915.2780    6092529.3275    1504633.7656
   -1132915.2572    6092529.2731    1504633.7458
   -1132915.2390    6092529.2009    1504633.7164
   -1132915.2602    6092529.2607    1504633.7476
   -1132915.2300    6092529.1863    1504633.7305
   -1132915.2188    6092529.1518    1504633.7125
   -1132915.2082    6092529.1447    1504633.6932
   -1132915.1957    6092529.1202    1504633.6767
   -1132915.2103    6092529.1658    1504633.6986
   -1132915.2057    6092529.1578    1504633.6856
   -1132915.2116    6092529.1800    1504633.6928
   -1132915.2318    6092529.2046    1504633.7039
   -1132915.2316    6092529.2207    1504633.7126
   -1132915.2415    6092529.2239    1504633.7146
   -1132915.2470    6092529.2285    1504633.7149
   -1132915.2370    6092529.1969    1504633.7053
   -1132915.2364    6092529.1981    1504633.7102
   -1132915.2413    6092529.1705    1504633.7128
   -1132915.2441    6092529.1747    1504633.7227
   -1132915.2478    6092529.1856    1504633.7431
   -1132915.2571    6092529.2114    1504633.7617
   -1132915.2722    6092529.2295    1504633.7686
   -1132915.2615    6092529.2067    1504633.7553
   -1132915.2612    6092529.1941    1504633.7500
   -1132915.2711    6092529.2020    1504633.7530
   -1132915.2672    6092529.2082    1504633.7488
   -1132915.2798    6092529.2114    1504633.7543
   -1132915.2896    6092529.2476    1504633.7552
   -1132915.2932    6092529.2506    1504633.7609
   -1132915.3003    6092529.2602    1504633.7732
   -1132915.3045    6092529.2621    1504633.7808
   -1132915.3199    6092529.2894    1504633.7891
   -1132915.3133    6092529.2903    1504633.7896
   -1132915.3296    6092529.3010    1504633.7946
   -1132915.3239    6092529.2952    1504633.7992
   -1132915.3295    6092529.3075    1504633.8128
   -1132915.3315    6092529.3037    1504633.8151
   -1132915.3330    6092529.3202    1504633.8259
   -1132915.3305    6092529.3159    1504633.8185
   -1132915.3348    6092529.3196    1504633.8149
   -1132915.3279    6092529.3079    1504633.8114
   -1132915.3392    6092529.3320    1504633.8255
   -1132915.3364    6092529.3356    1504633.8254
   -1132915.3466    6092529.3543    1504633.8350
   -1132915.3468    6092529.3459    1504633.8276
   -1132915.3625    6092529.3481    1504633.8303
   -1132915.3646    6092529.3628    1504633.8318
   -1132915.3614    6092529.3494    1504633.8286
   -1132915.3639    6092529.3482    1504633.8300
   -1132915.3636    6092529.3584    1504633.8400
   -1132915.3685    6092529.3453    1504633.8375
   -1132915.3775    6092529.3585    1504633.8437
   -1132915.3876    6092529.3704    1504633.8514
   -1132915.3927    6092529.3819    1504633.8562
   -1132915.3936    6092529.3590    1504633.8474
   -1132915.3966    6092529.3528    1504633.8422
   -1132915.3968    6092529.3772    1504633.8502
   -1132915.4028    6092529.3877    1504633.8538
   -1132915.4086    6092529.3867    1504633.8539
   -1132915.4188    6092529.4113    1504633.8562
   -1132915.4182    6092529.4008    1504633.8643
   -1132915.4246    6092529.4087    1504633.8693
   -1132915.4290    6092529.4068    1504633.8742
   -1132915.4303    6092529.4154    1504633.8710
   -1132915.4421    6092529.4332    1504633.8712
   -1132915.4313    6092529.4517    1504633.8695
   -1132915.4404    6092529.4389    1504633.8664
   -1132915.4367    6092529.4562    1504633.8748
   -1132915.2212    6092529.1523    1504633.7854
   -1132915.2251    6092529.1527    1504633.7886
   -1132915.2292    6092529.1587    1504633.7841
   -1132915.2290    6092529.1704    1504633.7864
   -1132915.2276    6092529.1586    1504633.7827
   -1132915.2254    6092529.1696    1504633.7864
   -1132915.2248    6092529.1652    1504633.7843
   -1132915.2262    6092529.1884    1504633.7958
   -1132915.2236    6092529.1712    1504633.7874
   -1132915.2283    6092529.1704    1504633.7880
   -1132915.2278    6092529.1729    1504633.7822
   -1132915.2326    6092529.1834    1504633.7895
   -1132915.2361    6092529.1893    1504633.7938
   -1132915.5003    6092529.7847    1504633.6915
   -1132915.4924    6092529.5985    1504633.4467
   -1132915.4319    6092529.4531    1504633.4858
   -1132915.4563    6092529.5010    1504633.4690
   -1132915.4559    6092529.4821    1504633.4700
   -1132915.5126    6092529.6283    1504633.4451
   -1132915.5154    6092529.6401    1504633.4446
   -1132915.5604    6092529.7274    1504633.4374
   -1132915.5654    6092529.7318    1504633.4324
   -1132915.5840    6092529.7740    1504633.4362
   -1132915.5801    6092529.7587    1504633.4282
   -1132915.5853    6092529.7892    1504633.4308
   -1132915.5841    6092529.7768    1504633.4363
   -1132915.5668    6092529.7553    1504633.4370
   -1132915.5532    6092529.7230    1504633.4367
   -1132915.5613    6092529.7523    1504633.4396
   -1132915.5862    6092529.7975    1504633.4426
   -1132915.6291    6092529.9010    1504633.4338
   -1132915.6317    6092529.9035    1504633.4351
   -1132915.6372    6092529.9109    1504633.4285
   -1132915.6392    6092529.9274    1504633.4231
   -1132915.6506    6092529.9188    1504633.4331
   -1132915.6536    6092529.9364    1504633.4290
   -1132915.6574    6092529.9317    1504633.4349
   -1132915.6788    6092529.9626    1504633.4325
   -1132915.6863    6092529.9491    1504633.4357
   -1132915.6866    6092529.9561    1504633.4420
   -1132915.6852    6092529.9658    1504633.4427
   -1132915.7015    6092529.9867    1504633.4413
   -1132915.7155    6092530.0504    1504633.5141
   -1132915.6991    6092529.9718    1504633.4540
   -1132915.6130    6092529.9274    1504633.7198
   -1132915.2586    6092529.1179    1504633.7552
   -1132915.1534    6092528.8464    1504633.7661
   -1132916.1161    6092530.8866    1504633.3109
   -1132915.9157    6092530.4950    1504633.4362
   -1132915.7793    6092530.2633    1504633.5605
   -1132915.9045    6092530.5753    1504633.5472
   -1132915.8458    6092530.4718    1504633.5723
   -1132915.8246    6092530.4557    1504633.5957
   -1132915.8107    6092530.4515    1504633.6001
   -1132915.8436    6092530.5515    1504633.6245
   -1132915.7996    6092530.5075    1504633.6632
   -1132915.8237    6092530.5880    1504633.6675
   -1132915.8406    6092530.6622    1504633.6883
   -1132915.8116    6092530.6367    1504633.7114
   -1132915.7934    6092530.6327    1504633.7116
   -1132915.7817    6092530.6317    1504633.7174
   -1132915.7796    6092530.6424    1504633.7169
   -1132915.8109    6092530.6977    1504633.6932
   -1132915.7905    6092530.6372    1504633.6832
   -1132915.7607    6092530.4130    1504633.4109
   -1132915.7636    6092530.4243    1504633.4146
   -1132915.7680    6092530.4570    1504633.4201
   -1132915.7529    6092530.4541    1504633.4151
   -1132915.7563    6092530.4781    1504633.4150
   -1132915.7658    6092530.5214    1504633.4145
   -1132915.7717    6092530.5548    1504633.4076
   -1132915.7718    6092530.5718    1504633.4162
   -1132915.7651    6092530.5875    1504633.4219
   -1132915.7740    6092530.6421    1504633.4272
   -1132915.7631    6092530.6526    1504633.4340
   -1132915.7723    6092530.6959    1504633.4301
   -1132915.7768    6092530.7365    1504633.4310
   -1132915.8010    6092530.7819    1504633.4234
   -1132915.8057    6092530.8198    1504633.4200
   -1132915.8206    6092530.8711    1504633.4169
   -1132915.8166    6092530.8938    1504633.4157
   -1132915.8075    6092530.9177    1504633.4118
   -1132915.8142    6092530.9685    1504633.4023
   -1132915.8043    6092530.9839    1504633.4007
   -1132915.7968    6092531.0106    1504633.3966
   -1132915.9050    6092531.5562    1504633.4474
   -1132915.8977    6092531.5888    1504633.4467
   -1132915.2348    6092530.0659    1504633.6427
   -1132915.2336    6092530.0954    1504633.6411
   -1132915.9539    6092530.2866    1504633.4590
   -1132915.9491    6092530.2665    1504633.4608
   -1132915.9545    6092530.2613    1504633.4713
   -1132915.9696    6092530.3471    1504633.5945
   -1132915.9769    6092530.3630    1504633.6507
   -1132915.9969    6092530.4251    1504633.7401
   -1132915.9655    6092530.3070    1504633.6392
   -1132915.9602    6092530.3255    1504633.6376
   -1132915.9803    6092530.3772    1504633.6861
   -1132915.9896    6092530.4097    1504633.7029
   -1132915.9881    6092530.4169    1504633.7044
   -1132915.9880    6092530.4092    1504633.7087
   -1132916.0112    6092530.4638    1504633.7801
   -1132916.0087    6092530.4588    1504633.7771
   -1132916.0119    6092530.4889    1504633.7757
   -1132916.0180    6092530.5013    1504633.7946
   -1132916.0342    6092530.5486    1504633.8651
   -1132916.0338    6092530.5593    1504633.8935
   -1132916.0365    6092530.5564    1504633.9032
   -1132916.0331    6092530.5703    1504633.8965
   -1132916.0469    6092530.5850    1504633.9390
   -1132916.0451    6092530.5918    1504633.9575
   -1132916.0507    6092530.5945    1504633.9627
   -1132916.0397    6092530.5760    1504633.9401
   -1132916.0422    6092530.5660    1504633.9348
   -1132916.0437    6092530.5669    1504633.9463
   -1132915.9210    6092530.1238    1504633.4823
   -1132915.9226    6092530.1311    1504633.4921
   -1132915.9204    6092530.1280    1504633.4960
   -1132915.9221    6092530.1293    1504633.4987
   -1132915.9184    6092530.1192    1504633.4931
   -1132915.8858    6092530.1165    1504633.3513
   -1132915.8791    6092530.1127    1504633.3454
   -1132915.8901    6092530.1153    1504633.3403
   -1132915.8899    6092530.1054    1504633.3497
   -1132915.8914    6092530.1075    1504633.3500
   -1132915.8956    6092530.1096    1504633.3578
   -1132915.8950    6092530.1168    1504633.3479
   -1132915.8935    6092530.1045    1504633.3501
   -1132915.8912    6092530.1080    1504633.3436
   -1132915.8981    6092530.0970    1504633.3482
   -1132915.8938    6092530.0937    1504633.3492
   -1132915.8930    6092530.0828    1504633.3521
   -1132915.8943    6092530.0653    1504633.3525
   -1132915.8980    6092530.0616    1504633.3573
   -1132915.9017    6092530.0611    1504633.3498
   -1132915.9130    6092530.0658    1504633.3546
   -1132915.9051    6092530.0551    1504633.3519
   -1132915.9117    6092530.0516    1504633.3546
   -1132915.9095    6092530.0395    1504633.3563
   -1132915.9044    6092530.0387    1504633.3566
   -1132915.9086    6092530.0262    1504633.3548
   -1132915.9071    6092530.0178    1504633.3589
   -1132915.8991    6092530.0173    1504633.3598
   -1132915.8971    6092530.0048    1504633.3473
   -1132915.8960    6092530.0011    1504633.3494
   -1132915.9064    6092530.0027    1504633.3530
   -1132915.9086    6092530.0061    1504633.3504
   -1132915.9054    6092530.0128    1504633.3498
   -1132915.9050    6092530.0009    1504633.3552
   -1132915.8160    6092529.8374    1504633.2018
   -1132915.6922    6092529.6340    1504632.9899
   -1132915.7079    6092529.6576    1504633.0172
   -1132915.7409    6092529.7035    1504633.0717
   -1132915.7575    6092529.7290    1504633.0994
   -1132915.8105    6092529.8320    1504633.1988
   -1132915.8447    6092529.8822    1504633.2652
   -1132915.8267    6092529.8434    1504633.2237
   -1132915.8186    6092529.8383    1504633.2168
   -1132915.8167    6092529.8430    1504633.2135
   -1132915.8213    6092529.8439    1504633.2190
   -1132915.8241    6092529.8446    1504633.2371
   -1132915.7983    6092529.7970    1504633.1947
   -1132915.7954    6092529.7876    1504633.2196
   -1132915.6592    6092529.5000    1504633.2868
   -1132915.6016    6092529.3723    1504633.3068
   -1132915.6035    6092529.3694    1504633.2980
   -1132915.5108    6092529.1642    1504633.3302
   -1132915.3923    6092528.8992    1504633.4207
   -1132915.3463    6092528.7983    1504633.4255
   -1132915.3417    6092528.7904    1504633.4439
   -1132915.3683    6092528.8473    1504633.4828
   -1132915.4084    6092528.9165    1504633.4767
   -1132915.4629    6092529.0299    1504633.4753
   -1132915.5145    6092529.1309    1504633.4781
   -1132915.5103    6092529.1186    1504633.4807
   -1132915.5258    6092529.1472    1504633.4733
   -1132915.5882    6092529.2505    1504633.4599
   -1132915.5747    6092529.2306    1504633.4399
   -1132915.5763    6092529.2379    1504633.4346
   -1132915.6008    6092529.2705    1504633.4273
   -1132915.6058    6092529.2772    1504633.4312
   -1132915.6052    6092529.2715    1504633.4272
   -1132915.5866    6092529.2427    1504633.4350
   -1132915.6044    6092529.2549    1504633.4247
   -1132915.6016    6092529.2463    1504633.4274
   -1132915.6027    6092529.2444    1504633.4188
   -1132915.6042    6092529.2506    1504633.4322
   -1132915.6074    6092529.2400    1504633.4319
   -1132915.6133    6092529.2401    1504633.4297
   -1132915.6192    6092529.2546    1504633.4220
   -1132915.6331    6092529.2603    1504633.4099
   -1132915.6291    6092529.2386    1504633.3926
   -1132915.6193    6092529.2049    1504633.3555
   -1132915.6900    6092529.3780    1504633.5761
   -1132915.7106    6092529.4433    1504633.7018
   -1132915.7220    6092529.4591    1504633.7253
   -1132915.7163    6092529.4236    1504633.6551
   -1132915.7190    6092529.4093    1504633.6239
   -1132915.7114    6092529.3574    1504633.6004
   -1132915.7786    6092529.7176    1504633.8736
   -1132915.8034    6092529.8095    1504633.9573
   -1132915.8052    6092529.8355    1504634.0111
   -1132915.8022    6092529.8337    1504634.0157
   -1132915.8036    6092529.8629    1504634.0546
   -1132915.7715    6092529.7883    1504634.0050
   -1132915.8568    6092529.9526    1504634.1852
   -1132915.9142    6092530.0885    1504634.3541
   -1132915.8998    6092530.0604    1504634.3280
   -1132915.8414    6092529.9347    1504634.2032
   -1132915.8012    6092529.8512    1504634.1166
   -1132915.7700    6092529.7868    1504634.0778
   -1132915.7452    6092529.7343    1504634.0348
   -1132915.7396    6092529.7251    1504634.0331
   -1132915.7197    6092529.6990    1504633.9979
   -1132915.7084    6092529.6724    1504633.9751
   -1132915.6916    6092529.4472    1504633.6838
   -1132915.6796    6092529.4129    1504633.6466
   -1132915.6657    6092529.3653    1504633.5852
   -1132915.6410    6092529.3236    1504633.5389
   -1132915.7293    6092529.4680    1504633.6794
   -1132915.3242    6092528.7676    1504633.0311
   -1132915.5293    6092529.1048    1504633.3731
   -1132915.4318    6092528.9523    1504633.2565
   -1132915.5569    6092529.1686    1504633.4695
   -1132915.5925    6092529.2248    1504633.5361
   -1132915.5984    6092529.2351    1504633.5632
   -1132915.5669    6092529.1744    1504633.5291
   -1132915.5393    6092529.1230    1504633.5071
   -1132915.5740    6092529.1874    1504633.5924
   -1132915.5631    6092529.1824    1504633.5850
   -1132915.5673    6092529.1979    1504633.5930
   -1132915.5669    6092529.1819    1504633.6012
   -1132915.5519    6092529.1640    1504633.5829
   -1132915.5310    6092529.1225    1504633.5485
   -1132915.5368    6092529.1354    1504633.5634
   -1132915.5396    6092529.1387    1504633.5729
   -1132915.5490    6092529.1504    1504633.5995
   -1132915.5459    6092529.1276    1504633.6039
   -1132915.5343    6092529.0930    1504633.6048
   -1132915.5162    6092529.0435    1504633.5591
   -1132915.5629    6092529.2912    1504633.7376
   -1132915.5647    6092529.2845    1504633.7350
   -1132915.5633    6092529.2781    1504633.7426
   -1132915.5622    6092529.2772    1504633.7417
   -1132915.5394    6092529.2556    1504633.7089
   -1132915.5458    6092529.2450    1504633.7166
   -1132915.5554    6092529.2614    1504633.7317
   -1132915.5683    6092529.2596    1504633.7383
   -1132915.5550    6092529.2559    1504633.7309
   -1132915.5533    6092529.2413    1504633.7194
   -1132915.5608    6092529.2551    1504633.7270
   -1132915.5546    6092529.2360    1504633.7145
   -1132915.5538    6092529.2431    1504633.7094
   -1132915.5611    6092529.2703    1504633.7355
   -1132915.5594    6092529.2562    1504633.7435
   -1132915.5601    6092529.2461    1504633.7442
   -1132915.5648    6092529.2584    1504633.7622
   -1132915.5697    6092529.2434    1504633.7683
   -1132915.6088    6092529.2934    1504633.7414
   -1132915.6082    6092529.2617    1504633.7484
   -1132915.7050    6092529.4070    1504633.7195
   -1132915.7279    6092529.4327    1504633.7079
   -1132915.7104    6092529.3967    1504633.7081
   -1132915.6839    6092529.3532    1504633.7254
   -1132915.6731    6092529.3303    1504633.7372
   -1132915.6830    6092529.3475    1504633.7342
   -1132915.5914    6092529.1818    1504633.7618
   -1132915.5968    6092529.1714    1504633.7732
   -1132915.6014    6092529.1608    1504633.7803
   -1132915.6210    6092529.2009    1504633.7773
   -1132915.6352    6092529.2161    1504633.7634
   -1132915.6749    6092529.2623    1504633.7652
   -1132915.6990    6092529.2829    1504633.7755
   -1132915.7001    6092529.2667    1504633.7796
   -1132915.7049    6092529.2762    1504633.7758
   -1132915.7011    6092529.2692    1504633.7723
   -1132915.7047    6092529.2736    1504633.7820
   -1132915.6962    6092529.2600    1504633.7683
   -1132915.7206    6092529.2777    1504633.7543
   -1132915.7263    6092529.2705    1504633.7604
   -1132915.7166    6092529.2522    1504633.7667
   -1132915.6959    6092529.2235    1504633.7700
   -1132915.6816    6092529.1828    1504633.7778
   -1132915.6889    6092529.1776    1504633.7757
   -1132915.6779    6092529.1558    1504633.7741
   -1132915.6607    6092529.1024    1504633.7805
   -1132915.6432    6092529.0491    1504633.7777
   -1132915.6344    6092529.0460    1504633.7695
   -1132915.6296    6092529.0095    1504633.7653
   -1132915.6283    6092528.9909    1504633.7578
   -1132915.6342    6092528.9853    1504633.7553
   -1132915.6407    6092528.9933    1504633.7577
   -1132915.6393    6092528.9664    1504633.7601
   -1132915.6238    6092528.9340    1504633.7652
   -1132915.6154    6092528.8997    1504633.7661
   -1132915.6049    6092528.8625    1504633.7655
   -1132915.6047    6092528.8514    1504633.7672
   -1132915.6013    6092528.8217    1504633.7688
   -1132915.5971    6092528.7781    1504633.7690
   -1132915.6063    6092528.7786    1504633.7818
   -1132915.6075    6092528.7657    1504633.7833
   -1132915.6132    6092528.7396    1504633.7853
   -1132915.6162    6092528.7234    1504633.7888
   -1132915.6135    6092528.6947    1504633.7987
   -1132915.6123    6092528.6658    1504633.7934
   -1132915.6077    6092528.6472    1504633.7965
   -1132915.5710    6092529.3577    1504633.7646
   -1132915.5715    6092529.3385    1504633.7650
   -1132915.5702    6092529.3579    1504633.7686
   -1132915.5739    6092529.3622    1504633.7786
   -1132915.5692    6092529.3553    1504633.7706
   -1132915.5631    6092529.3560    1504633.7636
   -1132915.5513    6092529.3415    1504633.7590
   -1132915.5512    6092529.3573    1504633.7694
   -1132915.5557    6092529.3606    1504633.7752
   -1132915.5638    6092529.3778    1504633.7827
   -1132915.5585    6092529.3879    1504633.7908
   -1132915.5631    6092529.3985    1504633.8010
   -1132915.5599    6092529.3867    1504633.7984
   -1132915.5633    6092529.3959    1504633.8077
   -1132915.5622    6092529.3910    1504633.8127
   -1132915.5607    6092529.4080    1504633.8168
   -1132915.5673    6092529.4160    1504633.8115
   -1132915.5626    6092529.3980    1504633.8110
   -1132915.5540    6092529.4019    1504633.8175
   -1132915.5435    6092529.3954    1504633.8176
   -1132915.5425    6092529.3999    1504633.8154
   -1132915.5429    6092529.4012    1504633.8126
   -1132915.5446    6092529.3972    1504633.8091
   -1132915.5425    6092529.4000    1504633.8164
   -1132915.5413    6092529.4157    1504633.8168
   -1132915.5361    6092529.4080    1504633.8094
   -1132915.5261    6092529.4017    1504633.8070
   -1132915.5315    6092529.4343    1504633.8101
   -1132915.5164    6092529.8249    1504634.1565
   -1132915.5070    6092530.0022    1504634.3265
   -1132916.1974    6092531.0368    1504633.6760
   -1132915.8133    6092530.6888    1504634.2385
   -1132915.6721    6092530.3520    1504634.2514
   -1132915.7143    6092530.4581    1504634.2236
   -1132915.8035    6092530.6287    1504634.2100
   -1132915.7305    6092530.4654    1504634.2153
   -1132915.6918    6092530.4094    1504634.2425
   -1132915.6743    6092530.3426    1504634.2352
   -1132915.7800    6092530.6073    1504634.2328
   -1132915.7749    6092530.6124    1504634.2469
   -1132915.8039    6092530.6784    1504634.2474
   -1132915.8410    6092530.7497    1504634.2308
   -1132915.8527    6092530.8062    1504634.2523
   -1132915.8476    6092530.7652    1504634.2271
   -1132915.9700    6092531.0250    1504634.1969
   -1132915.8618    6092530.7661    1504634.1919
   -1132915.8093    6092530.6801    1504634.2106
   -1132915.6224    6092530.2590    1504634.2469
   -1132915.8941    6092530.8477    1504634.1981
   -1132915.9430    6092530.9358    1504634.1768
   -1132916.0082    6092531.0697    1504634.1565
   -1132916.1611    6092531.3908    1504634.1348
   -1132916.1550    6092531.3647    1504634.1390
   -1132916.2191    6092531.4571    1504634.1101
   -1132915.9766    6092531.2975    1504634.1126
   -1132915.9426    6092531.2108    1504634.1200
   -1132915.9297    6092531.1709    1504634.1237
   -1132915.9293    6092531.1577    1504634.1109
   -1132915.9188    6092531.1161    1504634.1106
   -1132915.9339    6092531.1521    1504634.1111
   -1132915.8474    6092530.9818    1504634.1393
   -1132915.8404    6092530.9637    1504634.1398
   -1132915.8189    6092530.9294    1504634.1465
   -1132915.8227    6092530.9285    1504634.1412
   -1132915.8479    6092530.9682    1504634.1344
   -1132915.7975    6092530.8708    1504634.1447
   -1132915.8063    6092530.8735    1504634.1461
   -1132915.7773    6092530.8064    1504634.1377
   -1132915.7670    6092530.7729    1504634.1338
   -1132915.7636    6092530.7614    1504634.1373
   -1132915.7396    6092530.7092    1504634.1423
   -1132915.7444    6092530.7384    1504634.1428
   -1132915.7529    6092530.7406    1504634.1328
   -1132915.7528    6092530.7423    1504634.1462
   -1132915.7198    6092530.6970    1504634.1427
   -1132915.7300    6092530.6996    1504634.1478
   -1132915.7297    6092530.6882    1504634.1422
   -1132915.7272    6092530.6818    1504634.1436
   -1132915.7426    6092530.6870    1504634.1297
   -1132915.7454    6092530.6855    1504634.1299
   -1132915.7716    6092530.7196    1504634.1202
   -1132915.7830    6092530.7332    1504634.1156
   -1132915.7781    6092530.7150    1504634.1215
   -1132915.7796    6092530.7221    1504634.1188
   -1132915.7778    6092530.6955    1504634.1123
   -1132915.7632    6092530.6725    1504634.1187
   -1132915.7613    6092530.6534    1504634.1166
   -1132915.7615    6092530.6588    1504634.1193
   -1132915.7510    6092530.6372    1504634.1144
   -1132915.7401    6092530.6029    1504634.1106
   -1132915.7414    6092530.6026    1504634.1133
   -1132915.7445    6092530.5996    1504634.1098
   -1132915.7435    6092530.5844    1504634.1104
   -1132915.7326    6092530.5696    1504634.1074
   -1132915.7161    6092530.5342    1504634.0924
   -1132915.7067    6092530.5006    1504634.0894
   -1132915.7016    6092530.4979    1504634.0931
   -1132915.6853    6092530.4790    1504634.0919
   -1132915.6833    6092530.4726    1504634.0890
   -1132915.6775    6092530.4588    1504634.0746
   -1132915.6753    6092530.4539    1504634.0798
   -1132915.6656    6092530.4387    1504634.0786
   -1132915.6612    6092530.4165    1504634.0806
   -1132915.6519    6092530.4006    1504634.0800
   -1132915.0216    6092528.8316    1504633.8584
   -1132915.0636    6092529.2575    1504634.1186
   -1132915.1759    6092529.4607    1504634.1062
   -1132915.3134    6092529.7011    1504634.0955
   -1132915.4033    6092529.8672    1504634.0952
   -1132915.3591    6092529.7773    1504634.0939
   -1132915.4220    6092529.9000    1504634.0853
   -1132915.3990    6092529.8277    1504634.0808
   -1132915.3988    6092529.8067    1504634.0761
   -1132915.3856    6092529.7734    1504634.0750
   -1132915.3827    6092529.7560    1504634.0664
   -1132915.3702    6092529.7214    1504634.0607
   -1132915.3802    6092529.7350    1504634.0625
   -1132915.4001    6092529.7591    1504634.0543
   -1132915.4402    6092529.8126    1504634.0438
   -1132915.4538    6092529.8111    1504634.0328
   -1132915.4583    6092529.8240    1504634.0263
   -1132915.4641    6092529.8177    1504634.0246
   -1132915.4653    6092529.8013    1504634.0034
   -1132915.4729    6092529.8226    1504633.9974
   -1132915.4877    6092529.8342    1504633.9923
   -1132915.4689    6092529.7850    1504633.9857
   -1132915.4778    6092529.7891    1504633.9717
   -1132915.4719    6092529.7807    1504633.9665
   -1132915.4822    6092529.7822    1504633.9498
   -1132915.4712    6092529.7549    1504633.9306
   -1132915.4854    6092529.7566    1504633.9199
   -1132915.4906    6092529.7409    1504633.9037
   -1132915.4852    6092529.6921    1504633.8843
   -1132915.4711    6092529.6555    1504633.8732
   -1132915.4659    6092529.6176    1504633.8523
   -1132915.4559    6092529.5737    1504633.8419
   -1132915.4486    6092529.5301    1504633.8281
   -1132915.4510    6092529.5061    1504633.8001
   -1132915.5088    6092530.2440    1504634.2746
   -1132915.5127    6092530.2311    1504634.2745
   -1132915.4997    6092530.2052    1504634.2665
   -1132915.4979    6092530.2135    1504634.2657
   -1132915.4960    6092530.2181    1504634.2597
   -1132915.4838    6092530.1913    1504634.2645
   -1132915.4808    6092530.1864    1504634.2613
   -1132915.4739    6092530.1719    1504634.2563
   -1132915.4774    6092530.1821    1504634.2588
   -1132915.4728    6092530.1850    1504634.2670
   -1132915.4628    6092530.1668    1504634.2632
   -1132915.4609    6092530.1459    1504634.2611
   -1132915.4587    6092530.1437    1504634.2630
   -1132915.4577    6092530.1284    1504634.2547
   -1132915.4597    6092530.1525    1504634.2658
   -1132915.4628    6092530.1458    1504634.2602
   -1132915.4588    6092530.1466    1504634.2687
   -1132915.4552    6092530.1121    1504634.2635
   -1132915.4518    6092530.1157    1504634.2654
   -1132915.4539    6092530.0894    1504634.2565
   -1132915.2409    6092529.8100    1504634.2350
   -1132915.2370    6092529.8072    1504634.2398
   -1132915.2350    6092529.7939    1504634.2360
   -1132915.2350    6092529.7898    1504634.2425
   -1132915.2188    6092529.7730    1504634.2393
   -1132915.2188    6092529.7680    1504634.2434
   -1132915.2049    6092529.7311    1504634.2475
   -1132915.2078    6092529.7179    1504634.2383
   -1132915.1987    6092529.6993    1504634.2334
   -1132915.1993    6092529.6747    1504634.2307
   -1132915.1992    6092529.6434    1504634.2279
   -1132915.1914    6092529.6282    1504634.2243
   -1132915.1865    6092529.6041    1504634.2269
   -1132915.1899    6092529.5999    1504634.2188
   -1132915.1830    6092529.5772    1504634.2224
   -1132915.1877    6092529.5558    1504634.2172
   -1132914.9742    6092529.6506    1504634.0956
   -1132914.9514    6092529.4625    1504633.9917
   -1132914.9491    6092529.3493    1504633.9117
   -1132914.9434    6092529.2890    1504633.8887
   -1132914.9330    6092529.1986    1504633.8276
   -1132914.9367    6092529.1511    1504633.8221
   -1132914.9452    6092529.1077    1504633.8159
   -1132914.9435    6092529.0886    1504633.8340
   -1132914.9408    6092529.0644    1504633.8528
   -1132914.9434    6092529.0068    1504633.8605
   -1132914.9453    6092528.9884    1504633.8766
   -1132914.9410    6092528.9225    1504633.8858
   -1132914.9400    6092528.8720    1504633.8957
   -1132914.9408    6092529.3516    1504633.8779
   -1132914.9417    6092529.3277    1504633.8536
   -1132914.9345    6092529.2867    1504633.8323
   -1132914.9317    6092529.2844    1504633.8267
   -1132914.9361    6092529.2700    1504633.8168
   -1132914.9357    6092529.2737    1504633.8168
   -1132914.9361    6092529.2753    1504633.8116
   -1132914.9341    6092529.2677    1504633.8100
   -1132914.9349    6092529.2593    1504633.8111
   -1132914.9312    6092529.2858    1504633.8183
   -1132914.9278    6092529.2741    1504633.8136
   -1132914.9310    6092529.2714    1504633.8051
   -1132914.9258    6092529.2972    1504633.8174
   -1132914.9276    6092529.2796    1504633.8168
   -1132914.9350    6092529.3079    1504633.8228
   -1132914.9303    6092529.3272    1504633.8291
   -1132914.9308    6092529.3215    1504633.8227
   -1132914.9313    6092529.3451    1504633.8205
   -1132914.9326    6092529.3585    1504633.8283
   -1132914.9369    6092529.3648    1504633.8357
   -1132915.4982    6092530.1601    1504633.8911
   -1132915.1693    6092529.6945    1504633.8547
   -1132915.1865    6092529.7391    1504633.8630
   -1132915.1474    6092529.7009    1504633.8551
   -1132915.1109    6092529.6513    1504633.8532
   -1132915.1901    6092529.7918    1504633.8678
   -1132915.1774    6092529.7711    1504633.8687
   -1132915.1311    6092529.6880    1504633.8605
   -1132915.1339    6092529.7042    1504633.8585
   -1132915.1380    6092529.6954    1504633.8551
   -1132915.0738    6092529.5973    1504633.8470
   -1132915.0784    6092529.5760    1504633.8393
   -1132915.0768    6092529.5748    1504633.8440
   -1132915.0012    6092529.4507    1504633.7151
   -1132915.0358    6092529.5040    1504633.7426
   -1132915.0500    6092529.5340    1504633.7499
   -1132915.0421    6092529.5058    1504633.7498
   -1132915.0257    6092529.5016    1504633.7329
   -1132915.0179    6092529.4767    1504633.7124
   -1132915.0152    6092529.4766    1504633.7077
   -1132915.0133    6092529.4381    1504633.6964
   -1132915.0024    6092529.3986    1504633.6867
   -1132915.0128    6092529.4095    1504633.7038
   -1132915.0272    6092529.4223    1504633.7078
   -1132915.0433    6092529.4568    1504633.7102
   -1132915.0553    6092529.4503    1504633.7027
   -1132915.0841    6092529.4755    1504633.7234
   -1132915.0765    6092529.4644    1504633.7318
   -1132915.0914    6092529.4874    1504633.7423
   -1132915.0896    6092529.4785    1504633.7453
   -1132915.0912    6092529.4586    1504633.7355
   -1132915.1046    6092529.4651    1504633.7243
   -1132915.0993    6092529.4440    1504633.7293
   -1132915.1042    6092529.4441    1504633.7226
   -1132915.1024    6092529.4239    1504633.7224
   -1132915.1151    6092529.4215    1504633.7139
   -1132915.1224    6092529.4260    1504633.7126
   -1132915.1270    6092529.4193    1504633.7054
   -1132915.1378    6092529.4338    1504633.7137
   -1132915.1311    6092529.4263    1504633.7101
   -1132915.1260    6092529.3992    1504633.7051
   -1132915.1251    6092529.3952    1504633.7054
   -1132915.1320    6092529.3907    1504633.7039
   -1132915.1293    6092529.3850    1504633.7026
   -1132915.1240    6092529.3752    1504633.6990
   -1132915.1208    6092529.3550    1504633.6944
   -1132915.1126    6092529.3372    1504633.6913
   -1132915.1222    6092529.3477    1504633.6939
   -1132915.1228    6092529.3283    1504633.6950
   -1132915.1247    6092529.3339    1504633.6996
   -1132915.1331    6092529.3175    1504633.6933
   -1132915.1410    6092529.3317    1504633.6967
   -1132915.1438    6092529.3438    1504633.6944
   -1132915.1294    6092529.3204    1504633.6861
   -1132915.1387    6092529.3308    1504633.6844
   -1132915.1439    6092529.3249    1504633.6857
   -1132915.1514    6092529.3296    1504633.6807
   -1132915.1493    6092529.3338    1504633.6787
   -1132915.1503    6092529.3078    1504633.6733
   -1132915.1473    6092529.3122    1504633.6679
   -1132915.1429    6092529.3048    1504633.6655
   -1132915.1478    6092529.2963    1504633.6599
   -1132915.1547    6092529.2929    1504633.6623
   -1132915.1515    6092529.2826    1504633.6608
   -1132915.1463    6092529.2559    1504633.6537
   -1132915.1395    6092529.2442    1504633.6485
   -1132915.1432    6092529.2365    1504633.6377
   -1132915.1533    6092529.2484    1504633.6370
   -1132915.1539    6092529.2279    1504633.6342
   -1132915.1510    6092529.2107    1504633.6279
   -1132915.1586    6092529.2244    1504633.6291
   -1132915.1555    6092529.1953    1504633.6300
   -1132915.1570    6092529.2049    1504633.6335
   -1132915.1531    6092529.1677    1504633.6298
   -1132915.1424    6092529.1377    1504633.6217
   -1132915.1383    6092529.1296    1504633.6221
   -1132915.1367    6092529.1347    1504633.6083
   -1132915.1454    6092529.1421    1504633.6114
   -1132915.1416    6092529.1419    1504633.6093
   -1132915.1443    6092529.1578    1504633.6109
   -1132915.1443    6092529.1461    1504633.6089
   -1132915.1377    6092529.1398    1504633.6083
   -1132915.1297    6092529.1250    1504633.5991
   -1132915.1304    6092529.0979    1504633.5941
   -1132915.1340    6092529.0968    1504633.5895
   -1132915.1435    6092529.1060    1504633.5841
   -1132915.1452    6092529.0801    1504633.5800
   -1132915.1858    6092529.3866    1504633.6446
   -1132915.1886    6092529.3934    1504633.6387
   -1132914.8442    6092528.8928    1504633.5756
   -1132914.8426    6092528.8788    1504633.5764
   -1132914.8417    6092528.8747    1504633.5708
   -1132914.8506    6092528.8682    1504633.5663
   -1132914.8509    6092528.8655    1504633.5617
   -1132914.8525    6092528.8464    1504633.5597
   -1132914.8505    6092528.8460    1504633.5549
   -1132914.8490    6092528.8560    1504633.5570
   -1132914.8514    6092528.8503    1504633.5441
   -1132914.8508    6092528.8251    1504633.5357
   -1132914.8538    6092528.8300    1504633.5309
   -1132914.8564    6092528.8307    1504633.5265
   -1132914.8650    6092528.8206    1504633.5224
   -1132914.8670    6092528.8232    1504633.5249
   -1132914.8670    6092528.8124    1504633.5175
   -1132914.8664    6092528.8067    1504633.5104
   -1132914.8670    6092528.8120    1504633.5072
   -1132914.8700    6092528.8245    1504633.5159
   -1132914.8785    6092528.8086    1504633.5126
   -1132914.8840    6092528.8136    1504633.5121
   -1132914.8799    6092528.7920    1504633.5000
   -1132914.8839    6092528.7971    1504633.5006
   -1132914.8826    6092528.7915    1504633.4954
   -1132914.8894    6092528.7860    1504633.4932
   -1132914.8891    6092528.7698    1504633.4847
   -1132914.8947    6092528.7746    1504633.4816
   -1132914.8930    6092528.7556    1504633.4763
   -1132914.8905    6092528.7321    1504633.4676
   -1132914.8887    6092528.7331    1504633.4669
   -1132914.8997    6092528.7286    1504633.4567
   -1132914.8940    6092528.7102    1504633.4502
   -1132914.8964    6092528.6978    1504633.4457
   -1132914.8951    6092528.6952    1504633.4441
   -1132914.8972    6092528.7092    1504633.4420
   -1132914.8929    6092528.6738    1504633.4350
   -1132914.8952    6092528.6715    1504633.4371
   -1132915.4136    6092529.4322    1504633.5926
   -1132914.5111    6092528.0778    1504633.3079
   -1132914.7226    6092528.3893    1504633.3662
   -1132914.8911    6092528.6212    1504633.4117
   -1132915.1408    6092529.1682    1504633.6969
   -1132915.0662    6092528.9073    1504633.5057
   -1132915.0480    6092528.7860    1504633.4030
   -1132914.9941    6092528.7788    1504633.4820
   -1132915.0019    6092528.7895    1504633.4860
   -1132915.0403    6092528.8684    1504633.5218
   -1132915.1458    6092529.0618    1504633.6051
   -1132915.2529    6092529.2767    1504633.6946
   -1132915.1973    6092529.1560    1504633.6415
   -1132915.1474    6092529.0506    1504633.5954
   -1132915.1867    6092529.1246    1504633.6327
   -1132915.1566    6092529.0462    1504633.6032
   -1132915.2108    6092529.1388    1504633.6388
   -1132915.2043    6092529.1419    1504633.6314
   -1132915.2142    6092529.1497    1504633.6311
   -1132914.8931    6092528.5039    1504633.3569
   -1132914.8982    6092528.5108    1504633.3521
   -1132914.9014    6092528.4911    1504633.3456
   -1132914.8965    6092528.4861    1504633.3397
   -1132914.8885    6092528.4809    1504633.3331
   -1132914.8990    6092528.4914    1504633.3354
   -1132914.9002    6092528.4705    1504633.3339
   -1132914.8917    6092528.4542    1504633.3224
   -1132914.8945    6092528.4555    1504633.3206
   -1132914.8959    6092528.4411    1504633.3142
   -1132914.8919    6092528.4375    1504633.3093
   -1132914.8805    6092528.4133    1504633.2922
   -1132914.8881    6092528.3997    1504633.2929
   -1132914.8909    6092528.4018    1504633.2906
   -1132914.8919    6092528.4024    1504633.2894
   -1132914.8899    6092528.3821    1504633.2802
   -1132914.8826    6092528.3832    1504633.2803
   -1132914.8849    6092528.3879    1504633.2782
   -1132914.8837    6092528.3656    1504633.2634
   -1132914.8915    6092528.3698    1504633.2714
   -1132914.8957    6092528.3630    1504633.2680
   -1132914.8952    6092528.3549    1504633.2649
   -1132914.8855    6092528.3454    1504633.2597
   -1132914.8861    6092528.3550    1504633.2587
   -1132914.8929    6092528.3398    1504633.2522
   -1132914.8896    6092528.3548    1504633.2588
   -1132915.0100    6092528.5216    1504633.2852
   -1132914.7543    6092528.0664    1504633.1293
   -1132914.9332    6092528.4023    1504633.2739
   -1132914.9248    6092528.3859    1504633.2696
   -1132914.8750    6092528.2858    1504633.2265
   -1132914.9341    6092528.3913    1504633.2707
   -1132914.9514    6092528.4387    1504633.2829
   -1132914.9763    6092528.4737    1504633.2928
   -1132914.9578    6092528.4329    1504633.2757
   -1132914.9160    6092528.3516    1504633.2402
   -1132914.9358    6092528.3907    1504633.2644
   -1132914.9195    6092528.3570    1504633.2484
   -1132914.9274    6092528.3696    1504633.2490
   -1132914.9442    6092528.4206    1504633.2670
   -1132914.9730    6092528.4617    1504633.2800
   -1132914.9825    6092528.4819    1504633.2884
   -1132914.9789    6092528.4802    1504633.2729
   -1132914.9842    6092528.4800    1504633.2653
   -1132914.9533    6092528.4049    1504633.2376
   -1132914.9148    6092528.3200    1504633.2030
   -1132914.9201    6092528.3266    1504633.2014
   -1132914.9127    6092528.3068    1504633.1922
   -1132914.9083    6092528.3115    1504633.1913
   -1132914.9164    6092528.3152    1504633.1980
   -1132914.9193    6092528.3312    1504633.1971
   -1132914.9250    6092528.3400    1504633.2066
   -1132914.9631    6092528.3711    1504633.2013
   -1132915.7095    6092529.2956    1504633.3675
   -1132915.5343    6092529.1286    1504633.3655
   -1132915.3159    6092528.8254    1504633.2870
   -1132915.3537    6092528.8874    1504633.2955
   -1132915.0497    6092528.2795    1504633.0282
   -1132915.1781    6092528.5559    1504633.1531
   -1132915.2229    6092528.6010    1504633.1642
   -1132915.2435    6092528.6217    1504633.1752
   -1132915.4582    6092528.9329    1504633.2846
   -1132915.3537    6092528.7702    1504633.2361
   -1132915.2999    6092528.8329    1504633.4943
   -1132915.2618    6092528.7566    1504633.4671
   -1132915.2060    6092528.6353    1504633.4006
   -1132915.1890    6092528.5958    1504633.3903
   -1132915.2133    6092528.6196    1504633.3883
   -1132915.1901    6092528.6183    1504633.4011
   -1132915.1463    6092528.5491    1504633.3785
   -1132915.1358    6092528.5689    1504633.4001
   -1132915.1270    6092528.5374    1504633.3820
   -1132915.1387    6092528.5738    1504633.4066
   -1132915.1385    6092528.5830    1504633.4041
   -1132915.0714    6092528.5024    1504633.3657
   -1132915.0832    6092528.5171    1504633.3726
   -1132915.0465    6092528.4884    1504633.3676
   -1132915.0179    6092528.4503    1504633.3596
   -1132915.0544    6092528.5162    1504633.3803
   -1132915.0903    6092528.5499    1504633.3883
   -1132915.0647    6092528.5017    1504633.3721
   -1132915.0135    6092528.4404    1504633.3477
   -1132915.0038    6092528.4280    1504633.3413
   -1132914.9821    6092528.3887    1504633.3264
   -1132915.0084    6092528.4187    1504633.3242
   -1132914.9961    6092528.4069    1504633.3257
   -1132914.9965    6092528.4222    1504633.3305
   -1132914.9940    6092528.4229    1504633.3335
   -1132914.8544    6092528.2170    1504633.3479
   -1132914.7222    6092528.1094    1504633.2659
   -1132914.7390    6092528.1291    1504633.2802
   -1132913.4141    6092526.3977    1504633.4438
   -1132914.6075    6092527.9389    1504633.2684
   -1132915.3085    6092528.9163    1504633.2406
   -1132914.1933    6092527.3373    1504633.2634
   -1132914.3781    6092527.6307    1504633.2835
   -1132914.4191    6092527.6802    1504633.2826
   -1132914.4477    6092527.7108    1504633.2950
   -1132914.4006    6092527.6318    1504633.2962
   -1132914.9393    6092528.3268    1504633.5848
   -1132914.6786    6092528.0205    1504633.2836
   -1132914.7055    6092528.0487    1504633.2922
   -1132914.6819    6092528.0226    1504633.2679
   -1132914.6900    6092528.0096    1504633.2585
   -1132914.5998    6092527.8784    1504633.2147
   -1132914.6298    6092527.8903    1504633.2122
   -1132914.8063    6092528.1180    1504633.2788
   -1132914.8768    6092528.1995    1504633.3300
   -1132914.9447    6092528.2795    1504633.3439
   -1132914.8847    6092528.1776    1504633.3437
   -1132914.8951    6092528.1838    1504633.3463
   -1132914.9469    6092528.2513    1504633.3523
   -1132914.9740    6092528.2578    1504633.3513
   -1132915.0080    6092528.2805    1504633.3542
   -1132915.0263    6092528.2715    1504633.3571
   -1132915.3303    6092528.8361    1504633.7084
   -1132915.0935    6092528.5012    1504633.5382
   -1132914.8749    6092528.1963    1504633.3575
   -1132914.7938    6092528.0301    1504633.2900
   -1132914.8032    6092527.9955    1504633.2807
   -1132914.7965    6092527.9219    1504633.2436
   -1132914.9158    6092528.2540    1504633.3176
   -1132914.8945    6092528.2118    1504633.2954
   -1132914.9674    6092528.3114    1504633.3273
   -1132914.8555    6092527.7008    1504633.0174
   -1132915.0402    6092528.5251    1504633.4634
   -1132915.0503    6092528.4253    1504633.4238
   -1132915.1360    6092528.5662    1504633.4921
   -1132915.1486    6092528.5657    1504633.4882
   -1132915.1654    6092528.5552    1504633.4796
   -1132915.1682    6092528.5559    1504633.4796
   -1132915.1123    6092528.9116    1504633.5793
   -1132915.1169    6092528.9825    1504633.6082
   -1132915.0950    6092528.2874    1504633.3220
   -1132915.1185    6092528.0062    1504633.2068
   -1132915.1021    6092528.0163    1504633.2007
   -1132915.0822    6092528.3163    1504633.3096
   -1132915.0790    6092528.4271    1504633.3541
   -1132915.0843    6092528.4450    1504633.3696
   -1132915.0519    6092528.4796    1504633.4041
   -1132915.0477    6092528.4647    1504633.4144
   -1132915.0580    6092528.5257    1504633.4345
   -1132915.0534    6092528.4752    1504633.4089
   -1132915.0652    6092528.3933    1504633.3786
   -1132915.0509    6092528.3635    1504633.3754
   -1132915.0671    6092528.4086    1504633.3978
   -1132915.0830    6092528.3689    1504633.3781
   -1132915.0906    6092528.4155    1504633.3912
   -1132915.1043    6092528.4027    1504633.3752
   -1132915.1057    6092528.4526    1504633.3964
   -1132915.0105    6092528.2134    1504633.2881
   -1132914.9139    6092528.0785    1504633.2147
   -1132914.8401    6092527.9740    1504633.1668
   -1132914.7959    6092527.9297    1504633.1358
   -1132914.7967    6092527.9207    1504633.1367
   -1132914.8313    6092528.0025    1504633.1745
   -1132914.8504    6092528.0808    1504633.2064
   -1132914.8347    6092528.0687    1504633.2037
   -1132914.8459    6092528.1113    1504633.2209
   -1132914.8817    6092528.1792    1504633.2456
   -1132914.8821    6092528.1606    1504633.2269
   -1132914.8755    6092528.2082    1504633.2499
   -1132914.8668    6092528.1850    1504633.2317
   -1132914.8783    6092528.2149    1504633.2489
   -1132914.8555    6092528.1927    1504633.2443
   -1132914.8578    6092528.2057    1504633.2502
   -1132914.8431    6092528.2297    1504633.2597
   -1132914.8619    6092528.2695    1504633.2823
   -1132914.8584    6092528.2865    1504633.2833
   -1132914.8752    6092528.3180    1504633.3013
   -1132914.8617    6092528.3605    1504633.3275
   -1132914.8509    6092528.3375    1504633.3277
   -1132914.8426    6092528.3120    1504633.3146
   -1132914.8406    6092528.3137    1504633.3179
   -1132914.8546    6092528.3427    1504633.3226
   -1132914.8712    6092528.4220    1504633.3479
   -1132914.8727    6092528.4231    1504633.3478
   -1132914.8690    6092528.4076    1504633.3457
   -1132914.8594    6092528.4188    1504633.3494
   -1132914.8496    6092528.1349    1504633.2213
   -1132914.8538    6092528.1656    1504633.2338
   -1132914.8437    6092528.1531    1504633.2365
   -1132914.8399    6092528.1655    1504633.2437
   -1132914.9950    6092528.6063    1504633.0967
   -1132915.0025    6092528.6143    1504633.1016
   -1132914.9989    6092528.6350    1504633.1188
   -1132915.0402    6092529.0706    1504633.3235
   -1132915.0498    6092529.1456    1504633.3626
   -1132915.2550    6092529.9403    1504633.5448
   -1132915.0619    6092529.3552    1504633.4684
   -1132915.0821    6092529.4555    1504633.5046
   -1132915.0718    6092529.4326    1504633.4914
   -1132915.0789    6092529.3878    1504633.4652
   -1132915.0663    6092529.3329    1504633.4421
   -1132915.0209    6092528.7195    1504633.1732
   -1132915.0253    6092528.7188    1504633.1738
   -1132915.0284    6092528.7216    1504633.1783
   -1132915.0394    6092528.7514    1504633.1816
   -1132915.0410    6092528.7679    1504633.1839
   -1132915.0453    6092528.7758    1504633.1882
   -1132915.0500    6092528.7828    1504633.1874
   -1132915.0217    6092528.5113    1504633.0675
   -1132915.0274    6092528.7208    1504633.1610
   -1132915.0394    6092528.9388    1504633.2574
   -1132915.0475    6092529.0607    1504633.3128
   -1132915.0503    6092529.0953    1504633.3267
   -1132915.0460    6092529.1191    1504633.3373
   -1132915.0431    6092529.1008    1504633.3257
   -1132915.0471    6092529.1754    1504633.3656
   -1132915.0510    6092529.1602    1504633.3578
   -1132915.0441    6092529.0823    1504633.3261
   -1132915.0447    6092529.1100    1504633.3390
   -1132914.9863    6092528.9992    1504633.2153
   -1132914.9822    6092529.0027    1504633.2205
   -1132914.9831    6092528.9833    1504633.2079
   -1132914.9819    6092528.9696    1504633.1969
   -1132914.9852    6092529.0195    1504633.2126
   -1132915.3094    6092529.7395    1504633.5709
   -1132915.1057    6092529.2867    1504633.5028
   -1132915.0874    6092529.2875    1504633.4811
   -1132915.0753    6092529.2753    1504633.4551
   -1132915.0819    6092529.3214    1504633.4833
   -1132915.0632    6092529.3214    1504633.4640
   -1132915.0443    6092529.2647    1504633.4124
   -1132915.0372    6092529.2433    1504633.3842
   -1132915.0473    6092529.3063    1504633.4122
   -1132915.0591    6092529.3276    1504633.4391
   -1132915.0561    6092529.3497    1504633.4422
   -1132915.0540    6092529.3537    1504633.4447
   -1132915.0450    6092529.3482    1504633.4408
   -1132915.0415    6092529.3354    1504633.4303
   -1132915.0470    6092529.3401    1504633.4315
   -1132915.0422    6092529.3316    1504633.4116
   -1132915.0373    6092529.3473    1504633.4239
   -1132915.0359    6092529.3204    1504633.4030
   -1132915.0325    6092529.3456    1504633.4083
   -1132915.0356    6092529.3400    1504633.4079
   -1132915.0417    6092529.3395    1504633.4041
   -1132915.0445    6092529.3331    1504633.4121
   -1132915.0386    6092529.3567    1504633.4051
   -1132915.0490    6092529.3829    1504633.4135
   -1132915.0347    6092529.3612    1504633.4058
   -1132915.0335    6092529.3727    1504633.4098
   -1132915.0416    6092529.3744    1504633.4168
   -1132915.0472    6092529.3738    1504633.4106
   -1132915.0488    6092529.3646    1504633.3994
   -1132915.0474    6092529.3438    1504633.3888
   -1132915.0529    6092529.3650    1504633.4053
   -1132915.0643    6092529.3899    1504633.4207
   -1132915.0712    6092529.4044    1504633.4236
   -1132915.0874    6092529.4358    1504633.4442
   -1132915.0826    6092529.4409    1504633.4404
   -1132915.0843    6092529.4534    1504633.4446
   -1132915.0928    6092529.4578    1504633.4457
   -1132915.1009    6092529.4711    1504633.4582
   -1132915.1015    6092529.4612    1504633.4591
   -1132915.1047    6092529.4695    1504633.4623
   -1132915.1004    6092529.4700    1504633.4669
   -1132915.1077    6092529.4828    1504633.4753
   -1132915.1137    6092529.4746    1504633.4683
   -1132915.1164    6092529.4696    1504633.4711
   -1132915.1157    6092529.4913    1504633.4769
   -1132915.1216    6092529.4769    1504633.4733
   -1132915.1169    6092529.4689    1504633.4668
   -1132915.1217    6092529.4711    1504633.4712
   -1132915.1311    6092529.4924    1504633.4782
   -1132915.1265    6092529.4797    1504633.4688
   -1132915.1347    6092529.4942    1504633.4748
   -1132915.1344    6092529.4934    1504633.4756
   -1132915.1406    6092529.5123    1504633.4800
   -1132915.1424    6092529.5176    1504633.4740
   -1132915.1503    6092529.5326    1504633.4776
   -1132915.1518    6092529.5371    1504633.4770
   -1132915.1449    6092529.5485    1504633.4825
   -1132915.1482    6092529.5494    1504633.4765
   -1132915.1526    6092529.5520    1504633.4760
   -1132915.1499    6092529.5649    1504633.4789
   -1132915.1548    6092529.5700    1504633.4779
   -1132915.1590    6092529.6035    1504633.4848
   -1132915.1555    6092529.5940    1504633.4762
   -1132915.1613    6092529.6047    1504633.4764
   -1132915.1638    6092529.6058    1504633.4765
   -1132915.1717    6092529.6076    1504633.4735
   -1132915.1702    6092529.6160    1504633.4772
   -1132915.1786    6092529.6045    1504633.4796
   -1132915.1792    6092529.6232    1504633.4829
   -1132915.1907    6092529.6275    1504633.4863
   -1132915.0709    6092529.3791    1504633.3024
   -1132915.3545    6092529.9698    1504633.7205
   -1132915.3381    6092529.9273    1504633.6923
   -1132915.3771    6092530.0100    1504633.7481
   -1132915.0816    6092529.3837    1504633.3187
   -1132915.3748    6092529.9856    1504633.7187
   -1132915.3883    6092529.9898    1504633.7152
   -1132915.6235    6092530.5521    1504633.7700
   -1132915.4013    6092530.0251    1504633.7193
   -1132915.4097    6092530.0372    1504633.7287
   -1132915.3773    6092529.9672    1504633.6830
   -1132915.3686    6092529.9490    1504633.6549
   -1132915.3679    6092529.9488    1504633.6419
   -1132915.3727    6092529.9605    1504633.6424
   -1132915.3480    6092529.9090    1504633.6045
   -1132915.3528    6092529.9143    1504633.6060
   -1132915.1065    6092529.7407    1504633.6006
   -1132914.9092    6092529.3436    1504633.3264
   -1132914.9153    6092529.3564    1504633.3246
   -1132914.9502    6092529.4407    1504633.3753
   -1132914.8942    6092529.3537    1504633.3001
   -1132914.8960    6092529.3525    1504633.3019
   -1132914.9396    6092529.4365    1504633.3471
   -1132914.9823    6092529.5215    1504633.3928
   -1132915.0238    6092529.6089    1504633.4487
   -1132915.0169    6092529.6126    1504633.4375
   -1132915.0372    6092529.6686    1504633.4660
   -1132915.0656    6092529.7332    1504633.4931
   -1132915.0834    6092529.7664    1504633.5160
   -1132915.0650    6092529.7448    1504633.4852
   -1132915.0854    6092529.7824    1504633.5123
   -1132915.0723    6092529.7671    1504633.4966
   -1132915.0737    6092529.7749    1504633.5079
   -1132915.0740    6092529.7912    1504633.5010
   -1132915.0628    6092529.7626    1504633.4701
   -1132915.1743    6092529.9566    1504633.5485
   -1132915.1488    6092529.8999    1504633.5335
   -1132915.1313    6092529.8769    1504633.5154
   -1132915.1473    6092529.8959    1504633.5272
   -1132915.1796    6092529.9559    1504633.5419
   -1132915.1633    6092529.9421    1504633.5318
   -1132915.1562    6092529.9439    1504633.5136
   -1132915.1656    6092529.9625    1504633.5256
   -1132915.1555    6092529.9432    1504633.5169
   -1132915.1478    6092529.9411    1504633.5108
   -1132915.1752    6092529.9937    1504633.5337
   -1132915.1798    6092530.0153    1504633.5268
   -1132915.1794    6092530.0196    1504633.5361
   -1132915.1856    6092530.0376    1504633.5332
   -1132915.2142    6092530.0748    1504633.5529
   -1132915.2149    6092530.0778    1504633.5505
   -1132915.2077    6092530.0904    1504633.5496
   -1132915.2242    6092530.1314    1504633.5610
   -1132915.2573    6092530.1867    1504633.5940
   -1132915.2757    6092530.2265    1504633.6036
   -1132915.2846    6092530.2501    1504633.6146
   -1132915.3019    6092530.2935    1504633.6177
   -1132915.3005    6092530.3036    1504633.6195
   -1132915.3139    6092530.3329    1504633.6247
   -1132915.3328    6092530.3869    1504633.6474
   -1132915.3406    6092530.4224    1504633.6587
   -1132915.3573    6092530.4494    1504633.6587
   -1132915.3636    6092530.4645    1504633.6605
   -1132915.3787    6092530.4945    1504633.6678
   -1132915.3850    6092530.5205    1504633.6674
   -1132915.3942    6092530.5476    1504633.6730
   -1132915.3986    6092530.5694    1504633.6808
   -1132915.3950    6092530.5673    1504633.6739
   -1132915.3950    6092530.5936    1504633.6741
   -1132915.4095    6092530.6215    1504633.6825
   -1132915.4138    6092530.6341    1504633.6762
   -1132915.4170    6092530.6565    1504633.6740
   -1132915.4273    6092530.6807    1504633.6883
   -1132915.4296    6092530.6955    1504633.6936
   -1132915.4376    6092530.7274    1504633.6988
   -1132915.4498    6092530.7398    1504633.7093
   -1132915.4546    6092530.7586    1504633.6997
   -1132915.4453    6092530.7528    1504633.6926
   -1132915.4499    6092530.7689    1504633.6853
   -1132915.4385    6092530.7644    1504633.6941
   -1132915.4394    6092530.7659    1504633.6906
   -1132915.4403    6092530.7884    1504633.6869
   -1132915.4339    6092530.7860    1504633.6868
   -1132915.4345    6092530.7926    1504633.6771
   -1132915.4278    6092530.8013    1504633.6730
   -1132915.4264    6092530.8168    1504633.6647
   -1132915.4175    6092530.8236    1504633.6635
   -1132915.4368    6092530.8527    1504633.6701
   -1132915.4329    6092530.8391    1504633.6632
   -1132915.4417    6092530.8632    1504633.6674
   -1132915.4390    6092530.8677    1504633.6674
   -1132915.4398    6092530.8882    1504633.6648
   -1132915.4369    6092530.9005    1504633.6652
   -1132915.4458    6092530.9761    1504633.5841
   -1132915.1579    6092530.5270    1504633.6615
   -1132914.9983    6092530.2685    1504633.7194
   -1132914.9508    6092530.1995    1504633.7400
   -1132915.0139    6092530.3081    1504633.7083
   -1132915.0433    6092530.3661    1504633.7002
   -1132914.9668    6092530.2545    1504633.7275
   -1132914.9266    6092530.1903    1504633.7322
   -1132914.9508    6092530.2256    1504633.5874
   -1132914.9547    6092530.2454    1504633.5866
   -1132914.9256    6092530.2042    1504633.5995
   -1132914.8798    6092530.1479    1504633.6136
   -1132914.6672    6092529.8601    1504633.2096
   -1132914.6437    6092529.8389    1504633.2133
   -1132914.6675    6092529.8754    1504633.2196
   -1132914.6855    6092529.9040    1504633.2113
   -1132914.7380    6092529.9890    1504633.1964
   -1132914.7164    6092529.9592    1504633.2060
   -1132914.7225    6092529.9614    1504633.1968
   -1132914.7184    6092529.9753    1504633.1954
   -1132914.7275    6092530.0008    1504633.1913
   -1132914.7551    6092530.0381    1504633.1780
   -1132914.7781    6092530.0824    1504633.1663
   -1132914.7871    6092530.1015    1504633.1536
   -1132914.7945    6092530.1192    1504633.1516
   -1132914.7715    6092530.0738    1504633.1464
   -1132914.7743    6092530.0928    1504633.1392
   -1132914.7677    6092530.0865    1504633.1275
   -1132914.7555    6092530.0613    1504633.1203
   -1132914.7309    6092530.0314    1504633.1169
   -1132914.7214    6092530.0115    1504633.1177
   -1132914.6910    6092529.9618    1504633.1058
   -1132914.6910    6092529.9556    1504633.0872
   -1132914.6939    6092529.9609    1504633.0746
   -1132914.6890    6092529.9355    1504633.0651
   -1132914.6774    6092529.9084    1504633.0482
   -1132914.6815    6092529.9044    1504633.0257
   -1132914.6736    6092529.8818    1504633.0077
   -1132914.6689    6092529.8625    1504632.9807
   -1132914.6695    6092529.8299    1504632.9494
   -1132914.6507    6092529.7819    1504632.9171
   -1132914.6626    6092529.8376    1504632.9669
   -1132914.6669    6092529.8501    1504632.9672
   -1132914.9037    6092529.7810    1504632.9673
   -1132914.9051    6092529.7696    1504632.9577
   -1132914.9087    6092529.7864    1504632.9539
   -1132914.9081    6092529.7725    1504632.9550
   -1132914.9002    6092529.7646    1504632.9475
   -1132914.8924    6092529.7708    1504632.9493
   -1132914.8861    6092529.7541    1504632.9473
   -1132915.0036    6092529.9071    1504633.1315
   -1132915.0783    6092529.9916    1504633.2259
   -1132915.1364    6092530.0764    1504633.3144
   -1132915.0722    6092529.9987    1504633.2168
   -1132915.1646    6092530.1670    1504633.4100
   -1132915.1777    6092530.1857    1504633.4345
   -1132915.1896    6092530.2068    1504633.4610
   -1132915.1726    6092530.1936    1504633.4354
   -1132915.1878    6092530.2121    1504633.4649
   -1132915.1828    6092530.1887    1504633.4231
   -1132915.2563    6092530.3193    1504633.5499
   -1132915.4380    6092530.7669    1504634.0951
   -1132915.4408    6092530.7459    1504634.0495
   -1132915.2204    6092530.1909    1504633.5161
   -1132915.1116    6092529.8900    1504633.2509
   -1132915.1742    6092530.0453    1504633.3959
   -1132915.2651    6092530.2773    1504633.5755
   -1132915.2243    6092530.1990    1504633.4959
   -1132915.2055    6092530.1552    1504633.4591
   -1132915.2335    6092530.2364    1504633.5220
   -1132915.2050    6092530.1628    1504633.4826
   -1132915.1980    6092530.1400    1504633.4664
   -1132915.2074    6092530.1459    1504633.4994
   -1132915.2463    6092530.2375    1504633.5948
   -1132915.2602    6092530.2546    1504633.6108
   -1132915.2611    6092530.2617    1504633.6266
   -1132915.2941    6092530.3345    1504633.6752
   -1132915.2956    6092530.3345    1504633.6650
   -1132915.2938    6092530.2967    1504633.6352
   -1132915.0942    6092530.0468    1504633.3860
   -1132915.1025    6092530.0533    1504633.3896
   -1132915.1323    6092530.1080    1504633.4478
   -1132915.1477    6092530.1379    1504633.4702
   -1132915.1533    6092530.1565    1504633.4860
   -1132915.1487    6092530.1221    1504633.4776
   -1132915.1451    6092530.0705    1504633.4546
   -1132915.1318    6092530.0373    1504633.4446
   -1132915.1327    6092530.0311    1504633.4562
   -1132915.1332    6092530.0335    1504633.4770
   -1132915.1137    6092529.9709    1504633.4557
   -1132915.1198    6092529.9637    1504633.4824
   -1132915.1210    6092529.9466    1504633.4852
   -1132915.1261    6092529.9227    1504633.5051
   -1132915.1224    6092529.8893    1504633.4983
   -1132915.1315    6092529.8895    1504633.5229
   -1132915.1315    6092529.8611    1504633.5367
   -1132914.6700    6092529.8800    1504633.3037
   -1132914.6351    6092529.8177    1504633.2696
   -1132915.1077    6092531.0170    1504634.0168
   -1132914.9828    6092530.2193    1504633.2478
   -1132915.1110    6092530.3897    1504633.2401
