       X(m)            Y(m)              Y(m)         
   -1132914.4555    6092528.6948    1504632.8855
   -1132914.6942    6092528.0638    1504632.6884
   -1132914.9962    6092527.9420    1504632.4417
   -1132915.2191    6092528.1624    1504632.5075
   -1132915.2337    6092528.1791    1504632.6183
   -1132915.2122    6092528.0649    1504632.6924
   -1132915.2143    6092528.1298    1504632.6830
   -1132915.2355    6092527.9557    1504632.6629
   -1132915.2746    6092528.1154    1504632.6117
   -1132915.3669    6092528.4045    1504632.6220
   -1132915.3506    6092528.4425    1504632.6409
   -1132915.3534    6092528.4791    1504632.6458
   -1132915.4027    6092528.4524    1504632.6866
   -1132915.3697    6092528.5146    1504632.7081
   -1132915.4450    6092528.6326    1504632.6963
   -1132915.3957    6092528.6005    1504632.6865
   -1132915.3510    6092528.6830    1504632.7015
   -1132915.2947    6092528.6717    1504632.6747
   -1132915.3210    6092528.6666    1504632.6949
   -1132915.3047    6092528.6462    1504632.6731
   -1132915.2627    6092528.6191    1504632.6911
   -1132915.2074    6092528.5817    1504632.7225
   -1132915.1896    6092528.4820    1504632.7862
   -1132915.1573    6092528.5049    1504632.7605
   -1132915.1541    6092528.5714    1504632.7758
   -1132915.1716    6092528.6123    1504632.7900
   -1132915.1266    6092528.7030    1504632.7789
   -1132915.1651    6092528.6776    1504632.8080
   -1132915.1180    6092528.7002    1504632.8231
   -1132915.1499    6092528.9788    1504632.7134
   -1132915.1700    6092528.9189    1504632.7246
   -1132915.1447    6092528.8914    1504632.7297
   -1132915.1279    6092528.8909    1504632.6964
   -1132915.1502    6092528.8862    1504632.7228
   -1132915.1448    6092528.8452    1504632.7093
   -1132915.1598    6092528.9680    1504632.6633
   -1132915.1372    6092528.7041    1504632.7905
   -1132915.1316    6092528.6716    1504632.8042
   -1132915.1417    6092528.5954    1504632.8265
   -1132915.1513    6092528.6079    1504632.8502
   -1132915.1401    6092528.5744    1504632.8898
   -1132915.1443    6092528.5908    1504632.8801
   -1132915.1563    6092528.6103    1504632.8985
   -1132915.1350    6092528.5994    1504632.9124
   -1132915.1368    6092528.5825    1504632.9120
   -1132915.1148    6092528.5372    1504632.9279
   -1132915.1239    6092528.4996    1504632.9281
   -1132915.0887    6092528.4611    1504632.9184
   -1132915.0933    6092528.4327    1504632.9179
   -1132915.1102    6092528.4444    1504632.9271
   -1132915.1142    6092528.4712    1504632.9137
   -1132915.1208    6092528.4826    1504632.9075
   -1132915.1670    6092528.6231    1504632.8018
   -1132915.1824    6092528.5846    1504632.8086
   -1132915.1878    6092528.5983    1504632.7995
   -1132915.1792    6092528.6358    1504632.8063
   -1132915.1772    6092528.6445    1504632.8122
   -1132915.1783    6092528.6660    1504632.8101
   -1132915.1854    6092528.6967    1504632.8159
   -1132915.1877    6092528.7230    1504632.8174
   -1132915.2048    6092528.7848    1504632.8170
   -1132915.0010    6092528.5730    1504632.7566
   -1132914.9995    6092528.5777    1504632.7455
   -1132914.9752    6092528.5890    1504632.7415
   -1132914.9640    6092528.6032    1504632.7330
   -1132914.8842    6092528.3857    1504632.8941
   -1132914.8793    6092528.4034    1504632.8886
   -1132914.8778    6092528.4534    1504632.8767
   -1132914.8980    6092528.4778    1504632.8535
   -1132914.9104    6092528.4940    1504632.8433
   -1132914.9274    6092528.4987    1504632.8295
   -1132914.9363    6092528.5473    1504632.8292
   -1132914.9426    6092528.6104    1504632.8271
   -1132914.9381    6092528.6375    1504632.8190
   -1132914.9434    6092528.6802    1504632.8240
   -1132914.9288    6092528.7176    1504632.8117
   -1132914.9317    6092528.7306    1504632.8128
   -1132914.9219    6092528.7265    1504632.8203
   -1132914.9430    6092528.8604    1504632.7439
   -1132914.9580    6092528.8839    1504632.7293
   -1132914.9637    6092528.9241    1504632.7307
   -1132914.9277    6092528.7209    1504632.8427
   -1132914.9577    6092528.8830    1504632.7723
   -1132914.9500    6092528.9072    1504632.8071
   -1132914.9502    6092528.8416    1504632.8553
   -1132914.9535    6092528.9087    1504632.8403
   -1132914.9464    6092528.9069    1504632.8578
   -1132914.9532    6092528.9012    1504632.8671
   -1132914.9634    6092528.9569    1504632.8618
   -1132914.9588    6092528.9691    1504632.8680
   -1132914.9587    6092528.9649    1504632.8732
   -1132914.9693    6092528.9967    1504632.8547
   -1132914.9670    6092528.9826    1504632.8511
   -1132914.9660    6092528.9705    1504632.8749
   -1132914.9515    6092528.9815    1504632.8509
   -1132914.9589    6092528.9980    1504632.8601
   -1132914.9673    6092528.9971    1504632.8779
   -1132914.9657    6092529.0405    1504632.8645
   -1132914.9780    6092529.0343    1504632.8700
   -1132914.9704    6092529.2221    1504632.7851
   -1132914.9645    6092529.2305    1504632.7756
   -1132914.9802    6092529.2297    1504632.7792
   -1132914.9855    6092529.2227    1504632.7906
   -1132914.9761    6092529.2021    1504632.8007
   -1132914.9774    6092528.9990    1504632.9081
   -1132914.9739    6092529.0426    1504632.8806
   -1132914.9592    6092529.1350    1504632.8296
   -1132914.9638    6092529.0629    1504632.8652
   -1132914.9574    6092529.0436    1504632.8743
   -1132914.9376    6092529.0437    1504632.8644
   -1132914.9335    6092529.0768    1504632.8598
   -1132914.9250    6092529.0818    1504632.8653
   -1132914.9019    6092529.1065    1504632.8509
   -1132914.9049    6092529.1181    1504632.8532
   -1132914.8951    6092529.0908    1504632.8551
   -1132914.8890    6092529.0972    1504632.8425
   -1132914.8863    6092529.0873    1504632.8405
   -1132914.8870    6092529.1128    1504632.8400
   -1132914.8723    6092529.1414    1504632.8241
   -1132914.8759    6092529.1314    1504632.8318
   -1132914.8714    6092529.1329    1504632.8304
   -1132914.8706    6092529.1155    1504632.8440
   -1132914.9017    6092529.2358    1504632.7811
   -1132914.8870    6092529.2352    1504632.7818
   -1132914.9047    6092529.3138    1504632.7312
   -1132914.8673    6092529.1838    1504632.8111
   -1132914.8611    6092529.1729    1504632.7922
   -1132914.8151    6092529.0550    1504632.8802
   -1132914.8013    6092529.0451    1504632.8969
   -1132914.8132    6092529.0865    1504632.8691
   -1132914.8389    6092529.1844    1504632.8146
   -1132914.8385    6092529.1827    1504632.8317
   -1132914.8047    6092529.0585    1504632.9156
   -1132914.8016    6092529.0300    1504632.9309
   -1132914.7993    6092528.9756    1504632.9555
   -1132914.8328    6092529.1138    1504632.8515
   -1132914.8169    6092529.0377    1504632.9171
   -1132914.8220    6092529.0276    1504632.9335
   -1132914.8341    6092529.0703    1504632.9143
   -1132914.8399    6092529.0777    1504632.9077
   -1132914.8388    6092529.0749    1504632.9270
   -1132914.8446    6092529.0939    1504632.9210
   -1132914.8448    6092529.1115    1504632.9115
   -1132914.8469    6092529.0699    1504632.9203
   -1132914.8442    6092529.0965    1504632.9191
   -1132914.8534    6092529.0936    1504632.9309
   -1132914.8453    6092529.0964    1504632.9359
   -1132914.8443    6092529.0956    1504632.9394
   -1132914.8395    6092529.1072    1504632.9367
   -1132914.8476    6092529.1156    1504632.9454
   -1132914.8520    6092529.1145    1504632.9454
   -1132914.8529    6092529.1147    1504632.9532
   -1132914.8578    6092529.1140    1504632.9537
   -1132914.8600    6092529.1240    1504632.9535
   -1132914.8692    6092529.1268    1504632.9471
   -1132914.8768    6092529.1101    1504632.9489
   -1132914.8837    6092529.1091    1504632.9643
   -1132914.8845    6092529.0948    1504632.9715
   -1132914.8890    6092529.0942    1504632.9702
   -1132914.8888    6092529.0861    1504632.9713
   -1132914.8885    6092529.1110    1504632.9668
   -1132914.8829    6092529.0818    1504632.9718
   -1132914.8859    6092529.0909    1504632.9831
   -1132914.8758    6092529.0833    1504632.9875
   -1132914.8840    6092529.0870    1504632.9988
   -1132914.8839    6092529.1054    1504632.9993
   -1132914.8797    6092529.1053    1504633.0003
   -1132914.8865    6092529.0990    1504633.0109
   -1132914.8871    6092529.1038    1504633.0127
   -1132914.8921    6092529.1067    1504633.0185
   -1132914.8929    6092529.1033    1504633.0217
   -1132914.8822    6092529.0928    1504633.0186
   -1132914.8805    6092529.0933    1504633.0293
   -1132914.8734    6092529.0776    1504633.0199
   -1132914.8773    6092529.0735    1504633.0225
   -1132914.8796    6092529.0746    1504633.0257
   -1132914.4227    6092528.4216    1504633.0572
   -1132914.4445    6092528.4378    1504633.0597
   -1132914.4714    6092528.4848    1504633.0479
   -1132914.5164    6092528.5156    1504633.0350
   -1132914.5929    6092528.6093    1504633.0231
   -1132914.6980    6092528.7113    1504633.0246
   -1132914.7109    6092528.7070    1504633.0259
   -1132914.7393    6092528.7254    1504633.0120
   -1132914.7722    6092528.7594    1504633.0016
   -1132914.7874    6092528.7679    1504632.9846
   -1132914.7905    6092528.7666    1504632.9791
   -1132914.8130    6092528.7727    1504632.9677
   -1132914.8268    6092528.7712    1504632.9476
   -1132914.8306    6092528.7485    1504632.9340
   -1132914.8410    6092528.7433    1504632.9198
   -1132914.8554    6092528.7383    1504632.8920
   -1132914.8509    6092528.6999    1504632.8708
   -1132914.8594    6092528.6746    1504632.8512
   -1132914.8645    6092528.6515    1504632.8304
   -1132914.8650    6092528.5874    1504632.8124
   -1132914.8596    6092528.5435    1504632.7844
   -1132914.8376    6092528.4716    1504632.7522
   -1132914.8422    6092528.4047    1504632.7165
   -1132914.8362    6092528.3324    1504632.6806
   -1132914.8201    6092528.2429    1504632.6440
   -1132914.8420    6092528.1783    1504632.5865
   -1132914.9219    6092528.6421    1504632.9435
   -1132914.9363    6092528.6231    1504632.9439
   -1132914.9426    6092528.6030    1504632.9404
   -1132914.9531    6092528.5723    1504632.9453
   -1132914.9671    6092528.5486    1504632.9486
   -1132914.9856    6092528.5352    1504632.9515
   -1132915.0028    6092528.5299    1504632.9540
   -1132915.0159    6092528.4805    1504632.9614
   -1132915.0349    6092528.4892    1504632.9619
   -1132915.0536    6092528.4497    1504632.9645
   -1132915.0851    6092528.4253    1504632.9123
   -1132914.8604    6092529.5763    1504632.8971
   -1132914.8672    6092529.5899    1504632.8973
   -1132914.8728    6092529.5916    1504632.9008
   -1132914.8746    6092529.5840    1504632.8980
   -1132914.8863    6092529.5909    1504632.9034
   -1132914.8952    6092529.5976    1504632.8215
   -1132914.8797    6092529.5561    1504633.0972
   -1132914.8738    6092529.5646    1504633.0532
   -1132914.8569    6092529.5442    1504633.0631
   -1132914.8580    6092529.5643    1504633.0440
   -1132914.5539    6092528.7126    1504632.5194
   -1132914.5994    6092528.8472    1504632.5537
   -1132914.6179    6092528.8991    1504632.5594
   -1132914.6334    6092528.9257    1504632.5785
   -1132914.6840    6092529.0730    1504632.6283
   -1132914.7295    6092529.2049    1504632.6965
   -1132914.7322    6092529.2353    1504632.7123
   -1132914.7543    6092529.2610    1504632.7245
   -1132914.7914    6092529.3750    1504632.7934
   -1132914.7900    6092529.3687    1504632.7985
   -1132914.7685    6092529.3022    1504632.7655
   -1132914.7772    6092529.3390    1504632.7758
   -1132914.7907    6092529.3378    1504632.7757
   -1132914.7886    6092529.3614    1504632.7881
   -1132914.7905    6092529.3871    1504632.8043
   -1132914.7862    6092529.4003    1504632.8123
   -1132914.7807    6092529.4023    1504632.8239
   -1132914.7972    6092529.4239    1504632.8411
   -1132914.8034    6092529.4454    1504632.8680
   -1132914.8069    6092529.4697    1504632.8824
   -1132914.8121    6092529.5022    1504632.8976
   -1132914.8314    6092529.5621    1504632.9308
   -1132914.8608    6092529.6261    1504632.9630
   -1132914.8765    6092529.6450    1504632.9718
   -1132914.8738    6092529.6641    1504632.9826
   -1132914.8844    6092529.6707    1504632.9889
   -1132914.8868    6092529.7034    1504632.9970
   -1132914.8857    6092529.7121    1504632.9895
   -1132914.8739    6092529.6870    1504632.9814
   -1132914.8721    6092529.6864    1504632.9796
   -1132914.8760    6092529.7145    1504632.9862
   -1132914.8753    6092529.6956    1504633.0017
   -1132914.8859    6092529.7035    1504633.0189
   -1132914.8925    6092529.7156    1504633.0324
   -1132914.8978    6092529.7534    1504633.0483
   -1132914.8915    6092529.7509    1504633.0373
   -1132914.8935    6092529.7440    1504633.0351
   -1132914.8906    6092529.7234    1504633.0352
   -1132914.9004    6092529.7397    1504633.0514
   -1132914.9002    6092529.7688    1504633.0599
   -1132914.9028    6092529.7746    1504633.0701
   -1132914.8943    6092529.7297    1504633.0567
   -1132914.8951    6092529.7342    1504633.0588
   -1132914.9050    6092529.7583    1504633.0654
   -1132914.8968    6092529.7601    1504633.0810
   -1132914.8978    6092529.7658    1504633.0912
   -1132914.9027    6092529.7667    1504633.1052
   -1132914.8985    6092529.7749    1504633.1148
   -1132914.9050    6092529.7914    1504633.1180
   -1132914.9092    6092529.7924    1504633.1154
   -1132914.9111    6092529.7955    1504633.1090
   -1132914.9235    6092529.7972    1504633.1141
   -1132914.9135    6092529.7859    1504633.1019
   -1132914.9075    6092529.7623    1504633.0863
   -1132914.9016    6092529.7565    1504633.0948
   -1132914.9092    6092529.7739    1504633.1129
   -1132914.9033    6092529.7836    1504633.1185
   -1132914.9080    6092529.7811    1504633.1172
   -1132914.9168    6092529.7991    1504633.1127
   -1132914.9160    6092529.8168    1504633.1258
   -1132914.9130    6092529.8038    1504633.1228
   -1132914.9113    6092529.8287    1504633.1341
   -1132914.9175    6092529.8090    1504633.1369
   -1132914.9114    6092529.8081    1504633.1344
   -1132914.9105    6092529.8026    1504633.1218
   -1132914.9020    6092529.7840    1504633.1232
   -1132914.8950    6092529.7842    1504633.1254
   -1132914.9036    6092529.7892    1504633.1299
   -1132914.8992    6092529.8162    1504633.1358
   -1132914.8905    6092529.7815    1504633.1273
   -1132914.8950    6092529.7872    1504633.1371
   -1132914.9055    6092529.8178    1504633.1402
   -1132914.9014    6092529.8090    1504633.1343
   -1132914.8872    6092529.8101    1504633.1300
   -1132914.8917    6092529.7986    1504633.1310
   -1132914.8886    6092529.8011    1504633.1354
   -1132914.9068    6092529.8335    1504633.1091
   -1132914.9105    6092529.8369    1504633.1172
   -1132915.1760    6092530.0268    1504633.1884
   -1132915.2142    6092530.0941    1504633.1331
   -1132915.1042    6092529.8642    1504633.2662
   -1132915.1546    6092529.9513    1504633.2035
   -1132915.1448    6092529.9333    1504633.2053
   -1132915.1328    6092529.9052    1504633.2118
   -1132915.1317    6092529.9158    1504633.2097
   -1132915.1423    6092529.9245    1504633.2091
   -1132915.1390    6092529.9229    1504633.2030
   -1132915.1349    6092529.9117    1504633.2118
   -1132915.1459    6092529.9010    1504633.2096
   -1132915.1416    6092529.8965    1504633.2097
   -1132915.1453    6092529.8793    1504633.2186
   -1132915.1339    6092529.8625    1504633.2211
   -1132915.1332    6092529.8703    1504633.2255
   -1132915.1458    6092529.8926    1504633.2347
   -1132915.1477    6092529.8845    1504633.2297
   -1132915.1496    6092529.9037    1504633.2333
   -1132915.1402    6092529.8791    1504633.2331
   -1132915.1459    6092529.8955    1504633.2389
   -1132915.1488    6092529.9015    1504633.2346
   -1132915.1544    6092529.9100    1504633.2401
   -1132915.1481    6092529.8779    1504633.2360
   -1132915.1534    6092529.8678    1504633.2359
   -1132915.1536    6092529.8732    1504633.2314
   -1132915.1559    6092529.8769    1504633.2388
   -1132915.1522    6092529.8868    1504633.2454
   -1132915.1541    6092529.8845    1504633.2507
   -1132915.1577    6092529.8896    1504633.2469
   -1132915.1597    6092529.8951    1504633.2558
   -1132915.1691    6092529.8997    1504633.2581
   -1132915.1659    6092529.9102    1504633.2536
   -1132915.1650    6092529.8891    1504633.2481
   -1132915.1645    6092529.9013    1504633.2549
   -1132915.1650    6092529.8842    1504633.2566
   -1132915.1655    6092529.8833    1504633.2668
   -1132915.1568    6092529.8929    1504633.2699
   -1132915.1565    6092529.8838    1504633.2766
   -1132915.1498    6092529.8713    1504633.2749
   -1132915.1451    6092529.8709    1504633.2783
   -1132915.1507    6092529.8748    1504633.2844
   -1132915.1551    6092529.8847    1504633.2930
   -1132915.1501    6092529.8822    1504633.2945
   -1132915.1481    6092529.8736    1504633.3002
   -1132915.1554    6092529.8700    1504633.3032
   -1132915.1490    6092529.8730    1504633.3036
   -1132915.1497    6092529.8754    1504633.3077
   -1132915.1637    6092529.8920    1504633.3160
   -1132915.1562    6092529.8829    1504633.3142
   -1132915.1713    6092529.9423    1504633.2787
   -1132915.1615    6092529.8803    1504633.3124
   -1132915.1789    6092529.9164    1504633.2822
   -1132915.1915    6092529.9716    1504633.2437
   -1132915.1903    6092529.9684    1504633.2731
   -1132915.1755    6092529.9075    1504633.2921
   -1132915.1789    6092529.9369    1504633.2821
   -1132915.1769    6092529.8544    1504633.3262
   -1132915.1697    6092529.8301    1504633.3511
   -1132915.1740    6092529.8808    1504633.3304
   -1132915.1732    6092529.8505    1504633.3427
   -1132915.1845    6092529.9054    1504633.3269
   -1132915.1847    6092529.9019    1504633.3272
   -1132915.1810    6092529.8960    1504633.3248
   -1132915.1852    6092529.9140    1504633.3163
   -1132915.1807    6092529.8928    1504633.3300
   -1132915.1911    6092529.9021    1504633.3280
   -1132915.1854    6092529.8922    1504633.3364
   -1132915.1876    6092529.8663    1504633.3498
   -1132915.1806    6092529.8763    1504633.3482
   -1132915.1880    6092529.8636    1504633.3461
   -1132915.1933    6092529.8830    1504633.3463
   -1132915.2037    6092529.8748    1504633.3414
   -1132915.2086    6092529.8857    1504633.3422
   -1132915.3410    6092529.0956    1504633.2408
   -1132915.3447    6092529.1152    1504633.2362
   -1132915.3430    6092529.1076    1504633.2355
   -1132915.3368    6092529.1345    1504633.2454
   -1132915.1055    6092530.5948    1504633.4439
   -1132915.0472    6092530.9948    1504633.5006
   -1132915.0918    6092530.7136    1504633.4629
   -1132915.1039    6092530.6238    1504633.4473
   -1132915.2009    6092530.0150    1504633.3577
   -1132915.2275    6092529.8555    1504633.3405
   -1132915.2799    6092529.5768    1504633.3058
   -1132915.2897    6092529.5400    1504633.2942
   -1132915.2723    6092529.6977    1504633.3145
   -1132915.2743    6092529.6749    1504633.3193
   -1132915.2680    6092529.7820    1504633.3300
   -1132915.2883    6092529.7214    1504633.3219
   -1132915.2856    6092529.7470    1504633.3350
   -1132915.2950    6092529.7557    1504633.3384
   -1132915.2931    6092529.7506    1504633.3413
   -1132915.2909    6092529.7261    1504633.3339
   -1132915.2974    6092529.7214    1504633.3345
   -1132915.2946    6092529.7334    1504633.3444
   -1132915.2873    6092529.7457    1504633.3448
   -1132915.2979    6092529.7320    1504633.3448
   -1132915.2952    6092529.7275    1504633.3439
   -1132915.3134    6092529.7411    1504633.3477
   -1132915.3216    6092529.7417    1504633.3437
   -1132915.3297    6092529.7652    1504633.3477
   -1132915.3422    6092529.7634    1504633.3454
   -1132915.3431    6092529.8059    1504633.3467
   -1132915.3484    6092529.8081    1504633.3471
   -1132915.3613    6092529.8339    1504633.3534
   -1132915.3569    6092529.7778    1504633.3455
   -1132915.3559    6092529.7679    1504633.3424
   -1132915.3476    6092529.7806    1504633.3465
   -1132915.3538    6092529.7764    1504633.3441
   -1132915.3753    6092529.7391    1504633.3350
   -1132915.3791    6092529.7101    1504633.3255
   -1132915.4020    6092529.6455    1504633.3047
   -1132915.4060    6092529.5853    1504633.2955
   -1132915.4136    6092529.5822    1504633.2973
   -1132915.4254    6092529.5786    1504633.3011
   -1132915.4309    6092529.5684    1504633.3029
   -1132915.4495    6092529.5516    1504633.2981
   -1132915.4489    6092529.5132    1504633.2934
   -1132915.4489    6092529.5239    1504633.2936
   -1132915.4364    6092529.5515    1504633.2983
   -1132915.0385    6092529.0679    1504633.4556
   -1132915.0483    6092529.1005    1504633.4364
   -1132915.0169    6092529.0378    1504633.4910
   -1132915.0291    6092529.0801    1504633.4653
   -1132915.0279    6092529.1071    1504633.4738
   -1132915.0367    6092529.1672    1504633.4338
   -1132915.0265    6092529.1398    1504633.4291
   -1132915.0314    6092529.1175    1504633.4285
   -1132915.0357    6092529.1683    1504633.4099
   -1132915.0373    6092529.1810    1504633.4130
   -1132915.0403    6092529.2054    1504633.4081
   -1132915.0279    6092529.1831    1504633.4105
   -1132915.0245    6092529.1833    1504633.4040
   -1132915.0194    6092529.1478    1504633.4095
   -1132915.0230    6092529.1476    1504633.3994
   -1132915.0124    6092529.1141    1504633.3923
   -1132915.0127    6092529.1257    1504633.3858
   -1132915.0119    6092529.0867    1504633.3671
   -1132915.0041    6092529.0903    1504633.3727
   -1132914.9965    6092529.0671    1504633.3748
   -1132914.9954    6092529.0603    1504633.3697
   -1132914.9959    6092529.0240    1504633.3573
   -1132914.9939    6092529.0429    1504633.3520
   -1132914.9959    6092529.0247    1504633.3408
   -1132914.9942    6092529.0020    1504633.3329
   -1132914.9944    6092528.9791    1504633.3208
   -1132914.9969    6092528.9983    1504633.3125
   -1132915.0332    6092529.0694    1504633.2511
   -1132915.0224    6092529.0368    1504633.2344
   -1132914.3700    6092528.1736    1504633.3685
   -1132914.3924    6092528.1783    1504633.3486
   -1132914.4343    6092528.1978    1504633.3252
   -1132914.4532    6092528.1769    1504633.3071
   -1132914.4734    6092528.1896    1504633.2893
   -1132914.5024    6092528.2068    1504633.2718
   -1132914.5182    6092528.1813    1504633.2435
   -1132914.5416    6092528.1791    1504633.2170
   -1132914.5677    6092528.1930    1504633.1968
   -1132914.5979    6092528.2016    1504633.1779
   -1132914.6207    6092528.1888    1504633.1500
   -1132914.6588    6092528.1475    1504633.1021
   -1132914.6915    6092528.1570    1504633.0810
   -1132914.7156    6092528.1410    1504633.0339
   -1132914.7450    6092528.1080    1504633.0013
   -1132914.7620    6092528.0933    1504632.9646
   -1132914.7201    6092528.8121    1504633.3812
   -1132914.7373    6092528.8446    1504633.3771
   -1132914.7477    6092528.8545    1504633.3850
   -1132914.7647    6092528.8862    1504633.3876
   -1132914.7717    6092528.8792    1504633.3880
   -1132914.7700    6092528.8637    1504633.3838
   -1132914.7964    6092528.8962    1504633.3878
   -1132914.8085    6092528.9157    1504633.3970
   -1132914.7971    6092528.9319    1504633.3961
   -1132914.8012    6092528.9436    1504633.3921
   -1132914.7956    6092528.9586    1504633.4050
   -1132914.7893    6092528.9631    1504633.4000
   -1132914.7877    6092528.9799    1504633.4158
   -1132914.7815    6092528.9999    1504633.4250
   -1132914.7755    6092529.0125    1504633.4264
   -1132914.7696    6092529.0112    1504633.4344
   -1132914.7697    6092529.0134    1504633.4317
   -1132914.7648    6092528.9986    1504633.4418
   -1132914.7645    6092529.0156    1504633.4472
   -1132914.7575    6092529.0249    1504633.4446
   -1132914.7706    6092529.0613    1504633.4540
   -1132914.7787    6092529.0701    1504633.4554
   -1132914.7792    6092529.0869    1504633.4584
   -1132914.7740    6092529.0662    1504633.4572
   -1132914.7895    6092529.0797    1504633.4490
   -1132914.7991    6092529.1077    1504633.4589
   -1132914.8031    6092529.1002    1504633.4541
   -1132914.7996    6092529.1091    1504633.4534
   -1132914.7944    6092529.1137    1504633.4596
   -1132914.8149    6092529.0848    1504633.4479
   -1132914.8231    6092529.1033    1504633.4543
   -1132914.8205    6092529.0922    1504633.4627
   -1132914.8159    6092529.1042    1504633.4622
   -1132914.8174    6092529.1010    1504633.4638
   -1132914.8271    6092529.0846    1504633.4583
   -1132914.8287    6092529.0797    1504633.4618
   -1132914.8319    6092529.0728    1504633.4693
   -1132914.8211    6092529.0503    1504633.4792
   -1132914.8245    6092529.0578    1504633.4898
   -1132914.8230    6092529.0528    1504633.4851
   -1132914.8146    6092529.0145    1504633.4881
   -1132914.7451    6092528.6251    1504633.2265
   -1132914.9339    6092529.4966    1504633.8459
   -1132914.8999    6092529.3430    1504633.8509
   -1132914.7560    6092528.7876    1504633.5344
   -1132914.6646    6092528.4026    1504633.3059
   -1132914.6726    6092528.4660    1504633.3949
   -1132914.6862    6092528.5304    1504633.4763
   -1132914.7274    6092528.6211    1504633.5421
   -1132914.7329    6092528.6043    1504633.5501
   -1132914.7262    6092528.4701    1504633.4829
   -1132914.7171    6092528.3542    1504633.4132
   -1132914.7265    6092528.2967    1504633.3945
   -1132914.7343    6092528.2582    1504633.3736
   -1132914.7597    6092528.2792    1504633.4144
   -1132914.7829    6092528.2452    1504633.4387
   -1132914.8047    6092528.2221    1504633.4611
   -1132914.7964    6092528.0626    1504633.3951
   -1132914.8014    6092527.9381    1504633.3820
   -1132914.8182    6092527.8566    1504633.3785
   -1132914.8452    6092527.7385    1504633.3688
   -1132914.8692    6092527.6049    1504633.3886
   -1132914.6961    6092528.6728    1504633.4447
   -1132914.7028    6092528.6851    1504633.4453
   -1132914.6910    6092528.6725    1504633.4500
   -1132914.6858    6092528.6797    1504633.4612
   -1132914.6953    6092528.7197    1504633.4822
   -1132914.6815    6092528.7351    1504633.4989
   -1132914.6871    6092528.7618    1504633.5110
   -1132914.6742    6092528.6943    1504633.4782
   -1132914.6704    6092528.6808    1504633.4790
   -1132914.6700    6092528.7066    1504633.4964
   -1132914.6842    6092528.7660    1504633.5280
   -1132914.6813    6092528.7736    1504633.5329
   -1132914.6797    6092528.7849    1504633.5512
   -1132914.7346    6092528.4573    1504633.4801
   -1132914.7237    6092528.4224    1504633.4764
   -1132914.7165    6092528.3700    1504633.4482
   -1132914.7031    6092528.3560    1504633.4487
   -1132914.7006    6092528.3434    1504633.4531
   -1132914.6944    6092528.3371    1504633.4419
   -1132914.6921    6092528.3151    1504633.4450
   -1132914.6820    6092528.2691    1504633.4381
   -1132914.6780    6092528.2714    1504633.4301
   -1132914.6713    6092528.2339    1504633.4256
   -1132914.6724    6092528.2397    1504633.4354
   -1132914.6710    6092528.2435    1504633.4467
   -1132914.6727    6092528.2567    1504633.4403
   -1132914.6781    6092528.2603    1504633.4423
   -1132914.6847    6092528.2711    1504633.4402
   -1132914.6882    6092528.2629    1504633.4466
   -1132914.6878    6092528.2554    1504633.4457
   -1132914.6829    6092528.2686    1504633.4505
   -1132914.6737    6092528.2591    1504633.4440
   -1132914.6730    6092528.2453    1504633.4342
   -1132914.6734    6092528.2392    1504633.4351
   -1132914.6560    6092528.2219    1504633.4435
   -1132914.6635    6092528.2417    1504633.4539
   -1132914.6577    6092528.2337    1504633.4538
   -1132914.6561    6092528.2402    1504633.4620
   -1132914.6542    6092528.2369    1504633.4680
   -1132914.6417    6092528.2107    1504633.4652
   -1132914.6320    6092528.1910    1504633.4722
   -1132914.6359    6092528.1864    1504633.4753
   -1132914.6311    6092528.2120    1504633.4753
   -1132914.6219    6092528.2008    1504633.4810
   -1132914.6138    6092528.1623    1504633.4746
   -1132914.6179    6092528.1727    1504633.4781
   -1132914.6136    6092528.1467    1504633.4735
   -1132914.6171    6092528.1312    1504633.4586
   -1132914.6215    6092528.1046    1504633.4628
   -1132914.6185    6092528.1185    1504633.4676
   -1132914.6233    6092528.1184    1504633.4724
   -1132914.6077    6092528.1146    1504633.4750
   -1132914.5989    6092528.0895    1504633.4651
   -1132914.6048    6092528.0916    1504633.4757
   -1132914.5980    6092528.1030    1504633.4766
   -1132914.5939    6092528.0863    1504633.4759
   -1132914.5865    6092528.0538    1504633.4800
   -1132914.5744    6092528.0160    1504633.4780
   -1132914.5557    6092527.9928    1504633.4750
   -1132914.5539    6092527.9584    1504633.4734
   -1132914.5552    6092527.9524    1504633.4776
   -1132914.5517    6092527.9477    1504633.4807
   -1132914.5451    6092527.9022    1504633.4779
   -1132914.5401    6092527.9099    1504633.4760
   -1132914.5324    6092527.8912    1504633.4732
   -1132914.5254    6092527.8712    1504633.4732
   -1132914.5174    6092527.8528    1504633.4721
   -1132914.5144    6092527.8692    1504633.4783
   -1132914.5122    6092527.8599    1504633.4808
   -1132914.5121    6092527.8592    1504633.4810
   -1132914.5145    6092527.8622    1504633.4802
   -1132914.5158    6092527.8758    1504633.4872
   -1132914.5246    6092527.8667    1504633.4810
   -1132914.5139    6092527.8502    1504633.4899
   -1132914.5043    6092527.8465    1504633.4889
   -1132914.4982    6092527.8555    1504633.4917
   -1132914.4979    6092527.8440    1504633.5001
   -1132914.4975    6092527.7888    1504633.4902
   -1132914.4915    6092527.7837    1504633.4948
   -1132914.4872    6092527.7806    1504633.4964
   -1132914.4916    6092527.7780    1504633.5049
   -1132914.4918    6092527.7762    1504633.4962
   -1132914.4917    6092527.7540    1504633.4938
   -1132914.4880    6092527.7317    1504633.4987
   -1132914.4889    6092527.7442    1504633.5002
   -1132914.4783    6092527.7265    1504633.5044
   -1132914.4646    6092527.6938    1504633.5051
   -1132914.4568    6092527.6518    1504633.5014
   -1132914.4565    6092527.6417    1504633.5069
   -1132914.4489    6092527.6105    1504633.5048
   -1132914.4439    6092527.5942    1504633.5057
   -1132914.4413    6092527.6251    1504633.5159
   -1132914.4283    6092527.5852    1504633.5083
   -1132914.4311    6092527.5637    1504633.5001
   -1132914.4270    6092527.5717    1504633.5123
   -1132914.4243    6092527.5601    1504633.5141
   -1132914.4157    6092527.5538    1504633.5082
   -1132914.4057    6092527.5427    1504633.5099
   -1132914.4012    6092527.5169    1504633.5101
   -1132914.4021    6092527.5291    1504633.5169
   -1132914.4000    6092527.4918    1504633.5172
   -1132914.3990    6092527.4917    1504633.5262
   -1132914.3890    6092527.4751    1504633.5221
   -1132914.4025    6092527.5184    1504633.5381
   -1132914.3832    6092527.4608    1504633.5241
   -1132914.3720    6092527.4329    1504633.5208
   -1132914.3713    6092527.4264    1504633.5235
   -1132914.3716    6092527.4355    1504633.5315
   -1132914.3604    6092527.4291    1504633.5305
   -1132914.3499    6092527.3809    1504633.5209
   -1132914.3457    6092527.3751    1504633.5183
   -1132914.3390    6092527.3704    1504633.5181
   -1132914.3411    6092527.3658    1504633.5260
   -1132914.3265    6092527.3465    1504633.5248
   -1132914.3190    6092527.3608    1504633.5383
   -1132914.3184    6092527.3487    1504633.5376
   -1132914.2993    6092527.3346    1504633.5371
   -1132914.2946    6092527.3273    1504633.5438
   -1132914.2930    6092527.3178    1504633.5430
   -1132914.2848    6092527.3113    1504633.5402
   -1132914.2770    6092527.2908    1504633.5446
   -1132914.2716    6092527.2778    1504633.5460
   -1132914.2757    6092527.2493    1504633.5406
   -1132914.2583    6092527.2422    1504633.5401
   -1132914.2708    6092527.2769    1504633.5479
   -1132914.2542    6092527.2736    1504633.5496
   -1132914.2501    6092527.2600    1504633.5509
   -1132914.2575    6092527.2659    1504633.5551
   -1132914.2438    6092527.2285    1504633.5494
   -1132914.2274    6092527.2158    1504633.5503
   -1132914.2220    6092527.1924    1504633.5528
   -1132914.2140    6092527.1936    1504633.5562
   -1132914.2066    6092527.1790    1504633.5562
   -1132914.3742    6092527.8884    1504633.6859
   -1132914.3633    6092527.8830    1504633.6817
   -1132914.3590    6092527.8826    1504633.6835
   -1132914.3618    6092527.8833    1504633.6881
   -1132914.3469    6092527.8619    1504633.6886
   -1132914.3450    6092527.8764    1504633.6929
   -1132914.3404    6092527.8496    1504633.6904
   -1132914.3339    6092527.8340    1504633.6892
   -1132914.3377    6092527.8523    1504633.6989
   -1132914.3323    6092527.8620    1504633.7010
   -1132914.3343    6092527.8567    1504633.7106
   -1132914.3238    6092527.8527    1504633.7092
   -1132914.3209    6092527.8339    1504633.7135
   -1132914.3110    6092527.8233    1504633.7073
   -1132914.3031    6092527.7925    1504633.7009
   -1132914.3033    6092527.7875    1504633.7004
   -1132914.2948    6092527.7708    1504633.6977
   -1132914.2891    6092527.7546    1504633.6958
   -1132914.2840    6092527.7459    1504633.6938
   -1132914.2873    6092527.7450    1504633.6940
   -1132914.2690    6092527.7060    1504633.6884
   -1132914.2703    6092527.7217    1504633.6963
   -1132914.2712    6092527.7170    1504633.7011
   -1132914.2562    6092527.6819    1504633.6984
   -1132914.2512    6092527.6809    1504633.6997
   -1132914.2420    6092527.6684    1504633.6951
   -1132914.2444    6092527.6743    1504633.7002
   -1132914.2442    6092527.6732    1504633.7018
   -1132914.2308    6092527.6860    1504633.7036
   -1132914.2146    6092527.6675    1504633.6975
   -1132914.2058    6092527.6592    1504633.6997
   -1132914.1962    6092527.6398    1504633.6967
   -1132914.0341    6092527.4243    1504633.6437
   -1132914.0481    6092527.4175    1504633.6472
   -1132914.6520    6092528.2098    1504633.8806
   -1132914.3546    6092528.5315    1504633.6933
   -1132915.0643    6092528.7425    1504634.0401
   -1132914.1828    6092527.6148    1504633.7105
   -1132913.3120    6092526.5013    1504633.3810
   -1132913.6963    6092527.0166    1504633.5328
   -1132913.6942    6092527.0176    1504633.5288
   -1132913.6998    6092527.0398    1504633.5295
   -1132913.6919    6092527.0398    1504633.5237
   -1132913.6824    6092527.0298    1504633.5196
   -1132913.6857    6092527.0410    1504633.5229
   -1132913.6844    6092527.0476    1504633.5191
   -1132913.6822    6092527.0643    1504633.5266
   -1132913.6775    6092527.0455    1504633.5226
   -1132913.6686    6092527.0229    1504633.5218
   -1132913.6742    6092527.0449    1504633.5333
   -1132913.6630    6092527.0272    1504633.5262
   -1132913.6596    6092527.0232    1504633.5207
   -1132913.6629    6092527.0195    1504633.5181
   -1132913.6646    6092527.0271    1504633.5287
   -1132913.6647    6092527.0270    1504633.5188
   -1132913.6641    6092527.0356    1504633.5251
   -1132913.6611    6092527.0235    1504633.5184
   -1132913.6553    6092527.0238    1504633.5154
   -1132913.6643    6092527.0512    1504633.5276
   -1132913.6559    6092527.0340    1504633.5286
   -1132913.6590    6092527.0453    1504633.5335
   -1132913.6595    6092527.0528    1504633.5454
   -1132913.6568    6092527.0446    1504633.5347
   -1132913.6549    6092527.0432    1504633.5362
   -1132913.6504    6092527.0285    1504633.5332
   -1132913.6391    6092527.0270    1504633.5327
   -1132913.6307    6092527.0125    1504633.5316
   -1132913.6377    6092527.0472    1504633.5403
   -1132913.6208    6092526.9978    1504633.5287
   -1132913.6295    6092526.9984    1504633.5257
   -1132913.6252    6092526.9909    1504633.5308
   -1132913.6339    6092527.0122    1504633.5390
   -1132913.6437    6092527.0411    1504633.5395
   -1132913.6225    6092527.0109    1504633.5358
   -1132913.6464    6092527.0547    1504633.5431
   -1132913.6507    6092527.0750    1504633.5449
   -1132913.6523    6092527.0799    1504633.5466
   -1132913.6560    6092527.0901    1504633.5508
   -1132913.6484    6092527.0945    1504633.5480
   -1132913.6471    6092527.1029    1504633.5544
   -1132913.6449    6092527.1162    1504633.5541
   -1132913.6301    6092527.1048    1504633.5489
   -1132913.6500    6092527.1571    1504633.5637
   -1132913.6698    6092527.1859    1504633.5788
   -1132913.6763    6092527.2085    1504633.5818
   -1132913.6795    6092527.2114    1504633.5872
   -1132913.6746    6092527.2158    1504633.5879
   -1132913.6643    6092527.1802    1504633.5759
   -1132913.6570    6092527.1700    1504633.5838
   -1132913.6635    6092527.1949    1504633.5773
   -1132913.6683    6092527.2050    1504633.5839
   -1132913.6773    6092527.2136    1504633.5869
   -1132913.6800    6092527.2196    1504633.5921
   -1132913.6924    6092527.2356    1504633.6055
   -1132913.6964    6092527.2323    1504633.6113
   -1132913.7224    6092527.2835    1504633.6183
   -1132913.7108    6092527.2670    1504633.6145
   -1132913.7238    6092527.2913    1504633.6173
   -1132913.7350    6092527.3235    1504633.6257
   -1132913.7376    6092527.3288    1504633.6381
   -1132913.7513    6092527.3576    1504633.6397
   -1132913.7582    6092527.3485    1504633.6441
   -1132913.7646    6092527.3599    1504633.6454
   -1132913.7707    6092527.3609    1504633.6481
   -1132914.0453    6092527.6503    1504633.7280
   -1132914.0881    6092527.6934    1504633.7308
   -1132914.1211    6092527.7363    1504633.7371
   -1132914.2854    6092527.9212    1504633.8249
   -1132914.1413    6092527.7244    1504633.7214
   -1132914.2611    6092527.7940    1504633.7354
   -1132914.1882    6092527.7009    1504633.6858
   -1132914.1738    6092527.6824    1504633.6628
   -1132914.0598    6092527.5301    1504633.6181
   -1132913.9952    6092527.4208    1504633.5679
   -1132913.9734    6092527.3770    1504633.6371
   -1132914.0112    6092527.4159    1504633.6225
   -1132914.7028    6092528.2326    1504634.2384
   -1132914.4816    6092527.9506    1504633.9172
   -1132914.4745    6092527.9275    1504633.9439
   -1132914.5027    6092527.9619    1504633.9368
   -1132914.7239    6092528.6101    1504634.0190
   -1132914.7796    6092528.6831    1504634.0005
   -1132914.8216    6092528.6833    1504634.0169
   -1132914.8331    6092528.6958    1504634.0508
   -1132914.8620    6092528.7226    1504634.0586
   -1132914.9098    6092528.8117    1504634.0515
   -1132914.9089    6092528.8176    1504634.0565
   -1132914.9110    6092528.7878    1504634.0705
   -1132914.9582    6092528.8485    1504634.0741
   -1132914.9747    6092528.8288    1504634.0838
   -1132915.0531    6092528.9055    1504634.0695
   -1132915.0647    6092528.8969    1504634.0781
   -1132915.0423    6092528.8854    1504634.0845
   -1132915.0566    6092528.8800    1504634.0930
   -1132915.0636    6092528.8896    1504634.0736
   -1132915.0769    6092528.9044    1504634.0782
   -1132915.0953    6092528.8933    1504634.0803
   -1132915.0771    6092528.8879    1504634.0605
   -1132915.1140    6092528.8999    1504634.0679
   -1132915.1012    6092528.8591    1504634.0619
   -1132915.1150    6092528.8670    1504634.0496
   -1132915.1575    6092528.8737    1504634.0494
   -1132915.1880    6092528.8707    1504634.0441
   -1132915.2041    6092528.8524    1504634.0375
   -1132915.2117    6092528.8344    1504634.0308
   -1132915.2368    6092528.8442    1504634.0349
   -1132915.2463    6092528.8063    1504634.0296
   -1132915.2745    6092528.7830    1504634.0319
   -1132915.2632    6092528.7372    1504634.0449
   -1132915.2932    6092528.6898    1504634.0376
   -1132915.2975    6092528.6463    1504634.0453
   -1132915.3187    6092528.5753    1504634.0519
   -1132915.3550    6092528.5092    1504634.0382
   -1132915.3623    6092528.4408    1504634.0328
   -1132915.3865    6092528.3983    1504634.0332
   -1132915.3962    6092528.3028    1504634.0311
   -1132915.4326    6092528.2251    1504634.0352
   -1132915.4439    6092528.1224    1504634.0239
   -1132915.4730    6092528.0105    1504634.0214
   -1132915.3061    6092528.6883    1504633.7922
   -1132915.3421    6092528.6107    1504633.7833
   -1132915.3576    6092528.4759    1504633.7640
   -1132915.2860    6092528.7995    1504633.8353
   -1132915.3061    6092528.8054    1504633.8348
   -1132914.8316    6092526.9426    1504632.8114
   -1132915.2446    6092528.5864    1504633.7410
   -1132915.1878    6092528.3910    1504633.6241
   -1132915.1242    6092528.1116    1504633.4726
   -1132915.1669    6092528.2550    1504633.5583
   -1132915.0818    6092527.9725    1504633.4016
   -1132915.1387    6092528.1756    1504633.4943
   -1132915.1820    6092528.3281    1504633.5727
   -1132915.1898    6092528.3660    1504633.5983
   -1132915.1684    6092528.2679    1504633.5674
   -1132915.1380    6092528.1667    1504633.5222
   -1132915.1513    6092528.2656    1504633.5680
   -1132915.1171    6092528.1518    1504633.5414
   -1132915.1016    6092528.1040    1504633.5127
   -1132915.0884    6092528.0815    1504633.4769
   -1132915.0722    6092528.0128    1504633.4488
   -1132915.0906    6092528.0779    1504633.4873
   -1132915.0766    6092528.0508    1504633.4682
   -1132915.0771    6092528.1044    1504633.4806
   -1132915.0965    6092528.1448    1504633.5025
   -1132915.0893    6092528.1550    1504633.5094
   -1132915.0980    6092528.1760    1504633.5133
   -1132915.0988    6092528.1729    1504633.5132
   -1132915.0854    6092528.1201    1504633.4940
   -1132915.0826    6092528.1191    1504633.5027
   -1132915.0842    6092528.0910    1504633.5075
   -1132915.0894    6092528.0828    1504633.5143
   -1132915.0891    6092528.1115    1504633.5538
   -1132915.0883    6092528.1769    1504633.5846
   -1132915.1033    6092528.1903    1504633.5976
   -1132915.0884    6092528.1569    1504633.5742
   -1132915.0811    6092528.1407    1504633.5601
   -1132915.0910    6092528.1497    1504633.5667
   -1132915.0841    6092528.1425    1504633.5572
   -1132915.0947    6092528.1634    1504633.5656
   -1132915.0988    6092528.2072    1504633.5673
   -1132915.0969    6092528.2101    1504633.5723
   -1132915.1086    6092528.2122    1504633.5869
   -1132915.1161    6092528.2193    1504633.5931
   -1132915.1281    6092528.2667    1504633.6058
   -1132915.1188    6092528.2738    1504633.6072
   -1132915.1316    6092528.2879    1504633.6114
   -1132915.1181    6092528.2819    1504633.6209
   -1132915.1204    6092528.3170    1504633.6404
   -1132915.1104    6092528.2918    1504633.6385
   -1132915.1102    6092528.3322    1504633.6522
   -1132915.0996    6092528.3240    1504633.6401
   -1132915.1066    6092528.3301    1504633.6403
   -1132915.0957    6092528.3195    1504633.6293
   -1132915.1052    6092528.3395    1504633.6475
   -1132915.0977    6092528.3475    1504633.6481
   -1132915.1072    6092528.3517    1504633.6554
   -1132915.1095    6092528.3451    1504633.6462
   -1132915.1192    6092528.3664    1504633.6469
   -1132915.1209    6092528.3671    1504633.6447
   -1132915.1096    6092528.3587    1504633.6357
   -1132915.1105    6092528.3410    1504633.6343
   -1132915.1068    6092528.3653    1504633.6473
   -1132915.1026    6092528.3627    1504633.6412
   -1132915.1109    6092528.3667    1504633.6490
   -1132915.1210    6092528.3639    1504633.6562
   -1132915.1184    6092528.3780    1504633.6635
   -1132915.1108    6092528.3337    1504633.6480
   -1132915.1134    6092528.3127    1504633.6353
   -1132915.1081    6092528.3478    1504633.6501
   -1132915.1123    6092528.3638    1504633.6570
   -1132915.1180    6092528.3624    1504633.6594
   -1132915.1225    6092528.4093    1504633.6626
   -1132915.1164    6092528.4029    1504633.6690
   -1132915.1191    6092528.4291    1504633.6778
   -1132915.1189    6092528.4192    1504633.6795
   -1132915.1192    6092528.4540    1504633.6792
   -1132915.1274    6092528.4608    1504633.6740
   -1132915.1150    6092528.4649    1504633.6728
   -1132915.1242    6092528.4464    1504633.6671
   -1132915.1183    6092528.4627    1504633.6731
   -1132914.8897    6092528.1449    1504633.5723
   -1132914.8933    6092528.1520    1504633.5799
   -1132914.8930    6092528.1625    1504633.5737
   -1132914.8918    6092528.1765    1504633.5730
   -1132914.8869    6092528.1692    1504633.5691
   -1132914.8863    6092528.1566    1504633.5697
   -1132914.8855    6092528.1517    1504633.5690
   -1132914.8888    6092528.1806    1504633.5822
   -1132914.8874    6092528.1549    1504633.5668
   -1132914.8873    6092528.1582    1504633.5650
   -1132914.8898    6092528.1784    1504633.5572
   -1132914.8908    6092528.1824    1504633.5607
   -1132914.8945    6092528.2016    1504633.5699
   -1132915.2961    6092529.2723    1504633.3717
   -1132915.3082    6092529.4604    1504633.2814
   -1132915.2493    6092529.2848    1504633.3341
   -1132915.2763    6092529.3370    1504633.3146
   -1132915.2714    6092529.3175    1504633.3174
   -1132915.3258    6092529.5084    1504633.2880
   -1132915.3306    6092529.5077    1504633.2842
   -1132915.3781    6092529.6193    1504633.2791
   -1132915.3789    6092529.6229    1504633.2722
   -1132915.4000    6092529.6685    1504633.2766
   -1132915.3999    6092529.6528    1504633.2709
   -1132915.4049    6092529.6855    1504633.2792
   -1132915.4028    6092529.6721    1504633.2853
   -1132915.3836    6092529.6399    1504633.2855
   -1132915.3637    6092529.6019    1504633.2900
   -1132915.3734    6092529.6351    1504633.2978
   -1132915.3990    6092529.7006    1504633.2988
   -1132915.4473    6092529.8235    1504633.2904
   -1132915.4494    6092529.8153    1504633.2951
   -1132915.4573    6092529.8323    1504633.2923
   -1132915.4625    6092529.8471    1504633.2899
   -1132915.4674    6092529.8420    1504633.2956
   -1132915.4749    6092529.8641    1504633.2946
   -1132915.4778    6092529.8666    1504633.3058
   -1132915.5052    6092529.8927    1504633.3050
   -1132915.5161    6092529.8683    1504633.3058
   -1132915.5153    6092529.8823    1504633.3170
   -1132915.5118    6092529.8896    1504633.3197
   -1132915.5258    6092529.9138    1504633.3136
   -1132915.5273    6092529.8691    1504633.3504
   -1132915.5189    6092529.8846    1504633.3341
   -1132915.3818    6092529.4672    1504633.4646
   -1132915.0016    6092528.6799    1504633.5952
   -1132914.8899    6092528.4140    1504633.6327
   -1132915.9901    6092530.9516    1504633.1717
   -1132915.7552    6092530.3950    1504633.2789
   -1132915.5934    6092530.0208    1504633.3765
   -1132915.7309    6092530.3118    1504633.3337
   -1132915.6664    6092530.1714    1504633.3600
   -1132915.6389    6092530.1191    1504633.3775
   -1132915.6250    6092530.0859    1504633.3797
   -1132915.6566    6092530.1619    1504633.3913
   -1132915.6006    6092530.0382    1504633.4099
   -1132915.6334    6092530.0931    1504633.4081
   -1132915.6520    6092530.1212    1504633.4118
   -1132915.6247    6092530.0672    1504633.4346
   -1132915.6099    6092530.0439    1504633.4387
   -1132915.5936    6092530.0252    1504633.4417
   -1132915.5958    6092530.0368    1504633.4448
   -1132915.6322    6092530.1119    1504633.4240
   -1132915.6103    6092530.0526    1504633.4259
   -1132915.6434    6092530.2524    1504633.3335
   -1132915.6460    6092530.2499    1504633.3336
   -1132915.6567    6092530.2815    1504633.3424
   -1132915.6463    6092530.2590    1504633.3431
   -1132915.6487    6092530.2755    1504633.3422
   -1132915.6648    6092530.3057    1504633.3412
   -1132915.6762    6092530.3262    1504633.3373
   -1132915.6772    6092530.3180    1504633.3412
   -1132915.6763    6092530.3114    1504633.3471
   -1132915.6920    6092530.3668    1504633.3584
   -1132915.6821    6092530.3677    1504633.3692
   -1132915.6979    6092530.4020    1504633.3649
   -1132915.7100    6092530.4310    1504633.3708
   -1132915.7427    6092530.4683    1504633.3672
   -1132915.7625    6092530.4930    1504633.3707
   -1132915.7846    6092530.5385    1504633.3717
   -1132915.7885    6092530.5443    1504633.3716
   -1132915.7811    6092530.5563    1504633.3736
   -1132915.7953    6092530.5923    1504633.3692
   -1132915.7927    6092530.5917    1504633.3712
   -1132915.7941    6092530.5986    1504633.3729
   -1132915.7966    6092530.6017    1504633.3737
   -1132915.7925    6092530.6172    1504633.3771
   -1132915.8091    6092530.6430    1504633.3852
   -1132915.8100    6092530.6535    1504633.3873
   -1132915.8016    6092530.6445    1504633.3938
   -1132915.7953    6092530.6469    1504633.3978
   -1132915.8017    6092530.6408    1504633.4100
   -1132915.7704    6092530.5703    1504633.4425
   -1132915.7496    6092530.5150    1504633.4579
   -1132915.7371    6092530.4723    1504633.4829
   -1132915.7380    6092530.5264    1504633.4599
   -1132915.7353    6092530.5382    1504633.4538
   -1132915.7348    6092530.5404    1504633.4676
   -1132915.7394    6092530.5657    1504633.4692
   -1132915.7429    6092530.5796    1504633.4714
   -1132915.7409    6092530.5790    1504633.4713
   -1132915.7396    6092530.5705    1504633.5007
   -1132915.7334    6092530.5800    1504633.4979
   -1132915.7375    6092530.6071    1504633.4928
   -1132915.7447    6092530.6089    1504633.5015
   -1132915.7305    6092530.5892    1504633.5220
   -1132915.7207    6092530.5703    1504633.5272
   -1132915.7152    6092530.5878    1504633.5320
   -1132915.7202    6092530.6172    1504633.5274
   -1132915.7261    6092530.6076    1504633.5501
   -1132915.7161    6092530.5996    1504633.5553
   -1132915.7185    6092530.6215    1504633.5600
   -1132915.7161    6092530.6562    1504633.5532
   -1132915.7310    6092530.6831    1504633.5629
   -1132915.7306    6092530.6903    1504633.5691
   -1132915.8055    6092530.9738    1504633.4526
   -1132915.8059    6092531.0084    1504633.4611
   -1132915.8098    6092531.0217    1504633.4653
   -1132915.7958    6092530.9948    1504633.4619
   -1132915.8003    6092531.0191    1504633.4631
   -1132915.8671    6092529.9735    1504633.3485
   -1132915.8591    6092529.9728    1504633.3425
   -1132915.8694    6092529.9672    1504633.3370
   -1132915.8696    6092529.9517    1504633.3442
   -1132915.8696    6092529.9510    1504633.3404
   -1132915.8661    6092529.9480    1504633.3419
   -1132915.8667    6092529.9635    1504633.3368
   -1132915.8617    6092529.9548    1504633.3392
   -1132915.8580    6092529.9525    1504633.3329
   -1132915.8626    6092529.9373    1504633.3375
   -1132915.8540    6092529.9341    1504633.3364
   -1132915.8558    6092529.9266    1504633.3436
   -1132915.8529    6092529.9031    1504633.3387
   -1132915.8586    6092529.9029    1504633.3451
   -1132915.8515    6092529.9053    1504633.3348
   -1132915.8649    6092529.9096    1504633.3399
   -1132915.8613    6092529.9058    1504633.3409
   -1132915.8642    6092529.9126    1504633.3464
   -1132915.8557    6092529.8884    1504633.3408
   -1132915.8549    6092529.8791    1504633.3429
   -1132915.8600    6092529.8813    1504633.3445
   -1132915.8549    6092529.8795    1504633.3511
   -1132915.8514    6092529.8838    1504633.3550
   -1132915.8531    6092529.8805    1504633.3509
   -1132915.8486    6092529.8714    1504633.3496
   -1132915.8604    6092529.8767    1504633.3549
   -1132915.8650    6092529.8820    1504633.3561
   -1132915.8588    6092529.8852    1504633.3552
   -1132915.8608    6092529.8729    1504633.3607
   -1132915.8519    6092529.9232    1504633.3147
   -1132915.8440    6092530.0349    1504633.2516
   -1132915.8429    6092530.0121    1504633.2578
   -1132915.8516    6092529.9852    1504633.2774
   -1132915.8599    6092529.9754    1504633.2891
   -1132915.8578    6092529.9329    1504633.3232
   -1132915.8590    6092529.9037    1504633.3498
   -1132915.8657    6092529.9185    1504633.3375
   -1132915.8589    6092529.9277    1504633.3352
   -1132915.8576    6092529.9289    1504633.3345
   -1132915.8556    6092529.9142    1504633.3342
   -1132915.8497    6092529.8866    1504633.3440
   -1132915.8408    6092529.8913    1504633.3229
   -1132915.8287    6092529.8424    1504633.3322
   -1132915.6522    6092529.5123    1504633.3549
   -1132915.5765    6092529.3661    1504633.3622
   -1132915.5779    6092529.3644    1504633.3552
   -1132915.4617    6092529.1652    1504633.3733
   -1132915.2853    6092528.7964    1504633.3997
   -1132915.2245    6092528.6891    1504633.4027
   -1132915.2097    6092528.6755    1504633.4111
   -1132915.2270    6092528.7038    1504633.4277
   -1132915.2815    6092528.7919    1504633.4308
   -1132915.3483    6092528.9284    1504633.4347
   -1132915.3990    6092528.9899    1504633.4262
   -1132915.3987    6092528.9830    1504633.4319
   -1132915.4172    6092529.0074    1504633.4257
   -1132915.4938    6092529.1149    1504633.4148
   -1132915.4892    6092529.1203    1504633.4156
   -1132915.4948    6092529.1282    1504633.4104
   -1132915.5265    6092529.1732    1504633.4097
   -1132915.5339    6092529.1691    1504633.4109
   -1132915.5324    6092529.1659    1504633.4088
   -1132915.5074    6092529.1242    1504633.4070
   -1132915.5257    6092529.1309    1504633.3923
   -1132915.5213    6092529.1152    1504633.3901
   -1132915.5195    6092529.1046    1504633.3765
   -1132915.5122    6092529.0816    1504633.3682
   -1132915.5132    6092529.0602    1504633.3617
   -1132915.5164    6092529.0398    1504633.3474
   -1132915.5180    6092529.0399    1504633.3301
   -1132915.5315    6092529.0247    1504633.3066
   -1132915.5269    6092528.9959    1504633.2852
   -1132915.4745    6092528.7614    1504633.4031
   -1132915.5206    6092528.8795    1504633.2840
   -1132915.4904    6092528.7782    1504633.2867
   -1132915.4817    6092528.7149    1504633.2530
   -1132915.4869    6092528.7047    1504633.2007
   -1132915.4892    6092528.6720    1504633.1557
   -1132915.4687    6092528.5713    1504633.0973
   -1132915.5814    6092528.9889    1504633.4216
   -1132915.5858    6092528.9971    1504633.4475
   -1132915.5741    6092528.9768    1504633.4666
   -1132915.5641    6092528.9808    1504633.4704
   -1132915.5583    6092528.9662    1504633.4803
   -1132915.5337    6092528.9373    1504633.4632
   -1132915.5676    6092528.9181    1504633.6041
   -1132915.5613    6092528.8874    1504633.6712
   -1132915.5531    6092528.8800    1504633.6591
   -1132915.5324    6092528.8759    1504633.6096
   -1132915.5182    6092528.8720    1504633.5733
   -1132915.4995    6092528.8532    1504633.5597
   -1132915.4876    6092528.8532    1504633.5477
   -1132915.4869    6092528.8378    1504633.5436
   -1132915.4865    6092528.8432    1504633.5304
   -1132915.4856    6092528.8417    1504633.5226
   -1132915.5273    6092528.9163    1504633.3999
   -1132915.5301    6092528.9224    1504633.3896
   -1132915.5328    6092528.9298    1504633.3650
   -1132915.5231    6092528.9359    1504633.3501
   -1132915.7469    6092529.3747    1504633.7445
   -1132915.0496    6092527.9974    1504632.5177
   -1132915.4109    6092528.6936    1504633.1726
   -1132915.2393    6092528.3647    1504632.9110
   -1132915.4471    6092528.8095    1504633.3051
   -1132915.5133    6092528.9198    1504633.4219
   -1132915.5331    6092528.9574    1504633.4727
   -1132915.4758    6092528.8420    1504633.3943
   -1132915.4230    6092528.7368    1504633.3292
   -1132915.4741    6092528.8247    1504633.4430
   -1132915.4572    6092528.8045    1504633.4235
   -1132915.4578    6092528.8083    1504633.4223
   -1132915.4651    6092528.8083    1504633.4457
   -1132915.4394    6092528.7750    1504633.4125
   -1132915.4034    6092528.6966    1504633.3465
   -1132915.4256    6092528.7606    1504633.4012
   -1132915.4355    6092528.7872    1504633.4251
   -1132915.4529    6092528.8287    1504633.4730
   -1132915.4483    6092528.8120    1504633.4781
   -1132915.4326    6092528.7742    1504633.4779
   -1132915.4416    6092528.8316    1504633.4706
   -1132915.4887    6092528.9780    1504633.5777
   -1132915.4916    6092528.9805    1504633.5839
   -1132915.4890    6092528.9676    1504633.5867
   -1132915.4801    6092528.9544    1504633.5711
   -1132915.4570    6092528.9300    1504633.5321
   -1132915.4604    6092528.9290    1504633.5431
   -1132915.4707    6092528.9482    1504633.5617
   -1132915.4916    6092528.9484    1504633.5715
   -1132915.4766    6092528.9394    1504633.5595
   -1132915.4728    6092528.9201    1504633.5414
   -1132915.4762    6092528.9292    1504633.5463
   -1132915.4733    6092528.9179    1504633.5368
   -1132915.4692    6092528.9204    1504633.5275
   -1132915.4736    6092528.9499    1504633.5562
   -1132915.4716    6092528.9347    1504633.5643
   -1132915.4713    6092528.9253    1504633.5611
   -1132915.4789    6092528.9460    1504633.5893
   -1132915.4854    6092528.9259    1504633.5896
   -1132915.5413    6092528.9803    1504633.5662
   -1132915.5355    6092528.9449    1504633.5675
   -1132915.6664    6092529.0912    1504633.5435
   -1132915.6936    6092529.1057    1504633.5251
   -1132915.6733    6092529.0747    1504633.5268
   -1132915.6428    6092529.0417    1504633.5510
   -1132915.6320    6092529.0165    1504633.5610
   -1132915.6427    6092529.0359    1504633.5594
   -1132915.5301    6092528.8797    1504633.5906
   -1132915.5345    6092528.8685    1504633.5989
   -1132915.5399    6092528.8573    1504633.6043
   -1132915.5628    6092528.9045    1504633.6065
   -1132915.5819    6092528.9193    1504633.5910
   -1132915.6391    6092528.9592    1504633.5889
   -1132915.6623    6092528.9705    1504633.5952
   -1132915.6685    6092528.9578    1504633.5997
   -1132915.6653    6092528.9604    1504633.5883
   -1132915.6647    6092528.9473    1504633.5796
   -1132915.6660    6092528.9529    1504633.5876
   -1132915.6584    6092528.9250    1504633.5685
   -1132915.6923    6092528.9426    1504633.5527
   -1132915.6992    6092528.9294    1504633.5559
   -1132915.6864    6092528.8970    1504633.5536
   -1132915.6651    6092528.8642    1504633.5572
   -1132915.6509    6092528.8282    1504633.5689
   -1132915.6653    6092528.8186    1504633.5659
   -1132915.6512    6092528.7933    1504633.5609
   -1132915.6443    6092528.7914    1504633.5779
   -1132915.6201    6092528.7275    1504633.5677
   -1132915.6136    6092528.7159    1504633.5543
   -1132915.6093    6092528.6603    1504633.5418
   -1132915.6075    6092528.6325    1504633.5251
   -1132915.6180    6092528.6188    1504633.5198
   -1132915.6294    6092528.6184    1504633.5157
   -1132915.6261    6092528.5891    1504633.5177
   -1132915.6156    6092528.5397    1504633.5180
   -1132915.6014    6092528.4876    1504633.5093
   -1132915.5853    6092528.4393    1504633.5011
   -1132915.5846    6092528.4238    1504633.5019
   -1132915.5789    6092528.3934    1504633.5019
   -1132915.5771    6092528.3362    1504633.4934
   -1132915.5875    6092528.3270    1504633.5010
   -1132915.5950    6092528.3136    1504633.5027
   -1132915.6039    6092528.2837    1504633.5053
   -1132915.6083    6092528.2455    1504633.4953
   -1132915.6110    6092528.2087    1504633.5010
   -1132915.6091    6092528.1692    1504633.4922
   -1132915.6119    6092528.1441    1504633.4940
   -1132915.4867    6092528.9581    1504633.5420
   -1132915.4849    6092528.9353    1504633.5342
   -1132915.4808    6092528.9489    1504633.5397
   -1132915.4851    6092528.9511    1504633.5457
   -1132915.4831    6092528.9645    1504633.5465
   -1132915.4772    6092528.9625    1504633.5359
   -1132915.4646    6092528.9519    1504633.5335
   -1132915.4640    6092528.9620    1504633.5432
   -1132915.4670    6092528.9715    1504633.5490
   -1132915.4757    6092528.9823    1504633.5567
   -1132915.4691    6092528.9837    1504633.5630
   -1132915.4710    6092528.9822    1504633.5652
   -1132915.4700    6092528.9722    1504633.5696
   -1132915.4701    6092528.9888    1504633.5781
   -1132915.4696    6092528.9713    1504633.5797
   -1132915.4678    6092528.9841    1504633.5836
   -1132915.4781    6092529.0094    1504633.5850
   -1132915.4687    6092528.9947    1504633.5848
   -1132915.4603    6092529.0001    1504633.5922
   -1132915.4462    6092528.9957    1504633.5943
   -1132915.4468    6092528.9998    1504633.5923
   -1132915.4471    6092529.0118    1504633.5905
   -1132915.4471    6092529.0200    1504633.5885
   -1132915.4409    6092529.0148    1504633.5922
   -1132915.4386    6092529.0273    1504633.5959
   -1132915.4359    6092529.0293    1504633.5889
   -1132915.4225    6092529.0170    1504633.5859
   -1132915.4240    6092529.0328    1504633.5824
   -1132915.2789    6092528.7381    1504633.6690
   -1132915.2112    6092528.6029    1504633.7131
   -1132916.1702    6092530.5011    1504633.6127
   -1132915.7334    6092529.6312    1504633.6452
   -1132915.5563    6092529.2997    1504633.6617
   -1132915.6208    6092529.4264    1504633.6525
   -1132915.7298    6092529.6107    1504633.6428
   -1132915.6385    6092529.4386    1504633.6456
   -1132915.5905    6092529.3550    1504633.6579
   -1132915.5663    6092529.2982    1504633.6560
   -1132915.6981    6092529.5355    1504633.6400
   -1132915.6885    6092529.5293    1504633.6462
   -1132915.7280    6092529.5845    1504633.6458
   -1132915.7767    6092529.6697    1504633.6357
   -1132915.7878    6092529.6766    1504633.6319
   -1132915.7859    6092529.6662    1504633.6235
   -1132915.9399    6092529.9545    1504633.5989
   -1132915.8106    6092529.7194    1504633.6119
   -1132915.7475    6092529.6102    1504633.6223
   -1132915.5003    6092529.1746    1504633.6500
   -1132915.8540    6092529.7906    1504633.6127
   -1132915.9201    6092529.8935    1504633.5964
   -1132916.0088    6092530.0459    1504633.5831
   -1132916.2031    6092530.3674    1504633.5561
   -1132916.1982    6092530.3408    1504633.5599
   -1132916.2793    6092530.4737    1504633.5465
   -1132916.0128    6092530.5007    1504633.6136
   -1132915.9676    6092530.4134    1504633.6212
   -1132915.9487    6092530.3749    1504633.6228
   -1132915.9511    6092530.3734    1504633.6182
   -1132915.9372    6092530.3506    1504633.6240
   -1132915.9579    6092530.3848    1504633.6200
   -1132915.8408    6092530.1844    1504633.6369
   -1132915.8303    6092530.1636    1504633.6321
   -1132915.8069    6092530.1088    1504633.6327
   -1132915.8078    6092530.1184    1504633.6266
   -1132915.8456    6092530.1648    1504633.6231
   -1132915.7770    6092530.0655    1504633.6302
   -1132915.7908    6092530.0628    1504633.6283
   -1132915.7535    6092530.0194    1504633.6293
   -1132915.7421    6092530.0033    1504633.6316
   -1132915.7388    6092529.9754    1504633.6309
   -1132915.7052    6092529.9400    1504633.6419
   -1132915.7173    6092529.9571    1504633.6381
   -1132915.7284    6092529.9871    1504633.6373
   -1132915.7257    6092529.9739    1504633.6410
   -1132915.6914    6092529.9353    1504633.6457
   -1132915.6982    6092529.9474    1504633.6507
   -1132915.6991    6092529.9533    1504633.6498
   -1132915.6987    6092529.9460    1504633.6480
   -1132915.7222    6092529.9665    1504633.6407
   -1132915.7226    6092529.9734    1504633.6419
   -1132915.7570    6092530.0265    1504633.6363
   -1132915.7722    6092530.0444    1504633.6312
   -1132915.7642    6092530.0304    1504633.6396
   -1132915.7706    6092530.0416    1504633.6415
   -1132915.7647    6092530.0219    1504633.6349
   -1132915.7452    6092529.9985    1504633.6377
   -1132915.7478    6092529.9834    1504633.6377
   -1132915.7429    6092529.9842    1504633.6381
   -1132915.7331    6092529.9714    1504633.6366
   -1132915.7196    6092529.9427    1504633.6320
   -1132915.7252    6092529.9270    1504633.6270
   -1132915.7247    6092529.9349    1504633.6270
   -1132915.7265    6092529.9191    1504633.6253
   -1132915.7128    6092529.8933    1504633.6182
   -1132915.7000    6092529.8801    1504633.6140
   -1132915.6860    6092529.8543    1504633.6122
   -1132915.6785    6092529.8464    1504633.6121
   -1132915.6617    6092529.8179    1504633.6068
   -1132915.6573    6092529.8392    1504633.6172
   -1132915.6580    6092529.8337    1504633.6029
   -1132915.6492    6092529.8273    1504633.6027
   -1132915.6389    6092529.8166    1504633.6063
   -1132915.6298    6092529.7888    1504633.6055
   -1132915.6242    6092529.7719    1504633.6017
   -1132914.7777    6092528.4928    1504633.7070
   -1132914.9079    6092528.6456    1504633.6766
   -1132915.0488    6092528.8585    1504633.6560
   -1132915.2208    6092529.1034    1504633.6326
   -1132915.3305    6092529.2680    1504633.6218
   -1132915.2751    6092529.1856    1504633.6291
   -1132915.3534    6092529.3136    1504633.6164
   -1132915.3246    6092529.2518    1504633.6158
   -1132915.3214    6092529.2445    1504633.6168
   -1132915.3097    6092529.2038    1504633.6151
   -1132915.3064    6092529.1888    1504633.6022
   -1132915.2916    6092529.1558    1504633.5980
   -1132915.3070    6092529.1638    1504633.5948
   -1132915.3352    6092529.1788    1504633.5765
   -1132915.3882    6092529.2317    1504633.5568
   -1132915.4055    6092529.2318    1504633.5413
   -1132915.4194    6092529.2350    1504633.5274
   -1132915.4266    6092529.2248    1504633.5209
   -1132915.4306    6092529.2142    1504633.5003
   -1132915.4428    6092529.2176    1504633.4821
   -1132915.4601    6092529.2273    1504633.4716
   -1132915.4413    6092529.1638    1504633.4571
   -1132915.4589    6092529.1521    1504633.4303
   -1132915.4553    6092529.1359    1504633.4222
   -1132915.4734    6092529.1285    1504633.3968
   -1132915.4682    6092529.0895    1504633.3673
   -1132915.4883    6092529.0711    1504633.3402
   -1132915.4952    6092529.0474    1504633.3172
   -1132915.4975    6092528.9829    1504633.2832
   -1132915.4835    6092528.9368    1504633.2668
   -1132915.4767    6092528.8921    1504633.2305
   -1132915.4755    6092528.8081    1504633.2002
   -1132915.4701    6092528.7450    1504633.1738
   -1132915.4832    6092528.6964    1504633.1226
   -1132915.4269    6092529.6006    1504633.7293
   -1132915.4339    6092529.5791    1504633.7286
   -1132915.4175    6092529.5522    1504633.7222
   -1132915.4182    6092529.5557    1504633.7168
   -1132915.4188    6092529.5687    1504633.7157
   -1132915.4034    6092529.5354    1504633.7211
   -1132915.3999    6092529.5393    1504633.7234
   -1132915.3980    6092529.5217    1504633.7187
   -1132915.3973    6092529.5371    1504633.7184
   -1132915.3959    6092529.5332    1504633.7265
   -1132915.3837    6092529.5243    1504633.7261
   -1132915.3780    6092529.5217    1504633.7350
   -1132915.3749    6092529.5147    1504633.7351
   -1132915.3690    6092529.5137    1504633.7335
   -1132915.3783    6092529.5300    1504633.7383
   -1132915.3848    6092529.5237    1504633.7342
   -1132915.3819    6092529.5265    1504633.7440
   -1132915.3808    6092529.4824    1504633.7385
   -1132915.3754    6092529.4832    1504633.7392
   -1132915.3799    6092529.4648    1504633.7346
   -1132915.0602    6092529.2086    1504633.7757
   -1132915.0581    6092529.1958    1504633.7739
   -1132915.0567    6092529.1833    1504633.7691
   -1132915.0630    6092529.1734    1504633.7711
   -1132915.0436    6092529.1470    1504633.7684
   -1132915.0452    6092529.1350    1504633.7669
   -1132915.0297    6092529.1030    1504633.7789
   -1132915.0316    6092529.1002    1504633.7769
   -1132915.0195    6092529.0797    1504633.7754
   -1132915.0201    6092529.0590    1504633.7808
   -1132915.0256    6092529.0198    1504633.7746
   -1132915.0179    6092528.9962    1504633.7719
   -1132915.0098    6092528.9748    1504633.7817
   -1132915.0182    6092528.9626    1504633.7719
   -1132915.0122    6092528.9269    1504633.7718
   -1132915.0216    6092528.8953    1504633.7645
   -1132914.8704    6092528.7534    1504633.4904
   -1132914.8811    6092528.6857    1504633.4448
   -1132914.9040    6092528.6564    1504633.4059
   -1132914.9109    6092528.6132    1504633.3933
   -1132914.9247    6092528.5993    1504633.3695
   -1132914.9370    6092528.5250    1504633.3506
   -1132914.9499    6092528.4777    1504633.3420
   -1132914.9482    6092528.4124    1504633.3406
   -1132914.9478    6092528.3328    1504633.3353
   -1132914.9588    6092528.2167    1504633.3164
   -1132914.9618    6092528.1596    1504633.3186
   -1132914.9685    6092528.0481    1504633.3119
   -1132914.9737    6092527.9489    1504633.3035
   -1132914.9237    6092528.4481    1504633.3554
   -1132914.9306    6092528.4473    1504633.3398
   -1132914.9277    6092528.4434    1504633.3322
   -1132914.9261    6092528.4556    1504633.3317
   -1132914.9309    6092528.4624    1504633.3253
   -1132914.9305    6092528.4529    1504633.3219
   -1132914.9342    6092528.4692    1504633.3218
   -1132914.9310    6092528.4506    1504633.3207
   -1132914.9267    6092528.4339    1504633.3234
   -1132914.9215    6092528.4386    1504633.3222
   -1132914.9153    6092528.4164    1504633.3196
   -1132914.9235    6092528.4413    1504633.3172
   -1132914.9167    6092528.4213    1504633.3185
   -1132914.9150    6092528.4016    1504633.3214
   -1132914.9239    6092528.4122    1504633.3167
   -1132914.9168    6092528.3972    1504633.3170
   -1132914.9192    6092528.3997    1504633.3118
   -1132914.9193    6092528.4039    1504633.3022
   -1132914.9182    6092528.3893    1504633.2962
   -1132914.9223    6092528.3958    1504633.3043
   -1132915.6712    6092529.1675    1504633.2526
   -1132915.2442    6092528.7344    1504633.2814
   -1132915.2723    6092528.7414    1504633.2779
   -1132915.2227    6092528.6982    1504633.2773
   -1132915.1756    6092528.6515    1504633.2826
   -1132915.2852    6092528.7440    1504633.2694
   -1132915.2636    6092528.7268    1504633.2703
   -1132915.2056    6092528.6367    1504633.2669
   -1132915.2146    6092528.6493    1504633.2614
   -1132915.2229    6092528.6475    1504633.2618
   -1132915.1451    6092528.5360    1504633.2616
   -1132915.1491    6092528.5363    1504633.2560
   -1132915.1450    6092528.5325    1504633.2640
   -1132915.1347    6092528.2987    1504633.1073
   -1132915.1689    6092528.3796    1504633.1495
   -1132915.1833    6092528.4180    1504633.1545
   -1132915.1701    6092528.4178    1504633.1701
   -1132915.1590    6092528.3837    1504633.1399
   -1132915.1559    6092528.3269    1504633.1034
   -1132915.1563    6092528.3303    1504633.0971
   -1132915.1528    6092528.2908    1504633.0847
   -1132915.1353    6092528.2666    1504633.0817
   -1132915.1409    6092528.3123    1504633.1136
   -1132915.1586    6092528.3448    1504633.1231
   -1132915.1774    6092528.3912    1504633.1321
   -1132915.1910    6092528.3774    1504633.1208
   -1132915.2166    6092528.4513    1504633.1568
   -1132915.2088    6092528.4390    1504633.1696
   -1132915.2241    6092528.4756    1504633.1861
   -1132915.2183    6092528.4865    1504633.1951
   -1132915.2279    6092528.4653    1504633.1820
   -1132915.2459    6092528.4625    1504633.1642
   -1132915.2303    6092528.4768    1504633.1827
   -1132915.2398    6092528.4537    1504633.1718
   -1132915.2327    6092528.4629    1504633.1769
   -1132915.2513    6092528.4806    1504633.1716
   -1132915.2639    6092528.4882    1504633.1697
   -1132915.2673    6092528.4868    1504633.1646
   -1132915.2755    6092528.6017    1504633.1886
   -1132915.2708    6092528.5008    1504633.1667
   -1132915.2658    6092528.4746    1504633.1615
   -1132915.2667    6092528.4547    1504633.1619
   -1132915.2775    6092528.4507    1504633.1624
   -1132915.2736    6092528.4512    1504633.1601
   -1132915.2691    6092528.4363    1504633.1583
   -1132915.2621    6092528.4246    1504633.1614
   -1132915.2482    6092528.4909    1504633.1766
   -1132915.2598    6092528.5043    1504633.1813
   -1132915.2561    6092528.4890    1504633.1872
   -1132915.2615    6092528.4866    1504633.1876
   -1132915.2724    6092528.4703    1504633.1819
   -1132915.2829    6092528.4876    1504633.1810
   -1132915.2918    6092528.5002    1504633.1747
   -1132915.2754    6092528.4853    1504633.1691
   -1132915.2860    6092528.4943    1504633.1689
   -1132915.2961    6092528.4900    1504633.1672
   -1132915.3045    6092528.4962    1504633.1614
   -1132915.3090    6092528.4959    1504633.1567
   -1132915.3076    6092528.4875    1504633.1557
   -1132915.3100    6092528.4923    1504633.1470
   -1132915.3021    6092528.4856    1504633.1478
   -1132915.3096    6092528.4763    1504633.1384
   -1132915.3150    6092528.4740    1504633.1410
   -1132915.3109    6092528.4735    1504633.1438
   -1132915.3034    6092528.4568    1504633.1367
   -1132915.2932    6092528.4472    1504633.1327
   -1132915.2986    6092528.4391    1504633.1266
   -1132915.3093    6092528.4569    1504633.1266
   -1132915.3043    6092528.4485    1504633.1256
   -1132915.2976    6092528.4435    1504633.1214
   -1132915.3114    6092528.4440    1504633.1236
   -1132915.3073    6092528.4291    1504633.1252
   -1132915.3114    6092528.4415    1504633.1305
   -1132915.3040    6092528.4147    1504633.1312
   -1132915.2864    6092528.3942    1504633.1309
   -1132915.2830    6092528.3918    1504633.1337
   -1132915.2816    6092528.4002    1504633.1190
   -1132915.2934    6092528.4134    1504633.1239
   -1132915.2883    6092528.4134    1504633.1209
   -1132915.2937    6092528.4301    1504633.1226
   -1132915.2941    6092528.4254    1504633.1198
   -1132915.2876    6092528.4157    1504633.1227
   -1132915.2802    6092528.4047    1504633.1142
   -1132915.2798    6092528.3891    1504633.1151
   -1132915.2865    6092528.4002    1504633.1134
   -1132915.2992    6092528.4185    1504633.1066
   -1132915.3073    6092528.3932    1504633.0970
   -1132915.3007    6092528.9870    1504633.2153
   -1132915.3067    6092529.0076    1504633.2080
   -1132914.8067    6092528.5352    1504633.2406
   -1132914.8008    6092528.5354    1504633.2419
   -1132914.8078    6092528.5408    1504633.2348
   -1132914.8188    6092528.5449    1504633.2299
   -1132914.8157    6092528.5475    1504633.2273
   -1132914.8163    6092528.5326    1504633.2270
   -1132914.8184    6092528.5289    1504633.2193
   -1132914.8198    6092528.5424    1504633.2218
   -1132914.8296    6092528.5432    1504633.2095
   -1132914.8294    6092528.5254    1504633.2015
   -1132914.8325    6092528.5382    1504633.1997
   -1132914.8355    6092528.5421    1504633.1941
   -1132914.8441    6092528.5493    1504633.1926
   -1132914.8518    6092528.5555    1504633.1954
   -1132914.8594    6092528.5552    1504633.1865
   -1132914.8530    6092528.5540    1504633.1811
   -1132914.8615    6092528.5660    1504633.1756
   -1132914.8632    6092528.5825    1504633.1857
   -1132914.8713    6092528.5813    1504633.1832
   -1132914.8789    6092528.5892    1504633.1827
   -1132914.8750    6092528.5661    1504633.1691
   -1132914.8780    6092528.5843    1504633.1713
   -1132914.8798    6092528.5805    1504633.1653
   -1132914.8913    6092528.5770    1504633.1627
   -1132914.8820    6092528.5716    1504633.1606
   -1132914.8928    6092528.5794    1504633.1556
   -1132914.8954    6092528.5669    1504633.1513
   -1132914.8461    6092528.4483    1504633.0932
   -1132914.8450    6092528.4507    1504633.0934
   -1132914.8536    6092528.4587    1504633.0852
   -1132914.8464    6092528.4534    1504633.0811
   -1132914.8499    6092528.4358    1504633.0757
   -1132914.8462    6092528.4533    1504633.0795
   -1132914.8441    6092528.4684    1504633.0788
   -1132914.8377    6092528.4419    1504633.0712
   -1132914.8368    6092528.4441    1504633.0757
   -1132915.5840    6092529.2400    1504633.1403
   -1132914.3654    6092527.9275    1504633.0190
   -1132914.6489    6092528.2403    1504633.0409
   -1132914.8744    6092528.4783    1504633.0594
   -1132915.1001    6092529.1654    1504633.4834
   -1132915.0987    6092528.8356    1504633.1968
   -1132915.1345    6092528.6946    1504633.0340
   -1132914.9897    6092528.7292    1504633.1917
   -1132914.9982    6092528.7637    1504633.1977
   -1132915.0441    6092528.8678    1504633.2434
   -1132915.1662    6092529.0940    1504633.3419
   -1132915.2863    6092529.3402    1504633.4515
   -1132915.2249    6092529.1851    1504633.3840
   -1132915.1676    6092529.0913    1504633.3323
   -1132915.2109    6092529.1815    1504633.3785
   -1132915.1741    6092529.1008    1504633.3419
   -1132915.2385    6092529.2049    1504633.3889
   -1132915.2300    6092529.2083    1504633.3820
   -1132915.2465    6092529.2310    1504633.3823
   -1132914.8199    6092528.4050    1504633.0108
   -1132914.8340    6092528.4127    1504633.0038
   -1132914.8279    6092528.4016    1504632.9990
   -1132914.8235    6092528.4119    1504632.9935
   -1132914.8166    6092528.4162    1504632.9862
   -1132914.8223    6092528.4240    1504632.9882
   -1132914.8332    6092528.3937    1504632.9823
   -1132914.8208    6092528.3923    1504632.9714
   -1132914.8195    6092528.4005    1504632.9682
   -1132914.8254    6092528.3958    1504632.9631
   -1132914.8217    6092528.4004    1504632.9595
   -1132914.8034    6092528.3636    1504632.9422
   -1132914.8066    6092528.3636    1504632.9445
   -1132914.8108    6092528.3714    1504632.9412
   -1132914.8117    6092528.3767    1504632.9434
   -1132914.8022    6092528.3712    1504632.9361
   -1132914.7974    6092528.3714    1504632.9364
   -1132914.8003    6092528.3784    1504632.9308
   -1132914.7968    6092528.3627    1504632.9172
   -1132914.8036    6092528.3766    1504632.9228
   -1132914.8010    6092528.3723    1504632.9210
   -1132914.8032    6092528.3665    1504632.9212
   -1132914.7952    6092528.3616    1504632.9138
   -1132914.7962    6092528.3719    1504632.9096
   -1132914.8061    6092528.3701    1504632.9048
   -1132914.8584    6092528.4502    1504632.9190
   -1132915.0317    6092528.6120    1504632.9234
   -1132914.6789    6092528.1826    1504632.8031
   -1132914.8896    6092528.5518    1504632.9734
   -1132914.8828    6092528.5263    1504632.9688
   -1132914.8186    6092528.4161    1504632.9168
   -1132914.8941    6092528.5425    1504632.9688
   -1132914.9142    6092528.5909    1504632.9883
   -1132914.9409    6092528.6290    1504633.0001
   -1132914.9196    6092528.5952    1504632.9787
   -1132914.8684    6092528.5015    1504632.9366
   -1132914.8894    6092528.5524    1504632.9616
   -1132914.8739    6092528.5100    1504632.9480
   -1132914.8839    6092528.5387    1504632.9478
   -1132914.9017    6092528.5890    1504632.9709
   -1132914.9382    6092528.6326    1504632.9878
   -1132914.9475    6092528.6673    1504632.9988
   -1132914.9352    6092528.6580    1504632.9857
   -1132914.9487    6092528.6647    1504632.9741
   -1132914.9076    6092528.5816    1504632.9421
   -1132914.8557    6092528.5044    1504632.9035
   -1132914.8642    6092528.5085    1504632.9042
   -1132914.8530    6092528.4915    1504632.8957
   -1132914.8401    6092528.4959    1504632.8957
   -1132914.8561    6092528.5000    1504632.9027
   -1132914.8656    6092528.5231    1504632.9006
   -1132914.8602    6092528.5326    1504632.9147
   -1132914.9603    6092528.6060    1504632.8938
   -1132916.1049    6092529.5584    1504632.9246
   -1132915.8059    6092529.3476    1504632.9451
   -1132915.4795    6092529.0344    1504632.8962
   -1132915.5367    6092529.0933    1504632.8991
   -1132915.2050    6092528.5368    1504632.6136
   -1132915.3422    6092528.8271    1504632.7666
   -1132915.4116    6092528.8811    1504632.7706
   -1132915.4381    6092528.8993    1504632.7862
   -1132915.7246    6092529.1960    1504632.8928
   -1132915.5725    6092529.0350    1504632.8412
   -1132915.5765    6092529.0230    1504633.1736
   -1132915.5252    6092528.9355    1504633.1469
   -1132915.4606    6092528.8235    1504633.0597
   -1132915.4357    6092528.7845    1504633.0488
   -1132915.4856    6092528.8152    1504633.0362
   -1132915.4432    6092528.7983    1504633.0636
   -1132915.3817    6092528.7299    1504633.0423
   -1132915.3449    6092528.7452    1504633.0806
   -1132915.3408    6092528.7147    1504633.0578
   -1132915.3518    6092528.7459    1504633.0922
   -1132915.3568    6092528.7570    1504633.0874
   -1132915.2589    6092528.6743    1504633.0451
   -1132915.2723    6092528.7066    1504633.0524
   -1132915.2159    6092528.6756    1504633.0487
   -1132915.1679    6092528.6379    1504633.0465
   -1132915.2221    6092528.7089    1504633.0681
   -1132915.2707    6092528.7398    1504633.0759
   -1132915.2386    6092528.6887    1504633.0586
   -1132915.1570    6092528.6263    1504633.0326
   -1132915.1366    6092528.6093    1504633.0309
   -1132915.1181    6092528.5787    1504633.0094
   -1132915.1519    6092528.6210    1504633.0043
   -1132915.1227    6092528.5977    1504633.0144
   -1132915.1175    6092528.6130    1504633.0248
   -1132915.1085    6092528.6091    1504633.0337
   -1132914.7704    6092528.2062    1504633.1414
   -1132914.4633    6092528.0941    1504632.9845
   -1132914.4939    6092528.1069    1504633.0087
   -1132912.5457    6092526.1579    1504633.2321
   -1132914.2801    6092527.8960    1504633.0062
   -1132915.3821    6092528.9865    1504632.8765
   -1132913.4893    6092527.0766    1504632.9238
   -1132913.8028    6092527.4362    1504632.9428
   -1132913.8701    6092527.4829    1504632.9391
   -1132913.9069    6092527.5112    1504632.9545
   -1132913.8282    6092527.4238    1504632.9565
   -1132914.8877    6092528.2459    1504633.5091
   -1132914.4384    6092527.9821    1504633.0264
   -1132914.4776    6092528.0033    1504633.0379
   -1132914.4384    6092527.9779    1504633.0097
   -1132914.4446    6092527.9631    1504632.9934
   -1132914.2919    6092527.8372    1504632.9325
   -1132914.3479    6092527.8434    1504632.9257
   -1132914.6242    6092528.0678    1504633.0189
   -1132914.7377    6092528.1396    1504633.0989
   -1132914.7437    6092528.1470    1504633.0402
   -1132914.6457    6092528.0266    1504633.0481
   -1132914.6762    6092528.0338    1504633.0543
   -1132914.7741    6092528.1164    1504633.0695
   -1132914.8248    6092528.1198    1504633.0719
   -1132914.9011    6092528.1459    1504633.0888
   -1132914.9348    6092528.1330    1504633.0984
   -1132915.4604    6092528.8365    1504633.7350
   -1132915.0875    6092528.4265    1504633.4263
   -1132914.7480    6092528.0567    1504633.0991
   -1132914.6284    6092527.8721    1504632.9938
   -1132914.6565    6092527.8162    1504632.9855
   -1132914.6637    6092527.7234    1504632.9238
   -1132914.7615    6092528.3226    1504632.9878
   -1132914.7236    6092528.2802    1504632.9502
   -1132914.8490    6092528.3569    1504633.0099
   -1132914.7975    6092527.5924    1504632.6169
   -1132914.9466    6092528.6789    1504633.2756
   -1132914.9912    6092528.5239    1504633.2290
   -1132915.1244    6092528.6568    1504633.3421
   -1132915.1456    6092528.6275    1504633.3395
   -1132915.1823    6092528.6002    1504633.3322
   -1132915.1749    6092528.6125    1504633.3296
   -1132914.7756    6092529.8143    1504633.5203
   -1132914.7425    6092530.0093    1504633.5813
   -1132915.1105    6092528.2807    1504633.1042
   -1132915.2514    6092527.8338    1504632.9581
   -1132915.2034    6092527.8689    1504632.9451
   -1132915.0553    6092528.3720    1504633.0743
   -1132915.0064    6092528.5735    1504633.1298
   -1132915.0042    6092528.6049    1504633.1585
   -1132914.9217    6092528.7023    1504633.2044
   -1132914.9298    6092528.6675    1504633.2233
   -1132914.9236    6092528.7614    1504633.2519
   -1132914.9276    6092528.6920    1504633.2182
   -1132914.9700    6092528.5451    1504633.1808
   -1132914.9538    6092528.5078    1504633.1778
   -1132914.9649    6092528.5789    1504633.2132
   -1132915.0124    6092528.4850    1504633.1949
   -1132915.0271    6092528.5279    1504633.2087
   -1132915.0531    6092528.4939    1504633.1919
   -1132915.0493    6092528.5700    1504633.2203
   -1132914.9271    6092528.3297    1504633.0793
   -1132914.7781    6092528.2402    1504632.9659
   -1132914.6576    6092528.1672    1504632.8969
   -1132914.5867    6092528.1336    1504632.8539
   -1132914.5832    6092528.1190    1504632.8572
   -1132914.6300    6092528.1863    1504632.9113
   -1132914.6504    6092528.2686    1504632.9486
   -1132914.6190    6092528.2910    1504632.9400
   -1132914.6547    6092528.2936    1504632.9633
   -1132914.6832    6092528.3833    1504632.9937
   -1132914.6851    6092528.3645    1504632.9645
   -1132914.6736    6092528.4133    1504632.9908
   -1132914.6420    6092528.4264    1504632.9653
   -1132914.6540    6092528.4420    1504632.9879
   -1132914.6201    6092528.4239    1504632.9837
   -1132914.6158    6092528.4440    1504632.9931
   -1132914.5951    6092528.4705    1504633.0064
   -1132914.6086    6092528.5173    1504633.0411
   -1132914.6012    6092528.5464    1504633.0425
   -1132914.6182    6092528.5821    1504633.0654
   -1132914.5812    6092528.6480    1504633.0965
   -1132914.5590    6092528.6241    1504633.0997
   -1132914.5633    6092528.5483    1504633.0875
   -1132914.5508    6092528.5684    1504633.0901
   -1132914.5785    6092528.5966    1504633.0982
   -1132914.5928    6092528.6957    1504633.1300
   -1132914.5918    6092528.7014    1504633.1294
   -1132914.5871    6092528.6834    1504633.1255
   -1132914.5746    6092528.7009    1504633.1271
   -1132914.6198    6092528.1989    1504632.9534
   -1132914.6189    6092528.2628    1504632.9700
   -1132914.6051    6092528.2349    1504632.9627
   -1132914.5928    6092528.2650    1504632.9745
   -1132914.8534    6092528.5414    1504632.7493
   -1132914.8656    6092528.5360    1504632.7578
   -1132914.8593    6092528.5708    1504632.7816
   -1132914.8268    6092529.3552    1504633.0592
   -1132914.8356    6092529.4660    1504633.1147
   -1132914.8086    6092530.1096    1504633.3302
   -1132914.8182    6092529.8090    1504633.2444
   -1132914.8368    6092529.9552    1504633.2882
   -1132914.8279    6092529.9218    1504633.2723
   -1132914.8410    6092529.8399    1504633.2398
   -1132914.8319    6092529.7587    1504633.2039
   -1132914.8782    6092528.6355    1504632.8494
   -1132914.8831    6092528.6141    1504632.8455
   -1132914.8827    6092528.6007    1504632.8522
   -1132914.8909    6092528.6424    1504632.8541
   -1132914.8916    6092528.6686    1504632.8588
   -1132914.8947    6092528.6682    1504632.8657
   -1132914.8964    6092528.6713    1504632.8666
   -1132914.9092    6092528.2742    1504632.7402
   -1132914.8763    6092528.6166    1504632.8575
   -1132914.8675    6092528.9802    1504632.9780
   -1132914.8514    6092529.1903    1504633.0448
   -1132914.8515    6092529.2401    1504633.0611
   -1132914.8390    6092529.2759    1504633.0723
   -1132914.8413    6092529.2127    1504633.0613
   -1132914.8415    6092529.3476    1504633.1087
   -1132914.8429    6092529.3123    1504633.0984
   -1132914.8330    6092529.1757    1504633.0554
   -1132914.8377    6092529.2134    1504633.0762
   -1132914.8477    6092529.4299    1504633.0238
   -1132914.8398    6092529.4348    1504633.0285
   -1132914.8494    6092529.3977    1504633.0158
   -1132914.8159    6092528.7418    1504633.2310
   -1132914.8163    6092528.8539    1504633.2136
   -1132914.8126    6092528.8245    1504633.1793
   -1132914.8009    6092528.9426    1504633.1589
   -1132914.8023    6092529.1035    1504633.1699
   -1132914.7925    6092529.1441    1504633.1543
   -1132914.7879    6092529.1497    1504633.1745
   -1132914.7858    6092529.2170    1504633.1659
   -1132914.7929    6092529.2571    1504633.1377
   -1132914.7996    6092529.3070    1504633.1211
   -1132914.8099    6092529.3658    1504633.1500
   -1132914.8119    6092529.3401    1504633.1677
   -1132914.8193    6092529.3921    1504633.1802
   -1132914.8143    6092529.4366    1504633.1911
   -1132914.8024    6092529.4352    1504633.1876
   -1132914.7984    6092529.4175    1504633.1769
   -1132914.8039    6092529.3588    1504633.1724
   -1132914.8137    6092529.3966    1504633.1642
   -1132914.7967    6092529.3770    1504633.1653
   -1132914.8026    6092529.4093    1504633.1541
   -1132914.8021    6092529.4126    1504633.1600
   -1132914.8053    6092529.4027    1504633.1610
   -1132914.8211    6092529.4233    1504633.1661
   -1132914.8285    6092529.3852    1504633.1732
   -1132914.8328    6092529.4668    1504633.1785
   -1132914.8335    6092529.4585    1504633.1835
   -1132914.8238    6092529.4431    1504633.1782
   -1132914.8258    6092529.4495    1504633.1862
   -1132914.8350    6092529.4203    1504633.1945
   -1132914.8377    6092529.3974    1504633.1859
   -1132914.8456    6092529.3933    1504633.1782
   -1132914.8482    6092529.3670    1504633.1695
   -1132914.8417    6092529.3426    1504633.1786
   -1132914.8536    6092529.3375    1504633.1963
   -1132914.8586    6092529.3454    1504633.2048
   -1132914.8623    6092529.3461    1504633.2218
   -1132914.8608    6092529.3671    1504633.2188
   -1132914.8523    6092529.3484    1504633.2221
   -1132914.8589    6092529.3270    1504633.2234
   -1132914.8619    6092529.3201    1504633.2321
   -1132914.8624    6092529.3017    1504633.2314
   -1132914.8661    6092529.3154    1504633.2404
   -1132914.8529    6092529.2883    1504633.2382
   -1132914.8509    6092529.2921    1504633.2460
   -1132914.8515    6092529.2768    1504633.2406
   -1132914.8516    6092529.2391    1504633.2430
   -1132914.8523    6092529.2578    1504633.2532
   -1132914.8601    6092529.2418    1504633.2495
   -1132914.8552    6092529.2567    1504633.2453
   -1132914.8714    6092529.2742    1504633.2546
   -1132914.8775    6092529.2859    1504633.2621
   -1132914.8820    6092529.2902    1504633.2568
   -1132914.8753    6092529.2725    1504633.2571
   -1132914.8723    6092529.2652    1504633.2602
   -1132914.8691    6092529.2661    1504633.2624
   -1132914.8741    6092529.2938    1504633.2599
   -1132914.8782    6092529.2977    1504633.2648
   -1132914.8821    6092529.2982    1504633.2622
   -1132914.8750    6092529.3292    1504633.2664
   -1132914.8722    6092529.3221    1504633.2616
   -1132914.8790    6092529.3398    1504633.2677
   -1132914.8803    6092529.3445    1504633.2704
   -1132914.8888    6092529.3534    1504633.2699
   -1132914.8826    6092529.3640    1504633.2784
   -1132914.8846    6092529.3724    1504633.2773
   -1132914.8834    6092529.3829    1504633.2770
   -1132914.8779    6092529.3736    1504633.2772
   -1132914.8900    6092529.3816    1504633.2764
   -1132914.8834    6092529.3758    1504633.2780
   -1132914.8795    6092529.3476    1504633.2787
   -1132914.8764    6092529.3511    1504633.2845
   -1132914.8801    6092529.3413    1504633.2916
   -1132914.9177    6092529.5717    1504633.2102
   -1132914.8384    6092529.0661    1504633.4075
   -1132914.8786    6092529.2098    1504633.3992
   -1132914.8942    6092529.2064    1504633.4266
   -1132914.8223    6092528.9824    1504633.4473
   -1132914.9017    6092529.2265    1504633.4140
   -1132914.9123    6092529.2233    1504633.4098
   -1132914.8475    6092529.0351    1504633.4191
   -1132914.8601    6092529.0563    1504633.4103
   -1132914.8569    6092529.0479    1504633.4187
   -1132914.9159    6092529.2234    1504633.3961
   -1132914.8718    6092529.1232    1504633.3802
   -1132914.8766    6092529.1408    1504633.3711
   -1132914.8890    6092529.1689    1504633.3789
   -1132914.9136    6092529.2807    1504633.3543
   -1132914.9168    6092529.2793    1504633.3611
   -1132914.4465    6092528.9798    1504633.3684
   -1132914.5124    6092529.3379    1504633.2471
   -1132914.5052    6092529.3436    1504633.2421
   -1132914.4883    6092529.2861    1504633.2658
   -1132914.5121    6092529.3965    1504633.2343
   -1132914.4924    6092529.3690    1504633.2302
   -1132914.4964    6092529.3420    1504633.2533
   -1132914.4940    6092529.3117    1504633.2798
   -1132914.4861    6092529.2684    1504633.3006
   -1132914.4891    6092529.3019    1504633.2957
   -1132914.4575    6092529.2298    1504633.3077
   -1132914.5046    6092529.3435    1504633.3206
   -1132914.4397    6092529.1656    1504633.3316
   -1132914.4457    6092529.2141    1504633.3107
   -1132914.4297    6092529.1617    1504633.3261
   -1132914.4295    6092529.1877    1504633.3181
   -1132914.4190    6092529.1622    1504633.3290
   -1132914.4197    6092529.1901    1504633.3233
   -1132914.4354    6092529.2432    1504633.3160
   -1132914.7521    6092529.6460    1504633.5212
   -1132914.6749    6092529.5386    1504633.4774
   -1132914.6394    6092529.4953    1504633.4578
   -1132914.6542    6092529.5123    1504633.4749
   -1132914.7428    6092529.6475    1504633.5218
   -1132914.7106    6092529.6300    1504633.5076
   -1132914.7135    6092529.6601    1504633.4935
   -1132914.7117    6092529.6414    1504633.5001
   -1132914.6976    6092529.6236    1504633.4937
   -1132914.6961    6092529.6384    1504633.4934
   -1132914.7375    6092529.7001    1504633.5313
   -1132914.7536    6092529.7501    1504633.5338
   -1132914.7354    6092529.7105    1504633.5387
   -1132914.7192    6092529.6972    1504633.5253
   -1132914.7479    6092529.7126    1504633.5544
   -1132914.7497    6092529.7143    1504633.5542
   -1132914.7239    6092529.7117    1504633.5509
   -1132914.7429    6092529.7497    1504633.5684
   -1132914.7822    6092529.7911    1504633.6065
   -1132914.8054    6092529.8367    1504633.6268
   -1132914.8124    6092529.8360    1504633.6382
   -1132914.8222    6092529.8682    1504633.6425
   -1132914.8052    6092529.8515    1504633.6412
   -1132914.8263    6092529.9000    1504633.6523
   -1132914.8532    6092529.9499    1504633.6845
   -1132914.8740    6092530.0027    1504633.7065
   -1132914.9016    6092530.0423    1504633.7181
   -1132914.9226    6092530.0845    1504633.7316
   -1132914.9386    6092530.1132    1504633.7443
   -1132914.9654    6092530.1628    1504633.7568
   -1132914.9687    6092530.1732    1504633.7646
   -1132914.9858    6092530.2033    1504633.7811
   -1132914.9758    6092530.2099    1504633.7771
   -1132914.9821    6092530.2449    1504633.7821
   -1132915.0026    6092530.2711    1504633.7951
   -1132915.0091    6092530.3014    1504633.7960
   -1132915.0070    6092530.3188    1504633.7950
   -1132915.0146    6092530.3276    1504633.8146
   -1132915.0350    6092530.3580    1504633.8333
   -1132915.0420    6092530.3973    1504633.8450
   -1132915.0365    6092530.3732    1504633.8575
   -1132915.0336    6092530.3946    1504633.8470
   -1132915.0260    6092530.4142    1504633.8443
   -1132915.0327    6092530.4368    1504633.8410
   -1132915.0047    6092530.4201    1504633.8447
   -1132915.0067    6092530.4266    1504633.8477
   -1132915.0117    6092530.4548    1504633.8547
   -1132915.0004    6092530.4391    1504633.8551
   -1132914.9987    6092530.4438    1504633.8457
   -1132914.9890    6092530.4535    1504633.8416
   -1132914.9664    6092530.4634    1504633.8290
   -1132914.9466    6092530.4432    1504633.8255
   -1132914.9475    6092530.4605    1504633.8315
   -1132914.9322    6092530.4309    1504633.8241
   -1132914.9385    6092530.4513    1504633.8339
   -1132914.9236    6092530.4434    1504633.8312
   -1132914.9175    6092530.4471    1504633.8292
   -1132914.9066    6092530.4579    1504633.8297
   -1132915.2324    6092531.0206    1504633.7260
   -1132914.8609    6092530.5162    1504633.7801
   -1132914.6482    6092530.2062    1504633.8233
   -1132914.5727    6092530.1213    1504633.8379
   -1132914.6627    6092530.2573    1504633.8178
   -1132914.7008    6092530.3182    1504633.8137
   -1132914.5947    6092530.1823    1504633.8308
   -1132914.5397    6092530.1018    1504633.8343
   -1132914.6544    6092530.3166    1504633.7857
   -1132914.6650    6092530.3331    1504633.7885
   -1132914.6197    6092530.2926    1504633.8000
   -1132914.5624    6092530.2270    1504633.8175
   -1132914.1082    6092529.8416    1504633.1543
   -1132914.0719    6092529.8117    1504633.1497
   -1132914.1029    6092529.8487    1504633.1626
   -1132914.1291    6092529.8757    1504633.1611
   -1132914.2060    6092529.9808    1504633.1602
   -1132914.1630    6092529.9378    1504633.1603
   -1132914.1715    6092529.9412    1504633.1522
   -1132914.1631    6092529.9549    1504633.1492
   -1132914.1720    6092529.9703    1504633.1426
   -1132914.2041    6092530.0149    1504633.1310
   -1132914.2284    6092530.0610    1504633.1187
   -1132914.2403    6092530.0701    1504633.1066
   -1132914.2484    6092530.0826    1504633.1020
   -1132914.2153    6092530.0270    1504633.0932
   -1132914.2109    6092530.0409    1504633.0833
   -1132914.1906    6092530.0298    1504633.0638
   -1132914.1722    6092529.9960    1504633.0510
   -1132914.1422    6092529.9643    1504633.0486
   -1132914.1189    6092529.9320    1504633.0403
   -1132914.0725    6092529.8627    1504633.0180
   -1132914.0637    6092529.8438    1504632.9885
   -1132914.0546    6092529.8399    1504632.9663
   -1132914.0361    6092529.7967    1504632.9414
   -1132914.0134    6092529.7592    1504632.9131
   -1132914.0100    6092529.7392    1504632.8768
   -1132913.9841    6092529.6949    1504632.8408
   -1132913.9649    6092529.6549    1504632.7980
   -1132913.9532    6092529.6121    1504632.7515
   -1132913.9176    6092529.5466    1504632.7003
   -1132913.8985    6092529.5033    1504632.6710
   -1132913.8935    6092529.5073    1504632.6661
   -1132914.4807    6092529.7071    1504632.9602
   -1132914.4842    6092529.6958    1504632.9529
   -1132914.4817    6092529.7062    1504632.9454
   -1132914.4723    6092529.6830    1504632.9407
   -1132914.4633    6092529.6843    1504632.9388
   -1132914.4511    6092529.6744    1504632.9346
   -1132914.4391    6092529.6545    1504632.9302
   -1132914.4463    6092529.5830    1504632.9983
   -1132914.4608    6092529.5469    1504633.0240
   -1132914.4613    6092529.5150    1504633.0515
   -1132914.4472    6092529.5461    1504633.0177
   -1132914.4465    6092529.5030    1504633.0368
   -1132914.4406    6092529.4915    1504633.0438
   -1132914.4355    6092529.4695    1504633.0427
   -1132914.4321    6092529.4826    1504633.0349
   -1132914.4354    6092529.4650    1504633.0449
   -1132914.4533    6092529.4816    1504633.0341
   -1132914.6166    6092529.7220    1504633.3416
   -1132915.1101    6092530.5469    1504634.2913
   -1132915.0615    6092530.4441    1504634.1807
   -1132914.8920    6092530.2097    1504633.7369
   -1132914.8067    6092530.0620    1504633.5146
   -1132914.8689    6092530.1548    1504633.6530
   -1132914.8082    6092530.0028    1504633.6373
   -1132914.7871    6092529.9769    1504633.5768
   -1132914.7513    6092529.9029    1504633.5182
   -1132914.7443    6092529.8974    1504633.5426
   -1132914.7319    6092529.8735    1504633.5260
   -1132914.7144    6092529.8200    1504633.4915
   -1132914.7063    6092529.7834    1504633.5079
   -1132914.7122    6092529.7703    1504633.5609
   -1132914.7044    6092529.7496    1504633.5634
   -1132914.7077    6092529.7541    1504633.5836
   -1132914.7207    6092529.7711    1504633.6085
   -1132914.7136    6092529.7677    1504633.5947
   -1132914.7138    6092529.7384    1504633.5681
   -1132914.6788    6092529.7838    1504633.4569
   -1132914.6617    6092529.7436    1504633.4286
   -1132914.6629    6092529.7177    1504633.4465
   -1132914.6672    6092529.7133    1504633.4555
   -1132914.6624    6092529.7046    1504633.4593
   -1132914.6608    6092529.6722    1504633.4581
   -1132914.6735    6092529.6394    1504633.4490
   -1132914.6716    6092529.6214    1504633.4555
   -1132914.6558    6092529.5783    1504633.4460
   -1132914.6370    6092529.5212    1504633.4375
   -1132914.6330    6092529.4726    1504633.4260
   -1132914.6385    6092529.4424    1504633.4458
   -1132914.6308    6092529.3995    1504633.4351
   -1132914.6248    6092529.3376    1504633.4362
   -1132914.6231    6092529.2988    1504633.4288
   -1132914.6176    6092529.2521    1504633.4331
   -1132914.6179    6092529.2053    1504633.4425
   -1132914.1907    6092529.6429    1504633.1917
   -1132914.1536    6092529.6035    1504633.1615
   -1132914.5382    6092529.8413    1504633.5548
   -1132914.6688    6092530.2005    1504633.3806
   -1132914.8559    6092530.4273    1504633.4536
